{"learner":{"attributes":{"scikit_learn":"{\"_estimator_type\": \"classifier\"}"},"feature_names":["type_encoded","air_temp_k","process_temp_k","rotational_speed_rpm","torque_nm","tool_wear_min","temp_delta","power"],"feature_types":["int","float","float","int","float","int","float","float"],"gradient_booster":{"model":{"cats":{"enc":[],"feature_segments":[],"sorted_idx":[]},"gbtree_model_param":{"num_parallel_tree":"1","num_trees":"300"},"iteration_indptr":[0,1,2,3,4,5,6,7,8,9,10,11,12,13,14,15,16,17,18,19,20,21,22,23,24,25,26,27,28,29,30,31,32,33,34,35,36,37,38,39,40,41,42,43,44,45,46,47,48,49,50,51,52,53,54,55,56,57,58,59,60,61,62,63,64,65,66,67,68,69,70,71,72,73,74,75,76,77,78,79,80,81,82,83,84,85,86,87,88,89,90,91,92,93,94,95,96,97,98,99,100,101,102,103,104,105,106,107,108,109,110,111,112,113,114,115,116,117,118,119,120,121,122,123,124,125,126,127,128,129,130,131,132,133,134,135,136,137,138,139,140,141,142,143,144,145,146,147,148,149,150,151,152,153,154,155,156,157,158,159,160,161,162,163,164,165,166,167,168,169,170,171,172,173,174,175,176,177,178,179,180,181,182,183,184,185,186,187,188,189,190,191,192,193,194,195,196,197,198,199,200,201,202,203,204,205,206,207,208,209,210,211,212,213,214,215,216,217,218,219,220,221,222,223,224,225,226,227,228,229,230,231,232,233,234,235,236,237,238,239,240,241,242,243,244,245,246,247,248,249,250,251,252,253,254,255,256,257,258,259,260,261,262,263,264,265,266,267,268,269,270,271,272,273,274,275,276,277,278,279,280,281,282,283,284,285,286,287,288,289,290,291,292,293,294,295,296,297,298,299,300],"tree_info":[0,0,0,0,0,0,0,0,0,0,0,0,0,0,0,0,0,0,0,0,0,0,0,0,0,0,0,0,0,0,0,0,0,0,0,0,0,0,0,0,0,0,0,0,0,0,0,0,0,0,0,0,0,0,0,0,0,0,0,0,0,0,0,0,0,0,0,0,0,0,0,0,0,0,0,0,0,0,0,0,0,0,0,0,0,0,0,0,0,0,0,0,0,0,0,0,0,0,0,0,0,0,0,0,0,0,0,0,0,0,0,0,0,0,0,0,0,0,0,0,0,0,0,0,0,0,0,0,0,0,0,0,0,0,0,0,0,0,0,0,0,0,0,0,0,0,0,0,0,0,0,0,0,0,0,0,0,0,0,0,0,0,0,0,0,0,0,0,0,0,0,0,0,0,0,0,0,0,0,0,0,0,0,0,0,0,0,0,0,0,0,0,0,0,0,0,0,0,0,0,0,0,0,0,0,0,0,0,0,0,0,0,0,0,0,0,0,0,0,0,0,0,0,0,0,0,0,0,0,0,0,0,0,0,0,0,0,0,0,0,0,0,0,0,0,0,0,0,0,0,0,0,0,0,0,0,0,0,0,0,0,0,0,0,0,0,0,0,0,0,0,0,0,0,0,0,0,0,0,0,0,0,0,0,0,0,0,0,0,0,0,0,0,0,0,0,0,0,0,0],"trees":[{"base_weights":[1.8831186E-2,-9.993178E-2,1.7238193E0,1.7389097E0,-8.75E-2,-8.260869E-2,1.7492194E0,1.515332E0,1.8766689E0,1.5960207E0,-9.3220346E-2,-7.333334E-2,1.88629E0,8.26984E-2,-9.047619E-2,-6.666667E-2,9.466585E-2],"categories":[],"categories_nodes":[],"categories_segments":[],"categories_sizes":[],"default_left":[0,0,0,0,0,0,0,0,0,0,0,0,0,0,0,0,0],"id":0,"left_children":[1,-1,3,5,-1,-1,7,9,11,13,-1,-1,15,-1,-1,-1,-1],"loss_changes":[1.1007645E4,0E0,9.3961426E1,6.328076E1,0E0,0E0,4.850586E1,1.7008789E2,3.8497803E1,1.21208496E2,0E0,0E0,2.7593994E1,0E0,0E0,0E0,0E0],"parents":[2147483647,0,0,2,2,3,3,6,6,7,7,8,8,9,9,12,12],"right_children":[2,-1,4,6,-1,-1,8,10,12,14,-1,-1,16,-1,-1,-1,-1],"split_conditions":[2E2,-9.993178E-2,1.15E1,1.324E3,-8.75E-2,-8.260869E-2,2.14E2,3.023E2,2.973E2,2.11E2,-9.3220346E-2,-7.333334E-2,1.372E3,8.26984E-2,-9.047619E-2,-6.666667E-2,9.466585E-2],"split_indices":[5,0,6,3,0,0,5,1,1,5,0,0,3,0,0,0,0],"split_type":[0,0,0,0,0,0,0,0,0,0,0,0,0,0,0,0,0],"sum_hessian":[3.1981216E3,1.46475E3,1.7333716E3,1.7263716E3,7E0,4.75E0,1.7216216E3,6.117905E2,1.109831E3,5.980405E2,1.375E1,2.75E0,1.107081E3,5.885405E2,9.5E0,2E0,1.105081E3],"tree_param":{"num_deleted":"0","num_feature":"8","num_nodes":"17","size_leaf_vector":"1"}},{"base_weights":[1.5273447E-2,-9.517967E-2,1.6155161E0,-8.540047E-2,1.62696E0,-7.9230435E-2,1.6366273E0,-8.2202844E-2,1.645123E0,1.088299E0,1.693053E0,8.56321E-2,-9.51749E-2,7.607099E-2,8.707013E-2],"categories":[],"categories_nodes":[],"categories_segments":[],"categories_sizes":[],"default_left":[0,0,0,0,0,0,0,0,0,0,0,0,0,0,0],"id":1,"left_children":[1,-1,3,-1,5,-1,7,-1,9,11,13,-1,-1,-1,-1],"loss_changes":[9.851205E3,0E0,6.931299E1,0E0,5.6733887E1,0E0,5.117627E1,0E0,4.4464844E1,2.6535547E2,1.0592773E1,0E0,0E0,0E0,0E0],"parents":[2147483647,0,0,2,2,4,4,6,6,8,8,9,9,10,10],"right_children":[2,-1,4,-1,6,-1,8,-1,10,12,14,-1,-1,-1,-1],"split_conditions":[1.98E2,-9.517967E-2,2.969E2,-8.540047E-2,1.324E3,-7.9230435E-2,3.91636E4,-8.2202844E-2,2.03E2,5.41559E4,2.996E2,8.56321E-2,-9.51749E-2,7.607099E-2,8.707013E-2],"split_indices":[5,0,1,0,3,0,7,0,5,7,1,0,0,0,0],"split_type":[0,0,0,0,0,0,0,0,0,0,0,0,0,0,0],"sum_hessian":[3.2061782E3,1.4578574E3,1.7483208E3,5.4906774E0,1.7428302E3,4.74146E0,1.7380887E3,3.992132E0,1.7340966E3,1.3931505E2,1.5947815E3,1.1561541E2,2.369964E1,3.576501E2,1.2371315E3],"tree_param":{"num_deleted":"0","num_feature":"8","num_nodes":"15","size_leaf_vector":"1"}},{"base_weights":[1.1029687E-1,-6.537792E-1,4.437002E-1,-9.262207E-1,1.0587401E0,-9.096166E-2,5.4661226E-1,-1.1010828E0,1.4208252E0,-8.642284E-2,1.4807953E0,6.269763E-1,-5.4570264E-1,-5.7330024E-1,-9.1892146E-2,8.931752E-2,-7.851254E-2,1.7042537E0,-8.1388354E-2,4.0648663E-1,1.3250369E0,-9.100803E-2,1.3383963E0,3.195858E-1,-9.172762E-2,1.7744724E0,-6.291015E-2,6.486152E-1,-5.7899576E-1,1.4023818E0,-8.4395885E-2,8.756233E-2,-8.025265E-2,3.762594E-2,-8.9864396E-2,-5.0417818E-2,9.073522E-2,3.595734E-2,-8.92752E-2,2.8966902E-2,-9.176018E-2,-8.3533734E-2,7.317274E-2],"categories":[],"categories_nodes":[],"categories_segments":[],"categories_sizes":[],"default_left":[0,0,0,0,0,0,0,0,0,0,0,0,0,0,0,0,0,0,0,0,0,0,0,0,0,0,0,0,0,0,0,0,0,0,0,0,0,0,0,0,0,0,0],"id":2,"left_children":[1,3,5,7,9,-1,11,13,15,-1,17,19,21,23,-1,-1,-1,25,-1,27,29,-1,31,33,-1,35,-1,37,39,41,-1,-1,-1,-1,-1,-1,-1,-1,-1,-1,-1,-1,-1],"loss_changes":[8.505535E2,4.7424344E2,5.422926E2,3.609486E2,1.6688493E2,0E0,1.955708E2,3.160603E2,6.9664764E1,0E0,8.7421234E1,3.1838135E2,3.696902E2,5.373106E2,0E0,0E0,0E0,2.5983246E1,0E0,3.7645804E2,1.181712E2,0E0,7.8504585E1,2.5787213E2,0E0,1.4363159E1,0E0,2.1858612E2,4.541759E2,9.347815E1,0E0,0E0,0E0,0E0,0E0,0E0,0E0,0E0,0E0,0E0,0E0,0E0,0E0],"parents":[2147483647,0,0,1,1,2,2,3,3,4,4,6,6,7,7,8,8,10,10,11,11,12,12,13,13,17,17,19,19,20,20,22,22,23,23,25,25,27,27,28,28,29,29],"right_children":[2,4,6,8,10,-1,12,14,16,-1,18,20,22,24,-1,-1,-1,26,-1,28,30,-1,32,34,-1,36,-1,38,40,42,-1,-1,-1,-1,-1,-1,-1,-1,-1,-1,-1,-1,-1],"split_conditions":[2.996E2,1.867E3,1.373E3,6.24E1,3.089E2,-9.096166E-2,6.89156E4,6.01082E4,2.975E2,-8.642284E-2,2.987E2,4.53E1,7.95472E4,1.55E3,-9.1892146E-2,8.931752E-2,-7.851254E-2,1E0,-8.1388354E-2,3.91E1,4.81E1,-9.100803E-2,5.49E1,3.09E2,-9.172762E-2,3.55134E4,-6.291015E-2,2E0,1.443E3,3.003E2,-8.4395885E-2,8.756233E-2,-8.025265E-2,3.762594E-2,-8.9864396E-2,-5.0417818E-2,9.073522E-2,3.595734E-2,-8.92752E-2,2.8966902E-2,-9.176018E-2,-8.3533734E-2,7.317274E-2],"split_indices":[1,3,3,4,2,0,7,7,1,0,1,4,7,3,0,0,0,0,0,4,4,0,4,2,0,7,0,0,3,1,0,0,0,0,0,0,0,0,0,0,0,0,0],"split_type":[0,0,0,0,0,0,0,0,0,0,0,0,0,0,0,0,0,0,0,0,0,0,0,0,0,0,0,0,0,0,0,0,0,0,0,0,0,0,0,0,0,0,0],"sum_hessian":[3.3366975E3,1.0133636E3,2.323334E3,8.7467267E2,1.3869089E2,1.003374E2,2.2229966E3,8.145194E2,6.01533E1,1.783244E1,1.20858444E2,2.0710508E3,1.5194577E2,4.755992E2,3.389202E2,5.3961674E1,6.1916275E0,1.1317465E2,7.6837873E0,1.5751162E3,4.9593448E2,9.065685E1,6.1288925E1,2.789014E2,1.9669778E2,1.1094593E2,2.2287216E0,1.2647217E3,3.1039453E2,4.8404324E2,1.18912325E1,5.4105137E1,7.1837907E0,2.3208168E2,4.6819733E1,1.2381786E0,1.09707756E2,1.2297915E3,3.493016E1,1.6176855E2,1.4862598E2,8.918695E0,4.7512457E2],"tree_param":{"num_deleted":"0","num_feature":"8","num_nodes":"43","size_leaf_vector":"1"}},{"base_weights":[2.0224702E-2,-8.933823E-2,1.5193365E0,7.6928544E-1,1.5899736E0,1.4569094E0,-9.527027E-2,1.60161E0,-8.020985E-2,1.7798369E0,-8.57834E-2,-6.658685E-2,1.607078E0,-5.3919144E-2,9.112256E-2,-6.931057E-2,1.611762E0,7.637764E-2,8.334009E-2],"categories":[],"categories_nodes":[],"categories_segments":[],"categories_sizes":[],"default_left":[0,0,0,0,0,0,0,0,0,0,0,0,0,0,0,0,0,0,0],"id":3,"left_children":[1,-1,3,5,7,9,-1,11,-1,13,-1,-1,15,-1,-1,-1,17,-1,-1],"loss_changes":[8.577324E3,0E0,9.046704E1,2.8029434E2,6.132251E1,1.26609985E2,0E0,2.74104E1,0E0,1.5357269E1,0E0,0E0,2.4289062E1,0E0,0E0,0E0,4.7355957E0,0E0,0E0],"parents":[2147483647,0,0,2,2,3,3,4,4,5,5,7,7,9,9,12,12,16,16],"right_children":[2,-1,4,6,8,10,-1,12,-1,14,-1,-1,16,-1,-1,-1,18,-1,-1],"split_conditions":[1.98E2,-8.933823E-2,2.04E2,2.985E2,1.15E1,5.41559E4,-9.527027E-2,2.969E2,-8.020985E-2,4.7432E4,-8.57834E-2,-6.658685E-2,7.9E0,-5.3919144E-2,9.112256E-2,-6.931057E-2,2.14E2,7.637764E-2,8.334009E-2],"split_indices":[5,0,5,1,6,7,0,1,0,7,0,0,6,0,0,0,5,0,0],"split_type":[0,0,0,0,0,0,0,0,0,0,0,0,0,0,0,0,0,0,0],"sum_hessian":[3.164372E3,1.4347594E3,1.7296125E3,1.4989232E2,1.5797203E3,1.1960016E2,3.0292156E1,1.574483E3,5.237231E0,1.089495E2,1.0650664E1,2.4782736E0,1.5720048E3,1.2434479E0,1.0770605E2,1.9953127E0,1.5700095E3,6.319278E2,9.3808167E2],"tree_param":{"num_deleted":"0","num_feature":"8","num_nodes":"19","size_leaf_vector":"1"}},{"base_weights":[1.8463042E-2,-6.499748E-1,4.3115506E-1,-9.9476326E-1,1.1145998E0,-8.399182E-2,5.152361E-1,-1.140704E0,1.3073378E0,-8.15973E-2,1.4844971E0,9.2770314E-1,2.327236E-1,-7.523006E-1,-8.61688E-2,8.212304E-2,-7.268989E-2,1.5895208E0,-7.494425E-2,1.5483902E0,5.639279E-1,-8.881589E-2,3.854303E-1,-2.5023687E-1,-8.536014E-2,-6.938197E-2,8.2785726E-2,-7.7928804E-2,1.6574593E0,-8.731078E-2,1.0060779E0,-7.3068357E-1,6.194451E-1,4.7292728E-2,-8.553505E-2,-5.239537E-2,8.380736E-2,-8.3158225E-2,5.575788E-2,1.5301267E-2,-8.806554E-2,-8.562986E-2,3.611827E-2],"categories":[],"categories_nodes":[],"categories_segments":[],"categories_sizes":[],"default_left":[0,0,0,0,0,0,0,0,0,0,0,0,0,0,0,0,0,0,0,0,0,0,0,0,0,0,0,0,0,0,0,0,0,0,0,0,0,0,0,0,0,0,0],"id":4,"left_children":[1,3,5,7,9,-1,11,13,15,-1,17,19,21,23,-1,-1,-1,25,-1,27,29,-1,31,33,-1,-1,-1,-1,35,-1,37,39,41,-1,-1,-1,-1,-1,-1,-1,-1,-1,-1],"loss_changes":[8.6515466E2,7.2947797E2,3.450317E2,3.381407E2,2.0170715E2,0E0,2.171676E2,2.1207446E2,5.8093704E1,0E0,5.671292E1,1.7027777E2,3.4076935E2,2.7164075E2,0E0,0E0,0E0,3.540277E1,0E0,9.73064E1,4.9151593E2,0E0,2.6974374E2,6.5338226E2,0E0,0E0,0E0,0E0,1.5433716E1,0E0,1.19218445E2,1.9196918E2,2.059365E2,0E0,0E0,0E0,0E0,0E0,0E0,0E0,0E0,0E0,0E0],"parents":[2147483647,0,0,1,1,2,2,3,3,4,4,6,6,7,7,8,8,10,10,11,11,12,12,13,13,17,17,19,19,20,20,22,22,23,23,28,28,30,30,31,31,32,32],"right_children":[2,4,6,8,10,-1,12,14,16,-1,18,20,22,24,-1,-1,-1,26,-1,28,30,-1,32,34,-1,-1,-1,-1,36,-1,38,40,42,-1,-1,-1,-1,-1,-1,-1,-1,-1,-1],"split_conditions":[3.003E2,1.867E3,1.364E3,6.24E1,3.092E2,-8.399182E-2,3.009E2,3.09E2,2.975E2,-8.15973E-2,2.997E2,1.398E3,2.9E1,4.14E1,-8.61688E-2,8.212304E-2,-7.268989E-2,2.986E2,-7.494425E-2,1E0,1.524E3,-8.881589E-2,3.017E2,1.512E3,-8.536014E-2,-6.938197E-2,8.2785726E-2,-7.7928804E-2,4.49E1,-8.731078E-2,3.004E2,3.011E2,1.405E3,4.7292728E-2,-8.553505E-2,-5.239537E-2,8.380736E-2,-8.3158225E-2,5.575788E-2,1.5301267E-2,-8.806554E-2,-8.562986E-2,3.611827E-2],"split_indices":[1,3,3,4,2,0,1,2,1,0,1,3,4,4,0,0,0,1,0,0,3,0,1,3,0,0,0,0,4,0,1,1,3,0,0,0,0,0,0,0,0,0,0],"split_type":[0,0,0,0,0,0,0,0,0,0,0,0,0,0,0,0,0,0,0,0,0,0,0,0,0,0,0,0,0,0,0,0,0,0,0,0,0,0,0,0,0,0,0],"sum_hessian":[3.134205E3,1.1961783E3,1.9380267E3,1.0010205E3,1.951578E2,7.350806E1,1.8645187E3,9.418188E2,5.9201748E1,2.275873E1,1.7239906E2,7.570073E2,1.1075114E3,5.664919E2,3.7532684E2,5.3155354E1,6.0463943E0,1.6698782E2,5.4112515E0,2.785235E2,4.784838E2,7.7483955E1,1.0300273E3,3.7210855E2,1.9438335E2,3.19782E0,1.6379E2,8.995172E0,2.6952835E2,7.6393585E1,4.020902E2,1.7816449E2,8.5186285E2,2.0476358E2,1.6734499E2,1.4712172E0,2.6805713E2,1.5227095E1,3.8686313E2,8.9170685E1,8.89938E1,3.5345222E1,8.1651764E2],"tree_param":{"num_deleted":"0","num_feature":"8","num_nodes":"43","size_leaf_vector":"1"}},{"base_weights":[3.074881E-2,-8.424486E-2,1.4483523E0,1.460792E0,-7.6296315E-2,-6.872192E-2,1.4684788E0,-7.176467E-2,1.475647E0,1.009803E0,1.515731E0,7.644738E-2,-8.6484395E-2,-5.9857715E-2,7.595541E-2],"categories":[],"categories_nodes":[],"categories_segments":[],"categories_sizes":[],"default_left":[0,0,0,0,0,0,0,0,0,0,0,0,0,0,0],"id":5,"left_children":[1,-1,3,5,-1,-1,7,-1,9,11,13,-1,-1,-1,-1],"loss_changes":[7.584402E3,0E0,6.540625E1,3.908789E1,0E0,0E0,3.743701E1,0E0,3.0085205E1,1.9768468E2,1.6083252E1,0E0,0E0,0E0,0E0],"parents":[2147483647,0,0,2,2,3,3,6,6,8,8,9,9,10,10],"right_children":[2,-1,4,6,-1,-1,8,-1,10,12,14,-1,-1,-1,-1],"split_conditions":[1.98E2,-8.424486E-2,1.15E1,1.324E3,-7.6296315E-2,-6.872192E-2,3.076E2,-7.176467E-2,2.03E2,3.09E2,7.9E0,7.644738E-2,-8.6484395E-2,-5.9857715E-2,7.595541E-2],"split_indices":[5,0,6,3,0,0,2,0,5,2,6,0,0,0,0],"split_type":[0,0,0,0,0,0,0,0,0,0,0,0,0,0,0],"sum_hessian":[3.1164473E3,1.4099161E3,1.706531E3,1.69993E3,6.6009464E0,4.115572E0,1.6958146E3,3.6853242E0,1.6921292E3,1.3614049E2,1.5559886E3,1.1482297E2,2.1317528E1,1.4950999E0,1.5544937E3],"tree_param":{"num_deleted":"0","num_feature":"8","num_nodes":"15","size_leaf_vector":"1"}},{"base_weights":[3.7057575E-2,-8.15292E-2,1.3984201E0,-7.222676E-2,1.4071126E0,1.4135172E0,-8.4311E-2,1.4643658E0,1.0055221E0,1.4916089E0,8.9120364E-1,-9.43616E-2,1.4048592E0,7.484054E-2,-7.528668E-2,-9.8337196E-2,8.853079E-2,-6.7150906E-2,7.427966E-2],"categories":[],"categories_nodes":[],"categories_segments":[],"categories_sizes":[],"default_left":[0,0,0,0,0,0,0,0,0,0,0,0,0,0,0,0,0,0,0],"id":6,"left_children":[1,-1,3,-1,5,7,-1,9,11,13,15,-1,17,-1,-1,-1,-1,-1,-1],"loss_changes":[6.9570107E3,0E0,4.372534E1,0E0,3.571631E1,3.3371094E1,0E0,2.1956055E1,2.2134753E2,2.4426758E1,1.7978673E2,0E0,3.902716E1,0E0,0E0,0E0,0E0,0E0,0E0],"parents":[2147483647,0,0,2,2,4,4,5,5,7,7,8,8,9,9,10,10,12,12],"right_children":[2,-1,4,-1,6,8,-1,10,12,14,16,-1,18,-1,-1,-1,-1,-1,-1],"split_conditions":[1.98E2,-8.15292E-2,2.969E2,-7.222676E-2,2.35E2,6.5904E4,-8.4311E-2,3.024E2,1E0,3.119E2,3.044E2,-9.43616E-2,2.03E2,7.484054E-2,-7.528668E-2,-9.8337196E-2,8.853079E-2,-6.7150906E-2,7.427966E-2],"split_indices":[5,0,1,0,5,7,0,1,0,2,1,0,5,0,0,0,0,0,0],"split_type":[0,0,0,0,0,0,0,0,0,0,0,0,0,0,0,0,0,0,0],"sum_hessian":[3.062401E3,1.3762837E3,1.6861173E3,4.636196E0,1.6814812E3,1.6785488E3,2.9323223E0,1.4902316E3,1.8831725E2,1.4210834E3,6.9148186E1,2.2391287E1,1.6592596E2,1.4191211E3,1.9622836E0,1.5979842E1,5.3168346E1,4.289581E0,1.6163638E2],"tree_param":{"num_deleted":"0","num_feature":"8","num_nodes":"19","size_leaf_vector":"1"}},{"base_weights":[-5.547571E-2,-7.904107E-2,1.3074716E0,-9.012657E-2,1.3359238E0,1.34881E0,-7.44578E-2,-7.449023E-2,1.3563759E0,1.1935979E0,1.4786758E0,6.297214E-2,-9.6736304E-2,7.534775E-2,-8.99145E-2],"categories":[],"categories_nodes":[],"categories_segments":[],"categories_sizes":[],"default_left":[0,0,0,0,0,0,0,0,0,0,0,0,0,0,0],"id":7,"left_children":[1,-1,3,-1,5,7,-1,-1,9,11,13,-1,-1,-1,-1],"loss_changes":[5.960335E3,0E0,1.3638574E2,0E0,5.665039E1,3.4121582E1,0E0,0E0,2.7921387E1,1.35281E2,8.1227905E1,0E0,0E0,0E0,0E0],"parents":[2147483647,0,0,2,2,4,4,5,5,8,8,9,9,10,10],"right_children":[2,-1,4,-1,6,8,-1,-1,10,12,14,-1,-1,-1,-1],"split_conditions":[1.98E2,-7.904107E-2,2.974E2,-9.012657E-2,1.15E1,7.9E0,-7.44578E-2,-7.449023E-2,2.14E2,2.11E2,6.89156E4,6.297214E-2,-9.6736304E-2,7.534775E-2,-8.99145E-2],"split_indices":[5,0,1,0,6,6,0,0,5,5,7,0,0,0,0],"split_type":[0,0,0,0,0,0,0,0,0,0,0,0,0,0,0],"sum_hessian":[2.8649768E3,1.3518693E3,1.5131075E3,1.31520405E1,1.4999556E3,1.4936649E3,6.2905817E0,3.4498088E0,1.4902151E3,6.439262E2,8.4628894E2,6.3123737E2,1.2688848E1,8.3958374E2,6.705182E0],"tree_param":{"num_deleted":"0","num_feature":"8","num_nodes":"15","size_leaf_vector":"1"}},{"base_weights":[-7.1918204E-2,4.1442767E-1,-2.432216E-1,5.61271E-1,-7.971148E-2,-8.095228E-2,-1.14587225E-1,-7.427658E-2,6.8363196E-1,-3.95399E-1,4.227218E-1,7.65386E-1,-7.871379E-2,2.0646496E-1,-8.7336683E-1,-7.655951E-2,6.6445863E-1,8.305247E-1,-7.398019E-2,-4.280478E-1,1.006054E0,-1.2889372E0,1.2716773E0,-3.1959677E-1,9.4918853E-1,2.357716E-2,6.0906436E-2,2.11829E-2,-8.0088265E-2,5.9717633E-2,-7.635965E-2,-7.7545844E-2,-2.6324217E-3,-6.616594E-2,7.332111E-2,-8.098567E-2,5.164832E-2,5.1107127E-2,-7.567611E-2],"categories":[],"categories_nodes":[],"categories_segments":[],"categories_sizes":[],"default_left":[0,0,0,0,0,0,0,0,0,0,0,0,0,0,0,0,0,0,0,0,0,0,0,0,0,0,0,0,0,0,0,0,0,0,0,0,0,0,0],"id":8,"left_children":[1,3,5,7,-1,-1,9,-1,11,13,15,17,-1,19,21,-1,23,25,-1,27,29,31,33,35,37,-1,-1,-1,-1,-1,-1,-1,-1,-1,-1,-1,-1,-1,-1],"loss_changes":[2.3100276E2,2.1393939E2,3.626591E2,1.6977339E2,0E0,0E0,2.8322296E2,0E0,1.18697845E2,3.547638E2,3.0538904E2,9.115341E1,0E0,2.776443E2,6.142228E2,0E0,1.6117484E2,8.266495E1,0E0,3.0592203E2,1.1728311E2,1.8652997E2,5.8557144E1,2.2956325E2,8.159778E1,0E0,0E0,0E0,0E0,0E0,0E0,0E0,0E0,0E0,0E0,0E0,0E0,0E0,0E0],"parents":[2147483647,0,0,1,1,2,2,3,3,6,6,8,8,9,9,10,10,11,11,13,13,14,14,16,16,17,17,19,19,20,20,21,21,22,22,23,23,24,24],"right_children":[2,4,6,8,-1,-1,10,-1,12,14,16,18,-1,20,22,-1,24,26,-1,28,30,32,34,36,38,-1,-1,-1,-1,-1,-1,-1,-1,-1,-1,-1,-1,-1,-1],"split_conditions":[5.09877E4,3.021E2,3.5E1,2.978E2,-7.971148E-2,-8.095228E-2,3.017E2,-7.427658E-2,2.029E3,6.01082E4,1.405E3,3.11E1,-7.871379E-2,5.92515E4,6.24E1,-7.655951E-2,9E0,2.9E1,-7.398019E-2,2.985E2,1E0,1.14E1,1.324E3,6.8799E4,1.568E3,2.357716E-2,6.0906436E-2,2.11829E-2,-8.0088265E-2,5.9717633E-2,-7.635965E-2,-7.7545844E-2,-2.6324217E-3,-6.616594E-2,7.332111E-2,-8.098567E-2,5.164832E-2,5.1107127E-2,-7.567611E-2],"split_indices":[7,1,4,1,0,0,1,0,3,7,3,4,0,7,4,0,6,4,0,1,0,6,3,7,3,0,0,0,0,0,0,0,0,0,0,0,0,0,0],"split_type":[0,0,0,0,0,0,0,0,0,0,0,0,0,0,0,0,0,0,0,0,0,0,0,0,0,0,0,0,0,0,0,0,0,0,0,0,0,0,0],"sum_hessian":[2.7705095E3,7.212881E2,2.0492214E3,6.7282184E2,4.8466217E1,1.7422212E2,1.8749994E3,3.7324966E1,6.354969E2,1.2315981E3,6.434013E2,6.1392883E2,2.1568037E1,5.453959E2,6.862023E2,7.025001E1,5.731513E2,5.9723016E2,1.6698671E1,3.0434665E2,2.410492E2,5.751706E2,1.1103165E2,1.2859422E2,4.4455707E2,3.112141E2,2.8601608E2,1.7673691E2,1.2760974E2,2.2486342E2,1.618578E1,4.7438916E2,1.0078144E2,7.3463E0,1.0368534E2,6.546763E1,6.31266E1,4.3233478E2,1.2222285E1],"tree_param":{"num_deleted":"0","num_feature":"8","num_nodes":"39","size_leaf_vector":"1"}},{"base_weights":[-4.5283835E-2,-7.56175E-2,1.2785157E0,6.137845E-1,1.3525732E0,1.2532912E0,-8.6737104E-2,1.3639114E0,-6.991016E-2,1.488205E0,-7.799512E-2,-5.8355976E-2,1.3698782E0,7.774732E-2,-6.878448E-2,-5.7783227E-2,1.375415E0,-6.0047682E-2,6.8991534E-2],"categories":[],"categories_nodes":[],"categories_segments":[],"categories_sizes":[],"default_left":[0,0,0,0,0,0,0,0,0,0,0,0,0,0,0,0,0,0,0],"id":9,"left_children":[1,-1,3,5,7,9,-1,11,-1,13,-1,-1,15,-1,-1,-1,17,-1,-1],"loss_changes":[5.3249526E3,0E0,7.0123535E1,2.2191867E2,4.2328125E1,7.870192E1,0E0,2.1098389E1,0E0,2.2625992E1,0E0,0E0,1.9608887E1,0E0,0E0,0E0,1.629004E1,0E0,0E0],"parents":[2147483647,0,0,2,2,3,3,4,4,5,5,7,7,9,9,12,12,16,16],"right_children":[2,-1,4,6,8,10,-1,12,-1,14,-1,-1,16,-1,-1,-1,18,-1,-1],"split_conditions":[1.98E2,-7.56175E-2,2.04E2,3.09E2,1.15E1,3.83E1,-8.6737104E-2,2.969E2,-6.991016E-2,2.01E2,-7.799512E-2,-5.8355976E-2,1.324E3,7.774732E-2,-6.878448E-2,-5.7783227E-2,7.9E0,-6.0047682E-2,6.8991534E-2],"split_indices":[5,0,5,2,6,4,0,1,0,5,0,0,3,0,0,0,6,0,0],"split_type":[0,0,0,0,0,0,0,0,0,0,0,0,0,0,0,0,0,0,0],"sum_hessian":[2.739855E3,1.299536E3,1.4403191E3,1.4531114E2,1.2950079E3,1.14577805E2,3.0733334E1,1.2901942E3,4.813785E0,1.0618214E2,8.395668E0,2.5766995E0,1.2876174E3,1.0421062E2,1.9715226E0,2.3623192E0,1.2852551E3,1.7353902E0,1.2835198E3],"tree_param":{"num_deleted":"0","num_feature":"8","num_nodes":"19","size_leaf_vector":"1"}},{"base_weights":[6.828088E-2,-7.388083E-2,1.296507E0,-8.038073E-2,1.3087686E0,-6.24789E-2,1.3155007E0,1.1648521E0,1.4218317E0,1.2334895E0,-9.2845365E-2,-6.916451E-2,1.4308734E0,-9.4891004E-2,6.398697E-2,7.18476E-2,-7.261446E-2],"categories":[],"categories_nodes":[],"categories_segments":[],"categories_sizes":[],"default_left":[0,0,0,0,0,0,0,0,0,0,0,0,0,0,0,0,0],"id":10,"left_children":[1,-1,3,-1,5,-1,7,9,11,13,-1,-1,15,-1,-1,-1,-1],"loss_changes":[5.4518027E3,0E0,5.9080322E1,0E0,2.909497E1,0E0,2.3815674E1,1.399032E2,2.5507812E1,9.64707E1,0E0,0E0,1.8301025E1,0E0,0E0,0E0,0E0],"parents":[2147483647,0,0,2,2,4,4,6,6,7,7,8,8,9,9,12,12],"right_children":[2,-1,4,-1,6,-1,8,10,12,14,-1,-1,16,-1,-1,-1,-1],"split_conditions":[2E2,-7.388083E-2,3.081E2,-8.038073E-2,1.324E3,-6.24789E-2,2.14E2,2.11E2,1.372E3,3.088E2,-9.2845365E-2,-6.916451E-2,3.124E2,-9.4891004E-2,6.398697E-2,7.18476E-2,-7.261446E-2],"split_indices":[5,0,2,0,3,0,5,5,3,2,0,0,2,0,0,0,0],"split_type":[0,0,0,0,0,0,0,0,0,0,0,0,0,0,0,0,0],"sum_hessian":[2.869308E3,1.2702786E3,1.5990295E3,6.175949E0,1.5928535E3,3.695944E0,1.5891576E3,6.624953E2,9.2666235E2,6.4836E2,1.4135301E1,2.4889803E0,9.2417334E2,8.854274E0,6.395057E2,9.2272955E2,1.4437755E0],"tree_param":{"num_deleted":"0","num_feature":"8","num_nodes":"17","size_leaf_vector":"1"}},{"base_weights":[-1.243426E-2,1.9651268E-1,-1.1400523E0,8.5440606E-2,9.0937376E-1,-7.287226E-2,6.3780963E-1,2.9601374E-1,-7.447041E-1,-6.883815E-2,1.1437483E0,-6.80073E-2,6.8454646E-2,8.180367E-1,7.895956E-2,4.8877634E-2,-7.460688E-2,-6.8299435E-2,1.2736682E0,1.1839186E0,-2.9793808E-1,-2.1331212E-1,8.125925E-1,6.6428006E-1,-7.556727E-2,1.3381696E0,-6.669871E-2,6.372451E-2,-7.022687E-2,-7.547525E-2,7.056072E-2,1.4649428E-3,-7.592173E-2,-7.528119E-2,5.4567333E-2,-7.359078E-2,5.3593155E-2,-5.2889444E-2,6.841821E-2],"categories":[],"categories_nodes":[],"categories_segments":[],"categories_sizes":[],"default_left":[0,0,0,0,0,0,0,0,0,0,0,0,0,0,0,0,0,0,0,0,0,0,0,0,0,0,0,0,0,0,0,0,0,0,0,0,0,0,0],"id":11,"left_children":[1,3,5,7,9,-1,11,13,15,-1,17,-1,-1,19,21,23,-1,-1,25,27,29,31,33,35,-1,37,-1,-1,-1,-1,-1,-1,-1,-1,-1,-1,-1,-1,-1],"loss_changes":[6.278672E2,1.7793921E2,2.3600604E2,3.4044647E2,1.6391576E2,0E0,9.508162E1,1.75926E2,2.338266E2,0E0,9.152319E1,0E0,0E0,1.8656302E2,2.3564302E2,1.854631E2,0E0,0E0,4.590625E1,8.23544E1,2.3695393E2,2.4895361E2,2.039511E2,1.22130554E2,0E0,2.000293E1,0E0,0E0,0E0,0E0,0E0,0E0,0E0,0E0,0E0,0E0,0E0,0E0,0E0],"parents":[2147483647,0,0,1,1,2,2,3,3,4,4,6,6,7,7,8,8,10,10,13,13,14,14,15,15,18,18,19,19,20,20,21,21,22,22,23,23,25,25],"right_children":[2,4,6,8,10,-1,12,14,16,-1,18,-1,-1,20,22,24,-1,-1,26,28,30,32,34,36,-1,38,-1,-1,-1,-1,-1,-1,-1,-1,-1,-1,-1,-1,-1],"split_conditions":[6.5904E4,4.53E1,6.24E1,3.91E1,1.373E3,-7.287226E-2,1.14E1,1.532E3,1.443E3,-6.883815E-2,3.094E2,-6.80073E-2,6.8454646E-2,9.7E0,1.867E3,9.7E0,-7.460688E-2,-6.8299435E-2,3.118E2,3.83E1,5.9184E4,1.694E3,9.6E0,9.3E0,-7.556727E-2,6.4022E4,-6.669871E-2,6.372451E-2,-7.022687E-2,-7.547525E-2,7.056072E-2,1.4649428E-3,-7.592173E-2,-7.528119E-2,5.4567333E-2,-7.359078E-2,5.3593155E-2,-5.2889444E-2,6.841821E-2],"split_indices":[7,4,4,4,3,0,6,3,3,0,2,0,0,6,3,6,0,0,2,4,7,3,6,6,0,7,0,0,0,0,0,0,0,0,0,0,0,0,0],"split_type":[0,0,0,0,0,0,0,0,0,0,0,0,0,0,0,0,0,0,0,0,0,0,0,0,0,0,0,0,0,0,0,0,0,0,0,0,0,0,0],"sum_hessian":[2.6628806E3,2.2472856E3,4.1559494E2,1.9453043E3,3.019813E2,3.5279285E2,6.2802116E1,1.5522155E3,3.9308896E2,2.7627062E1,2.7435422E2,1.6597034E1,4.620508E1,4.550457E2,1.0971698E3,1.9111192E2,2.0197704E2,1.3035033E1,2.6131918E2,3.426455E2,1.1240016E2,7.851024E2,3.1206735E2,1.3746538E2,5.3646553E1,2.5548643E2,5.8327622E0,3.3155197E2,1.10935545E1,6.584291E1,4.655725E1,6.6286E2,1.222424E2,3.302432E1,2.7904303E2,2.16082E1,1.1585718E2,2.7561E0,2.5273033E2],"tree_param":{"num_deleted":"0","num_feature":"8","num_nodes":"39","size_leaf_vector":"1"}},{"base_weights":[-2.957582E-2,-7.123939E-2,1.2037543E0,-7.770265E-2,1.223416E0,1.237665E0,-7.09156E-2,9.9660295E-1,1.3807285E0,1.1093502E0,-9.61939E-2,1.3874938E0,-5.5959087E-2,-8.247515E-2,5.7811826E-2,6.535996E-2,7.508464E-2],"categories":[],"categories_nodes":[],"categories_segments":[],"categories_sizes":[],"default_left":[0,0,0,0,0,0,0,0,0,0,0,0,0,0,0,0,0],"id":12,"left_children":[1,-1,3,-1,5,7,-1,9,11,13,-1,15,-1,-1,-1,-1,-1],"loss_changes":[4.472877E3,0E0,7.671521E1,0E0,5.3344727E1,4.5654785E1,0E0,1.7055725E2,1.5983154E1,6.5693054E1,0E0,5.843628E0,0E0,0E0,0E0,0E0,0E0],"parents":[2147483647,0,0,2,2,4,4,5,5,7,7,8,8,9,9,11,11],"right_children":[2,-1,4,-1,6,8,-1,10,12,14,-1,16,-1,-1,-1,-1,-1],"split_conditions":[1.98E2,-7.123939E-2,2.973E2,-7.770265E-2,1.15E1,2.14E2,-7.09156E-2,2.09E2,5.49E1,8.9E0,-9.61939E-2,2.32E2,-5.5959087E-2,-8.247515E-2,5.7811826E-2,6.535996E-2,7.508464E-2],"split_indices":[5,0,1,0,6,5,0,5,4,6,0,5,0,0,0,0,0],"split_type":[0,0,0,0,0,0,0,0,0,0,0,0,0,0,0,0,0],"sum_hessian":[2.5973694E3,1.2186309E3,1.3787385E3,9.20762E0,1.3695309E3,1.3627122E3,6.818744E0,5.1049454E2,8.522176E2,4.9211618E2,1.8378342E1,8.503613E2,1.8563108E0,7.652503E0,4.8446368E2,5.0660623E2,3.4375507E2],"tree_param":{"num_deleted":"0","num_feature":"8","num_nodes":"17","size_leaf_vector":"1"}},{"base_weights":[8.3460696E-2,-6.9849186E-2,1.2334651E0,1.2437108E0,-6.724983E-2,4.9162742E-1,1.2776694E0,-8.441598E-2,6.8552606E-2,-5.6947887E-2,1.2841566E0,1.390074E0,1.1686928E0,-8.4705606E-2,7.030823E-2,-1.0681386E-1,5.9807952E-2],"categories":[],"categories_nodes":[],"categories_segments":[],"categories_sizes":[],"default_left":[0,0,0,0,0,0,0,0,0,0,0,0,0,0,0,0,0],"id":13,"left_children":[1,-1,3,5,-1,7,9,-1,-1,-1,11,13,15,-1,-1,-1,-1],"loss_changes":[4.6343545E3,0E0,4.2144287E1,3.8356445E1,0E0,1.3185341E2,2.4348633E1,0E0,0E0,0E0,1.6186523E1,3.9817017E1,6.637781E1,0E0,0E0,0E0,0E0],"parents":[2147483647,0,0,2,2,3,3,5,5,6,6,10,10,11,11,12,12],"right_children":[2,-1,4,6,-1,8,10,-1,-1,-1,12,14,16,-1,-1,-1,-1],"split_conditions":[2E2,-6.9849186E-2,1.15E1,2.03E2,-6.724983E-2,1.851E3,2.969E2,-8.441598E-2,6.8552606E-2,-5.6947887E-2,3.6E1,8.6E0,3.73E1,-8.4705606E-2,7.030823E-2,-1.0681386E-1,5.9807952E-2],"split_indices":[5,0,6,5,0,3,1,0,0,0,4,6,4,0,0,0,0],"split_type":[0,0,0,0,0,0,0,0,0,0,0,0,0,0,0,0,0],"sum_hessian":[2.7200476E3,1.1890822E3,1.5309656E3,1.5254219E3,5.5437036E0,6.657013E1,1.4588517E3,1.8871365E1,4.7698765E1,3.438247E0,1.4554135E3,7.533287E2,7.0208484E2,3.368586E0,7.499601E2,5.1538205E0,6.96931E2],"tree_param":{"num_deleted":"0","num_feature":"8","num_nodes":"17","size_leaf_vector":"1"}},{"base_weights":[5.107939E-2,-6.853222E-2,1.1797016E0,-4.2021807E-2,1.2521346E0,1.2094576E0,-9.240457E-2,1.2610227E0,-6.337771E-2,-7.1135566E-2,7.0278406E-2,-5.4291736E-2,1.2665902E0,-5.9506383E-2,1.271295E0,8.555686E-2,6.260618E-2],"categories":[],"categories_nodes":[],"categories_segments":[],"categories_sizes":[],"default_left":[0,0,0,0,0,0,0,0,0,0,0,0,0,0,0,0,0],"id":14,"left_children":[1,-1,3,5,7,9,-1,11,-1,-1,-1,-1,13,-1,15,-1,-1],"loss_changes":[4.2028306E3,0E0,1.2926282E2,1.8913382E2,3.2468506E1,2.752465E1,0E0,1.932959E1,0E0,0E0,0E0,0E0,1.7362793E1,0E0,9.403076E0,0E0,0E0],"parents":[2147483647,0,0,2,2,3,3,4,4,5,5,7,7,12,12,14,14],"right_children":[2,-1,4,6,8,10,-1,12,-1,-1,-1,-1,14,-1,16,-1,-1],"split_conditions":[2E2,-6.853222E-2,2.05E2,2.57E1,1.15E1,4.6512E4,-9.240457E-2,2.969E2,-6.337771E-2,-7.1135566E-2,7.0278406E-2,-5.4291736E-2,7.9E0,-5.9506383E-2,2.97E2,8.555686E-2,6.260618E-2],"split_indices":[5,0,5,4,6,7,0,1,0,0,0,0,6,0,1,0,0],"split_type":[0,0,0,0,0,0,0,0,0,0,0,0,0,0,0,0,0],"sum_hessian":[2.617249E3,1.1581343E3,1.4591146E3,8.1689026E1,1.3774255E3,4.8448177E1,3.3240852E1,1.3730817E3,4.3439684E0,2.9256632E0,4.5522514E1,2.790485E0,1.3702911E3,2.1376102E0,1.3681536E3,5.3457108E1,1.3146964E3],"tree_param":{"num_deleted":"0","num_feature":"8","num_nodes":"17","size_leaf_vector":"1"}},{"base_weights":[1.6625975E-1,2.7428314E-1,-6.080021E-1,5.280119E-1,-5.6585692E-2,-6.820985E-2,1.0597129E0,8.067352E-1,-5.9827855E-3,3.583542E-1,-6.0683316E-1,-6.086878E-2,1.2848551E0,-6.66011E-2,8.4755236E-1,5.1082414E-1,-7.878673E-1,1.2080374E-1,1.3446485E0,-6.914978E-2,-1.7652966E-1,-4.9952026E-2,6.824615E-2,1.2062539E0,5.94064E-1,7.591581E-1,-6.920133E-2,-7.327719E-2,5.0935715E-1,5.2936137E-1,-7.144925E-2,7.9757184E-2,-6.48587E-2,1.2100408E-1,-7.386691E-2,2.2299467E-2,6.810509E-2,4.319908E-2,-7.064237E-2,6.0074087E-2,-4.1821855E-3,6.665163E-2,-6.477625E-2,-6.518524E-2,3.3469655E-2,-2.116703E-2,4.1785922E-2],"categories":[],"categories_nodes":[],"categories_segments":[],"categories_sizes":[],"default_left":[0,0,0,0,0,0,0,0,0,0,0,0,0,0,0,0,0,0,0,0,0,0,0,0,0,0,0,0,0,0,0,0,0,0,0,0,0,0,0,0,0,0,0,0,0,0,0],"id":15,"left_children":[1,3,5,7,9,-1,11,13,15,17,19,-1,21,-1,23,25,27,29,31,-1,33,-1,-1,35,37,39,-1,-1,41,43,-1,-1,-1,45,-1,-1,-1,-1,-1,-1,-1,-1,-1,-1,-1,-1,-1],"loss_changes":[2.2840822E2,2.0113274E2,4.2319766E2,2.0181015E2,2.3780614E2,0E0,5.534059E1,7.890173E1,1.887036E2,1.3897734E2,1.4929118E2,0E0,1.8908493E1,0E0,7.8827515E1,1.3335309E2,1.6411261E2,3.044886E2,7.828575E1,0E0,1.1210411E2,0E0,0E0,4.219684E1,2.7995416E2,9.301094E1,0E0,0E0,9.762981E1,9.8503395E1,0E0,0E0,0E0,9.2278275E1,0E0,0E0,0E0,0E0,0E0,0E0,0E0,0E0,0E0,0E0,0E0,0E0,0E0],"parents":[2147483647,0,0,1,1,2,2,3,3,4,4,6,6,7,7,8,8,9,9,10,10,12,12,14,14,15,15,16,16,17,17,18,18,20,20,23,23,24,24,25,25,28,28,29,29,33,33],"right_children":[2,4,6,8,10,-1,12,14,16,18,20,-1,22,-1,24,26,28,30,32,-1,34,-1,-1,36,38,40,-1,-1,42,44,-1,-1,-1,46,-1,-1,-1,-1,-1,-1,-1,-1,-1,-1,-1,-1,-1],"split_conditions":[4.81E1,9.7E0,6.24E1,1.532E3,3.59E1,-6.820985E-2,1E0,1.379E3,3.05E1,3.54E1,2.988E2,-6.086878E-2,1.308E3,-6.66011E-2,1.424E3,3.024E2,3.9E1,3.07E1,2.974E2,-6.914978E-2,3.006E2,-4.9952026E-2,6.824615E-2,1E0,1E0,9E0,-6.920133E-2,-7.327719E-2,3.91E1,2.978E2,-7.144925E-2,7.9757184E-2,-6.48587E-2,3.003E2,-7.386691E-2,2.2299467E-2,6.810509E-2,4.319908E-2,-7.064237E-2,6.0074087E-2,-4.1821855E-3,6.665163E-2,-6.477625E-2,-6.518524E-2,3.3469655E-2,-2.116703E-2,4.1785922E-2],"split_indices":[4,6,4,3,4,0,0,3,4,4,1,0,3,0,3,1,4,4,1,0,1,0,0,0,0,6,0,0,4,1,0,0,0,1,0,0,0,0,0,0,0,0,0,0,0,0,0],"split_type":[0,0,0,0,0,0,0,0,0,0,0,0,0,0,0,0,0,0,0,0,0,0,0,0,0,0,0,0,0,0,0,0,0,0,0,0,0,0,0,0,0,0,0,0,0,0,0],"sum_hessian":[2.7279077E3,2.3944807E3,3.334272E2,1.3548839E3,1.0395968E3,2.2953206E2,1.0389512E2,8.898881E2,4.6499576E2,5.9286664E2,4.4673016E2,8.95159E0,9.4943535E1,1.607264E1,8.738155E2,2.8016205E2,1.8483372E2,4.7869473E2,1.1417188E2,1.5854312E2,2.8818704E2,2.8270104E0,9.211652E1,3.6026288E2,5.1355255E2,2.4822916E2,3.1932873E1,1.21323814E2,6.350992E1,3.793487E2,9.934605E1,1.0464567E2,9.526212E0,2.3527875E2,5.29083E1,6.1944393E1,2.983185E2,4.53173E2,6.0379574E1,1.6251277E2,8.571639E1,4.3788185E1,1.9721733E1,2.6332787E1,3.530159E2,1.3378917E2,1.0148958E2],"tree_param":{"num_deleted":"0","num_feature":"8","num_nodes":"47","size_leaf_vector":"1"}},{"base_weights":[1.4557268E-1,-4.342749E-1,3.782268E-1,7.531278E-3,-6.728803E-2,-6.5033555E-2,4.3692583E-1,-7.7427214E-1,5.3501916E-1,8.9371645E-1,3.1690222E-1,-6.965727E-2,1.1858525E0,1.1859078E0,-3.6936194E-1,1.0765947E0,-6.716255E-2,3.7960267E-1,-6.819519E-2,-5.4837685E-2,6.9327354E-2,1.4127254E0,-6.548059E-2,-6.862693E-2,6.6956304E-2,3.1507447E-1,1.254351E0,-7.055273E-2,4.150224E-1,-5.797687E-2,7.505935E-2,-6.850815E-2,6.40773E-2,6.601019E-2,-6.320038E-2,3.515533E-2,1.3081552E-2],"categories":[],"categories_nodes":[],"categories_segments":[],"categories_sizes":[],"default_left":[0,0,0,0,0,0,0,0,0,0,0,0,0,0,0,0,0,0,0,0,0,0,0,0,0,0,0,0,0,0,0,0,0,0,0,0,0],"id":16,"left_children":[1,3,5,7,-1,-1,9,11,13,15,17,-1,19,21,23,25,-1,27,-1,-1,-1,29,-1,-1,-1,31,33,-1,35,-1,-1,-1,-1,-1,-1,-1,-1],"loss_changes":[3.5689188E2,3.0511368E2,1.8659702E2,2.1126712E2,0E0,0E0,9.975412E1,2.5202754E2,1.8050302E2,1.5654251E2,1.5296266E2,0E0,2.4457603E1,1.02667206E2,2.225574E2,4.712143E1,0E0,8.908084E1,0E0,0E0,0E0,3.900241E1,0E0,0E0,0E0,1.1212943E2,4.8810577E1,0E0,6.0311295E1,0E0,0E0,0E0,0E0,0E0,0E0,0E0,0E0],"parents":[2147483647,0,0,1,1,2,2,3,3,6,6,7,7,8,8,9,9,10,10,12,12,13,13,14,14,15,15,17,17,21,21,25,25,26,26,28,28],"right_children":[2,4,6,8,-1,-1,10,12,14,16,18,-1,20,22,24,26,-1,28,-1,-1,-1,30,-1,-1,-1,32,34,-1,36,-1,-1,-1,-1,-1,-1,-1,-1],"split_conditions":[2.996E2,6.01082E4,1.364E3,3.54E1,-6.728803E-2,-6.5033555E-2,1.407E3,2.245E3,3.082E2,3.018E2,2E0,-6.965727E-2,3.098E2,5.71914E4,6.00122E4,1E0,-6.716255E-2,1.422E3,-6.819519E-2,-5.4837685E-2,6.9327354E-2,3.078E2,-6.548059E-2,-6.862693E-2,6.6956304E-2,3.017E2,3.008E2,-7.055273E-2,3.07E1,-5.797687E-2,7.505935E-2,-6.850815E-2,6.40773E-2,6.601019E-2,-6.320038E-2,3.515533E-2,1.3081552E-2],"split_indices":[1,7,3,4,0,0,3,3,2,1,0,0,2,7,7,0,0,3,0,0,0,2,0,0,0,1,1,0,4,0,0,0,0,0,0,0,0],"split_type":[0,0,0,0,0,0,0,0,0,0,0,0,0,0,0,0,0,0,0,0,0,0,0,0,0,0,0,0,0,0,0,0,0,0,0,0,0],"sum_hessian":[2.6433086E3,7.566446E2,1.8866641E3,5.102925E2,2.4635208E2,6.302002E1,1.823644E3,2.0539839E2,3.048941E2,3.7812283E2,1.4455212E3,1.563295E2,4.9068905E1,1.771133E2,1.27780815E2,3.5002597E2,2.8096865E1,1.3942833E3,5.1237904E1,3.604799E0,4.5464104E1,1.6275446E2,1.4358846E1,8.063237E1,4.7148445E1,6.676644E1,2.8325952E2,2.629105E1,1.3679923E3,5.0085726E0,1.5774588E2,2.4182205E1,4.2584232E1,2.7650494E2,6.7545795E0,4.7406583E2,8.9392645E2],"tree_param":{"num_deleted":"0","num_feature":"8","num_nodes":"37","size_leaf_vector":"1"}},{"base_weights":[1.4478968E-1,-6.6334136E-2,1.164716E0,1.1738346E0,-6.1456528E-2,-5.467501E-2,1.1803197E0,-5.6396704E-2,1.1859E0,6.099316E-1,1.2094648E0,-7.6642714E-2,6.619813E-2,-5.8764495E-2,6.0670193E-2],"categories":[],"categories_nodes":[],"categories_segments":[],"categories_sizes":[],"default_left":[0,0,0,0,0,0,0,0,0,0,0,0,0,0,0],"id":17,"left_children":[1,-1,3,5,-1,-1,7,-1,9,11,13,-1,-1,-1,-1],"loss_changes":[3.896386E3,0E0,3.491211E1,2.3757812E1,0E0,0E0,2.096997E1,0E0,1.9905273E1,9.658121E1,1.514209E1,0E0,0E0,0E0,0E0],"parents":[2147483647,0,0,2,2,3,3,6,6,8,8,9,9,10,10],"right_children":[2,-1,4,6,-1,-1,8,-1,10,12,14,-1,-1,-1,-1],"split_conditions":[2E2,-6.6334136E-2,1.15E1,2.969E2,-6.1456528E-2,-5.467501E-2,1.324E3,-5.6396704E-2,2.03E2,1.8E3,8E0,-7.6642714E-2,6.619813E-2,-5.8764495E-2,6.0670193E-2],"split_indices":[5,0,6,1,0,0,3,0,5,3,6,0,0,0,0],"split_type":[0,0,0,0,0,0,0,0,0,0,0,0,0,0,0],"sum_hessian":[2.5941875E3,1.0618828E3,1.5323048E3,1.5269979E3,5.306899E0,3.8770235E0,1.5231208E3,3.1883037E0,1.5199325E3,6.0797897E1,1.4591346E3,1.4909167E1,4.588873E1,1.9158334E0,1.4572188E3],"tree_param":{"num_deleted":"0","num_feature":"8","num_nodes":"15","size_leaf_vector":"1"}},{"base_weights":[1.3847391E-1,2.5887695E-1,-8.8684064E-1,4.247416E-1,-4.9025584E-3,-6.581973E-2,7.628937E-1,8.6364955E-1,2.2809842E-1,2.1571943E-1,-8.011053E-1,6.535422E-2,-6.006364E-2,-6.378675E-2,9.54071E-1,-7.2572276E-2,3.7886465E-1,-2.866653E-3,1.0025961E0,-6.60745E-2,1.0132993E0,1.0175078E0,-6.554502E-2,8.659464E-1,9.1408394E-2,-6.839457E-2,2.92749E-1,1.1272827E0,-6.1508924E-2,-5.4082822E-2,6.2034305E-2,5.7206865E-2,1.9335123E-2,5.7787508E-2,2.6002757E-3,2.0000493E-2,-7.0780605E-2,2.7176369E-2,-6.6477545E-2,-6.1030664E-2,6.285208E-2],"categories":[],"categories_nodes":[],"categories_segments":[],"categories_sizes":[],"default_left":[0,0,0,0,0,0,0,0,0,0,0,0,0,0,0,0,0,0,0,0,0,0,0,0,0,0,0,0,0,0,0,0,0,0,0,0,0,0,0,0,0],"id":18,"left_children":[1,3,5,7,9,-1,11,13,15,17,19,-1,-1,-1,21,-1,23,25,27,-1,29,31,-1,33,35,-1,37,39,-1,-1,-1,-1,-1,-1,-1,-1,-1,-1,-1,-1,-1],"loss_changes":[3.1434647E2,9.966159E1,1.9065527E2,1.2050427E2,1.5481544E2,0E0,6.134256E1,8.485205E1,2.4544978E2,1.18705284E2,1.818902E2,0E0,0E0,0E0,6.101706E1,0E0,1.2429247E2,2.1874387E2,4.315631E1,0E0,2.1914524E1,3.1878693E1,0E0,7.7675156E1,2.6087714E2,0E0,1.8200763E2,4.4985687E1,0E0,0E0,0E0,0E0,0E0,0E0,0E0,0E0,0E0,0E0,0E0,0E0,0E0],"parents":[2147483647,0,0,1,1,2,2,3,3,4,4,6,6,7,7,8,8,9,9,10,10,14,14,16,16,17,17,18,18,20,20,21,21,23,23,24,24,26,26,27,27],"right_children":[2,4,6,8,10,-1,12,14,16,18,20,-1,-1,-1,22,-1,24,26,28,-1,30,32,-1,34,36,-1,38,40,-1,-1,-1,-1,-1,-1,-1,-1,-1,-1,-1,-1,-1],"split_conditions":[4.81E1,9.9E0,6.24E1,1.443E3,6.01082E4,-6.581973E-2,2.975E2,1.379E3,1.493E3,5.92515E4,4.79E1,6.535422E-2,-6.006364E-2,-6.378675E-2,9.7E0,-7.2572276E-2,1.532E3,1.08E1,1.525E3,-6.60745E-2,3.117E2,3.019E2,-6.554502E-2,5.7085E4,3.11E2,-6.839457E-2,3.59E1,1.454E3,-6.1508924E-2,-5.4082822E-2,6.2034305E-2,5.7206865E-2,1.9335123E-2,5.7787508E-2,2.6002757E-3,2.0000493E-2,-7.0780605E-2,2.7176369E-2,-6.6477545E-2,-6.1030664E-2,6.285208E-2],"split_indices":[4,6,4,3,7,0,1,3,3,7,4,0,0,0,6,0,3,6,3,0,2,1,0,7,2,0,4,3,0,0,0,0,0,0,0,0,0,0,0,0,0],"split_type":[0,0,0,0,0,0,0,0,0,0,0,0,0,0,0,0,0,0,0,0,0,0,0,0,0,0,0,0,0,0,0,0,0,0,0,0,0,0,0,0,0],"sum_hessian":[2.5434663E3,2.2768433E3,2.66623E2,1.3974905E3,8.793528E2,2.1170245E2,5.4920536E1,4.3134213E2,9.661484E2,6.8912915E2,1.9022362E2,4.326743E1,1.1653109E1,1.695988E1,4.1438223E2,7.887291E1,8.872755E2,5.4009326E2,1.4903589E2,1.4803714E2,4.2186474E1,4.0362827E2,1.0753963E1,3.2854993E2,5.587256E2,9.549795E1,4.4459534E2,1.4162228E2,7.413604E0,3.7627416E0,3.8423733E1,3.3547116E2,6.815711E1,2.4197482E2,8.65751E1,4.6436862E2,9.4356926E1,3.8564633E2,5.8949017E1,6.9767137E0,1.3464557E2],"tree_param":{"num_deleted":"0","num_feature":"8","num_nodes":"41","size_leaf_vector":"1"}},{"base_weights":[1.3804945E-1,-6.485062E-2,1.1205211E0,1.1291045E0,-5.965097E-2,5.008292E-1,1.1559689E0,-7.382771E-2,1.2653114E0,-5.7878286E-2,1.1605422E0,6.764322E-2,-5.1582403E-2,-5.0986048E-2,1.1648777E0,5.5505972E-2,6.795385E-2],"categories":[],"categories_nodes":[],"categories_segments":[],"categories_sizes":[],"default_left":[0,0,0,0,0,0,0,0,0,0,0,0,0,0,0,0,0],"id":19,"left_children":[1,-1,3,5,-1,7,9,-1,11,-1,13,-1,-1,-1,15,-1,-1],"loss_changes":[3.5120442E3,0E0,3.0708984E1,2.4293213E1,0E0,9.588164E1,1.6287964E1,0E0,1.0523842E1,0E0,1.4517212E1,0E0,0E0,0E0,1.3462036E1,0E0,0E0],"parents":[2147483647,0,0,2,2,3,3,5,5,6,6,8,8,10,10,14,14],"right_children":[2,-1,4,6,-1,8,10,-1,12,-1,14,-1,-1,-1,16,-1,-1],"split_conditions":[2E2,-6.485062E-2,1.15E1,2.03E2,-5.965097E-2,1.851E3,7.9E0,-7.382771E-2,2.979E2,-5.7878286E-2,1.324E3,6.764322E-2,-5.1582403E-2,-5.0986048E-2,2.32E2,5.5505972E-2,6.795385E-2],"split_indices":[5,0,6,5,0,3,6,0,1,0,3,0,0,0,5,0,0],"split_type":[0,0,0,0,0,0,0,0,0,0,0,0,0,0,0,0,0],"sum_hessian":[2.4889438E3,1.01136224E3,1.4775817E3,1.47263E3,4.9516306E0,6.1191544E1,1.4114385E3,1.6801617E1,4.4389927E1,2.287235E0,1.4091512E3,4.3155975E1,1.2339518E0,2.3317142E0,1.4068196E3,1.1026285E3,3.0419098E2],"tree_param":{"num_deleted":"0","num_feature":"8","num_nodes":"17","size_leaf_vector":"1"}},{"base_weights":[1.3744314E-1,-6.3949555E-2,1.093753E0,1.102205E0,-5.8500517E-2,-5.2528884E-2,1.1080472E0,5.569226E-1,1.1306735E0,6.2023785E-2,-7.133939E-2,-5.579971E-2,1.1348352E0,5.4080583E-2,6.623243E-2],"categories":[],"categories_nodes":[],"categories_segments":[],"categories_sizes":[],"default_left":[0,0,0,0,0,0,0,0,0,0,0,0,0,0,0],"id":20,"left_children":[1,-1,3,5,-1,-1,7,9,11,-1,-1,-1,13,-1,-1],"loss_changes":[3.2734023E3,0E0,2.8890503E1,1.9245728E1,0E0,0E0,1.7255615E1,8.113861E1,1.4138794E1,0E0,0E0,0E0,1.24552E1,0E0,0E0],"parents":[2147483647,0,0,2,2,3,3,6,6,7,7,8,8,12,12],"right_children":[2,-1,4,6,-1,-1,8,10,12,-1,-1,-1,14,-1,-1],"split_conditions":[2E2,-6.3949555E-2,1.15E1,2.969E2,-5.8500517E-2,-5.2528884E-2,2.03E2,2.57E1,7.9E0,6.2023785E-2,-7.133939E-2,-5.579971E-2,2.32E2,5.4080583E-2,6.623243E-2],"split_indices":[5,0,6,1,0,0,5,4,6,0,0,0,5,0,0],"split_type":[0,0,0,0,0,0,0,0,0,0,0,0,0,0,0],"sum_hessian":[2.4145652E3,9.7302936E2,1.4415358E3,1.4366848E3,4.850975E0,3.4042869E0,1.4332805E3,5.7532745E1,1.3757477E3,4.306719E1,1.4465556E1,2.0496848E0,1.373698E3,1.078098E3,2.9560007E2],"tree_param":{"num_deleted":"0","num_feature":"8","num_nodes":"15","size_leaf_vector":"1"}},{"base_weights":[1.3982695E-1,-6.301119E-2,1.0579207E0,1.0668675E0,-5.762709E-2,-5.292098E-2,1.0726823E0,-6.021584E-2,1.0773648E0,1.433856E0,1.0342646E0,7.31066E-2,-4.3623324E-2,-6.484505E-2,5.268109E-2],"categories":[],"categories_nodes":[],"categories_segments":[],"categories_sizes":[],"default_left":[0,0,0,0,0,0,0,0,0,0,0,0,0,0,0],"id":21,"left_children":[1,-1,3,5,-1,-1,7,-1,9,11,13,-1,-1,-1,-1],"loss_changes":[3.0243489E3,0E0,2.9330933E1,1.8631226E1,0E0,0E0,1.6356445E1,0E0,2.0181519E1,1.102478E1,5.829187E1,0E0,0E0,0E0,0E0],"parents":[2147483647,0,0,2,2,3,3,6,6,8,8,9,9,10,10],"right_children":[2,-1,4,6,-1,-1,8,-1,10,12,14,-1,-1,-1,-1],"split_conditions":[1.98E2,-6.301119E-2,1.15E1,1.318E3,-5.762709E-2,-5.292098E-2,3.076E2,-6.021584E-2,3.081E2,1.1E1,2E2,7.31066E-2,-4.3623324E-2,-6.484505E-2,5.268109E-2],"split_indices":[5,0,6,3,0,0,2,0,2,6,5,0,0,0,0],"split_type":[0,0,0,0,0,0,0,0,0,0,0,0,0,0,0],"sum_hessian":[2.3508499E3,9.30899E2,1.4199508E3,1.4147421E3,5.2087646E0,3.366256E0,1.4113759E3,2.3707066E0,1.4090051E3,1.4849576E2,1.2605094E3,1.4705882E2,1.4369322E0,9.837142E0,1.2506722E3],"tree_param":{"num_deleted":"0","num_feature":"8","num_nodes":"15","size_leaf_vector":"1"}},{"base_weights":[2.9344356E-2,2.741327E-1,-4.388138E-1,-6.224654E-2,3.4212482E-1,-1.682905E-2,-8.3034104E-1,7.4910915E-1,7.547221E-2,2.8580895E-1,-6.388586E-2,-6.59013E-2,3.350234E-1,2.4375343E-1,1.0162313E0,-7.03138E-2,2.9383788E-1,8.0775887E-1,-4.327998E-1,-6.720119E-2,7.4151236E-1,6.6161466E-1,-6.5111704E-2,-5.580851E-2,1.0681417E0,-6.956975E-2,4.0704653E-1,1.0278492E0,-6.336339E-2,-6.26857E-2,1.1702002E0,9.846959E-1,-6.710267E-2,-7.1682505E-2,5.5740364E-2,3.8645115E-2,6.465779E-2,2.874001E-2,-2.1153402E-2,-5.617484E-2,5.7067182E-2,-3.8615685E-2,6.326411E-2,5.6162674E-2,-5.4747593E-2],"categories":[],"categories_nodes":[],"categories_segments":[],"categories_sizes":[],"default_left":[0,0,0,0,0,0,0,0,0,0,0,0,0,0,0,0,0,0,0,0,0,0,0,0,0,0,0,0,0,0,0,0,0,0,0,0,0,0,0,0,0,0,0,0,0],"id":22,"left_children":[1,3,5,-1,7,9,11,13,15,17,-1,-1,19,21,23,-1,25,27,29,-1,31,33,-1,-1,35,-1,37,39,-1,-1,41,43,-1,-1,-1,-1,-1,-1,-1,-1,-1,-1,-1,-1,-1],"loss_changes":[2.3925621E2,1.4201402E2,1.1842294E2,0E0,1.4242519E2,1.3240634E2,2.1176031E2,6.989279E1,2.5742584E2,1.0532126E2,0E0,0E0,7.6409805E1,1.1778248E2,3.8783997E1,0E0,1.3280255E2,7.549919E1,1.5727464E2,0E0,4.672166E1,1.3752037E2,0E0,0E0,2.1059082E1,0E0,9.07959E1,3.7281464E1,0E0,0E0,8.479004E0,2.4516418E1,0E0,0E0,0E0,0E0,0E0,0E0,0E0,0E0,0E0,0E0,0E0,0E0,0E0],"parents":[2147483647,0,0,1,1,2,2,4,4,5,5,6,6,7,7,8,8,9,9,12,12,13,13,14,14,16,16,17,17,18,18,20,20,21,21,24,24,26,26,27,27,30,30,31,31],"right_children":[2,4,6,-1,8,10,12,14,16,18,-1,-1,20,22,24,-1,26,28,30,-1,32,34,-1,-1,36,-1,38,40,-1,-1,42,44,-1,-1,-1,-1,-1,-1,-1,-1,-1,-1,-1,-1,-1],"split_conditions":[9.9E0,1.379E3,3.09E2,-6.224654E-2,1.455E3,1.55E3,3.117E2,1E0,3.096E2,6.01082E4,-6.388586E-2,-6.59013E-2,1.52E3,4.65E1,8.8E0,-7.03138E-2,1.493E3,1.1E1,6.24E1,-6.720119E-2,3.119E2,6.37824E4,-6.5111704E-2,-5.580851E-2,9.6E0,-6.956975E-2,3.115E2,5.52761E4,-6.336339E-2,-6.26857E-2,1.13E1,1.14E1,-6.710267E-2,-7.1682505E-2,5.5740364E-2,3.8645115E-2,6.465779E-2,2.874001E-2,-2.1153402E-2,-5.617484E-2,5.7067182E-2,-3.8615685E-2,6.326411E-2,5.6162674E-2,-5.4747593E-2],"split_indices":[6,3,2,0,3,3,2,0,2,7,0,0,3,4,6,0,3,6,4,0,2,7,0,0,6,0,2,7,0,0,6,6,0,0,0,0,0,0,0,0,0,0,0,0,0],"split_type":[0,0,0,0,0,0,0,0,0,0,0,0,0,0,0,0,0,0,0,0,0,0,0,0,0,0,0,0,0,0,0,0,0,0,0,0,0,0,0,0,0,0,0,0,0],"sum_hessian":[2.0857073E3,1.3698573E3,7.158501E2,5.7945393E1,1.3119119E3,3.4502646E2,3.708236E2,5.185913E2,7.9332056E2,2.7886636E2,6.6160095E1,2.6133035E2,1.0949325E2,1.7998979E2,3.386015E2,1.0119679E2,6.921238E2,1.6146489E2,1.1740149E2,2.0891634E1,8.8601616E1,1.4214249E2,3.78473E1,7.559672E0,3.3104184E2,4.2857224E1,6.4926654E2,1.4643747E2,1.502742E1,7.778488E1,3.961661E1,7.981357E1,8.788049E0,2.4892494E1,1.1724999E2,1.4509654E2,1.859453E2,5.4037286E2,1.0889366E2,6.892241E0,1.3954523E2,1.5162923E0,3.810032E1,7.525926E1,4.5543027E0],"tree_param":{"num_deleted":"0","num_feature":"8","num_nodes":"45","size_leaf_vector":"1"}},{"base_weights":[1.3483356E-1,-6.1875254E-2,1.037857E0,-7.650805E-2,1.0548494E0,1.0640956E0,-5.6162383E-2,9.0133935E-1,1.1724675E0,9.6831375E-1,-9.027825E-2,1.1768187E0,-4.5284513E-2,-8.8661216E-2,5.066169E-2,5.6023862E-2,6.40778E-2],"categories":[],"categories_nodes":[],"categories_segments":[],"categories_sizes":[],"default_left":[0,0,0,0,0,0,0,0,0,0,0,0,0,0,0,0,0],"id":23,"left_children":[1,-1,3,-1,5,7,-1,9,11,13,-1,15,-1,-1,-1,-1,-1],"loss_changes":[2.783972E3,0E0,6.073474E1,0E0,2.8313354E1,2.2602173E1,0E0,9.97323E1,8.317017E0,6.682883E1,0E0,3.2886963E0,0E0,0E0,0E0,0E0,0E0],"parents":[2147483647,0,0,2,2,4,4,5,5,7,7,8,8,9,9,11,11],"right_children":[2,-1,4,-1,6,8,-1,10,12,14,-1,16,-1,-1,-1,-1,-1],"split_conditions":[2E2,-6.1875254E-2,2.973E2,-7.650805E-2,1.15E1,2.14E2,-5.6162383E-2,2.11E2,5.49E1,8.9E0,-9.027825E-2,2.32E2,-4.5284513E-2,-8.8661216E-2,5.066169E-2,5.6023862E-2,6.40778E-2],"split_indices":[5,0,1,0,6,5,0,5,4,6,0,5,0,0,0,0,0],"split_type":[0,0,0,0,0,0,0,0,0,0,0,0,0,0,0,0,0],"sum_hessian":[2.2444534E3,8.9060974E2,1.3538436E3,8.314018E0,1.3455297E3,1.3403512E3,5.1784573E0,5.3947186E2,8.0087933E2,5.270733E2,1.2398609E1,7.9963873E2,1.2405967E0,7.8765955E0,5.1919666E2,5.275503E2,2.720884E2],"tree_param":{"num_deleted":"0","num_feature":"8","num_nodes":"17","size_leaf_vector":"1"}},{"base_weights":[1.0481563E-1,-6.1500262E-2,1.0406052E0,1.0478624E0,-5.2229483E-2,8.907367E-1,1.1372076E0,9.7395116E-1,-1.0705773E-1,-7.1444534E-2,1.1525822E0,1.0308712E0,-8.269745E-2,-5.4973353E-2,1.1591045E0,-8.9605756E-2,5.3213745E-2,5.5313803E-2,6.287541E-2],"categories":[],"categories_nodes":[],"categories_segments":[],"categories_sizes":[],"default_left":[0,0,0,0,0,0,0,0,0,0,0,0,0,0,0,0,0,0,0],"id":24,"left_children":[1,-1,3,5,-1,7,9,11,-1,-1,13,15,-1,-1,17,-1,-1,-1,-1],"loss_changes":[2.6308315E3,0E0,1.9830078E1,1.6314575E1,0E0,1.161344E2,3.2548096E1,6.7618164E1,0E0,0E0,1.2718872E1,4.263739E1,0E0,0E0,2.6500244E0,0E0,0E0,0E0,0E0],"parents":[2147483647,0,0,2,2,3,3,5,5,6,6,7,7,10,10,11,11,14,14],"right_children":[2,-1,4,6,-1,8,10,12,-1,-1,14,16,-1,-1,18,-1,-1,-1,-1],"split_conditions":[2.03E2,-6.1500262E-2,1.15E1,2.14E2,-5.2229483E-2,3.114E2,1.372E3,2.11E2,-1.0705773E-1,-7.1444534E-2,3.081E2,8.9E0,-8.269745E-2,-5.4973353E-2,2.32E2,-8.9605756E-2,5.3213745E-2,5.5313803E-2,6.287541E-2],"split_indices":[5,0,6,5,0,2,3,5,0,0,2,6,0,0,5,0,0,0,0],"split_type":[0,0,0,0,0,0,0,0,0,0,0,0,0,0,0,0,0,0,0],"sum_hessian":[2.1041377E3,8.6705133E2,1.2370863E3,1.2332915E3,3.7947655E0,4.5104245E2,7.82249E2,4.396543E2,1.1388155E1,4.111301E0,7.7813776E2,4.3092816E2,8.726135E0,1.7632048E0,7.763745E2,4.423731E0,4.2650443E2,5.131367E2,2.6323782E2],"tree_param":{"num_deleted":"0","num_feature":"8","num_nodes":"19","size_leaf_vector":"1"}},{"base_weights":[1.3569638E-1,-6.0451787E-2,9.9247754E-1,1.0000334E0,-8.795311E-2,-6.460397E-2,1.0073982E0,1.4534708E0,9.6753764E-1,7.718688E-2,-5.9723664E-2,4.595633E-1,1.0480514E0,4.921686E-2,-1.05181955E-1,-6.912296E-2,5.4352254E-2],"categories":[],"categories_nodes":[],"categories_segments":[],"categories_sizes":[],"default_left":[0,0,0,0,0,0,0,0,0,0,0,0,0,0,0,0,0],"id":25,"left_children":[1,-1,3,5,-1,-1,7,9,11,-1,-1,13,15,-1,-1,-1,-1],"loss_changes":[2.4008447E3,0E0,2.821997E1,2.2739014E1,0E0,0E0,2.1111206E1,2.6197906E1,4.71864E1,0E0,0E0,2.189538E2,9.677673E1,0E0,0E0,0E0,0E0],"parents":[2147483647,0,0,2,2,3,3,6,6,7,7,8,8,11,11,12,12],"right_children":[2,-1,4,6,-1,-1,8,10,12,-1,-1,14,16,-1,-1,-1,-1],"split_conditions":[1.98E2,-6.0451787E-2,2.029E3,3.078E2,-8.795311E-2,-6.460397E-2,3.081E2,5.55974E4,2.996E2,7.718688E-2,-5.9723664E-2,2.979E2,2.03E2,4.921686E-2,-1.05181955E-1,-6.912296E-2,5.4352254E-2],"split_indices":[5,0,3,2,0,0,2,7,1,0,0,1,5,0,0,0,0],"split_type":[0,0,0,0,0,0,0,0,0,0,0,0,0,0,0,0,0],"sum_hessian":[2.08177E3,8.1001965E2,1.2717504E3,1.2689025E3,2.8479168E0,3.505394E0,1.265397E3,1.00890205E2,1.1645068E3,9.796756E1,2.9226515E0,1.602392E2,1.00426764E3,1.3351927E2,2.671992E1,1.5313455E1,9.8895416E2],"tree_param":{"num_deleted":"0","num_feature":"8","num_nodes":"17","size_leaf_vector":"1"}},{"base_weights":[1.677939E-1,-5.9842516E-2,9.856224E-1,1.1121525E0,7.9607624E-1,-9.039388E-2,1.1286342E0,-2.1411324E0,8.678385E-1,1.1340209E0,-7.513732E-2,-4.6502613E-2,-1.1542276E-1,-6.908803E-2,9.419838E-1,1.1388929E0,-6.43978E-2,1.0401852E0,9.694414E-2,5.7238113E-2,-4.2857863E-2,-1.088798E-1,5.4507352E-2,-9.685042E-2,5.934164E-2],"categories":[],"categories_nodes":[],"categories_segments":[],"categories_sizes":[],"default_left":[0,0,0,0,0,0,0,0,0,0,0,0,0,0,0,0,0,0,0,0,0,0,0,0,0],"id":26,"left_children":[1,-1,3,5,7,-1,9,11,13,15,-1,-1,-1,-1,17,19,-1,21,23,-1,-1,-1,-1,-1,-1],"loss_changes":[2.311331E3,0E0,3.0168945E1,3.9289368E1,1.1185596E2,0E0,1.2622009E1,4.3354416E-1,8.638907E1,1.0543823E1,0E0,0E0,0E0,0E0,4.0929993E1,9.981384E0,0E0,7.357141E1,1.1885615E2,0E0,0E0,0E0,0E0,0E0,0E0],"parents":[2147483647,0,0,2,2,3,3,4,4,6,6,7,7,8,8,9,9,14,14,15,15,17,17,18,18],"right_children":[2,-1,4,6,8,-1,10,12,14,16,-1,-1,-1,-1,18,20,-1,22,24,-1,-1,-1,-1,-1,-1],"split_conditions":[1.98E2,-5.9842516E-2,5.71914E4,8.6E0,5.97375E4,-9.039388E-2,2.36E2,2.03E2,2.04E2,3.83E1,-7.513732E-2,-4.6502613E-2,-1.1542276E-1,-6.908803E-2,1.02E1,1.15E1,-6.43978E-2,2.07E2,6.14E1,5.7238113E-2,-4.2857863E-2,-1.088798E-1,5.4507352E-2,-9.685042E-2,5.934164E-2],"split_indices":[5,0,7,6,7,0,5,5,5,4,0,0,0,0,6,6,0,5,4,0,0,0,0,0,0],"split_type":[0,0,0,0,0,0,0,0,0,0,0,0,0,0,0,0,0,0,0,0,0,0,0,0,0],"sum_hessian":[2.0689446E3,7.75113E2,1.2938317E3,7.729723E2,5.208594E2,3.728393E0,7.692439E2,1.1734462E1,5.091249E2,7.682403E2,1.0036402E0,2.220555E0,9.5139065E0,1.5682292E1,4.9344263E2,7.672267E2,1.0135684E0,4.4186313E2,5.157949E1,7.654025E2,1.8241688E0,6.104722E0,4.357584E2,1.7724583E1,3.3854908E1],"tree_param":{"num_deleted":"0","num_feature":"8","num_nodes":"25","size_leaf_vector":"1"}},{"base_weights":[1.380189E-1,-5.926553E-2,9.5474774E-1,-7.9448275E-2,9.860408E-1,9.9370944E-1,-5.1762998E-2,8.613032E-1,1.0903695E0,9.1834086E-1,-7.840044E-2,-6.566299E-2,1.1009947E0,4.8321974E-2,-9.320917E-2,5.2047696E-2,6.0378313E-2],"categories":[],"categories_nodes":[],"categories_segments":[],"categories_sizes":[],"default_left":[0,0,0,0,0,0,0,0,0,0,0,0,0,0,0,0,0],"id":27,"left_children":[1,-1,3,-1,5,7,-1,9,11,13,-1,-1,15,-1,-1,-1,-1],"loss_changes":[2.139631E3,0E0,9.900256E1,0E0,1.9781494E1,1.4492432E1,0E0,7.259863E1,1.9149231E1,6.904053E1,0E0,0E0,3.1624146E0,0E0,0E0,0E0,0E0],"parents":[2147483647,0,0,2,2,4,4,5,5,7,7,8,8,9,9,12,12],"right_children":[2,-1,4,-1,6,8,-1,10,12,14,-1,-1,16,-1,-1,-1,-1],"split_conditions":[1.98E2,-5.926553E-2,1.373E3,-7.9448275E-2,1.15E1,2.14E2,-5.1762998E-2,4.69E1,2.973E2,1.12E1,-7.840044E-2,-6.566299E-2,2.32E2,4.8321974E-2,-9.320917E-2,5.2047696E-2,6.0378313E-2],"split_indices":[5,0,3,0,6,5,0,4,1,6,0,0,5,0,0,0,0],"split_type":[0,0,0,0,0,0,0,0,0,0,0,0,0,0,0,0,0],"sum_hessian":[1.977624E3,7.545654E2,1.2230586E3,1.425844E1,1.2088002E3,1.2047379E3,4.062314E0,5.1255023E2,6.921876E2,5.013999E2,1.1150361E1,2.506784E0,6.8968085E2,4.9352158E2,7.878309E0,4.4803308E2,2.4164777E2],"tree_param":{"num_deleted":"0","num_feature":"8","num_nodes":"17","size_leaf_vector":"1"}},{"base_weights":[1.0422512E-1,-5.8802582E-2,9.297013E-1,-5.072211E-2,9.3576014E-1,-5.560535E-2,9.4051045E-1,9.038291E-1,6.2385257E-2,9.568871E-1,-9.550362E-2,-8.536633E-2,4.890363E-2],"categories":[],"categories_nodes":[],"categories_segments":[],"categories_sizes":[],"default_left":[0,0,0,0,0,0,0,0,0,0,0,0,0],"id":28,"left_children":[1,-1,3,-1,5,-1,7,9,-1,11,-1,-1,-1],"loss_changes":[1.9524958E3,0E0,1.4179443E1,0E0,1.1943359E1,0E0,1.1472229E1,1.5150354E2,0E0,5.7245056E1,0E0,0E0,0E0],"parents":[2147483647,0,0,2,2,4,4,6,6,7,7,9,9],"right_children":[2,-1,4,-1,6,-1,8,10,-1,12,-1,-1,-1],"split_conditions":[2E2,-5.8802582E-2,1.324E3,-5.072211E-2,3.076E2,-5.560535E-2,7.95472E4,6.89156E4,6.2385257E-2,1.393E3,-9.550362E-2,-8.536633E-2,4.890363E-2],"split_indices":[5,0,3,0,2,0,7,7,0,3,0,0,0],"split_type":[0,0,0,0,0,0,0,0,0,0,0,0,0],"sum_hessian":[1.8454537E3,7.2326984E2,1.1221838E3,2.9692998E0,1.1192146E3,2.0506754E0,1.117164E3,1.0015174E3,1.1564649E2,9.836304E2,1.7887072E1,7.1320944E0,9.764982E2],"tree_param":{"num_deleted":"0","num_feature":"8","num_nodes":"13","size_leaf_vector":"1"}},{"base_weights":[1.0382617E-1,-5.82319E-2,8.993712E-1,1.0015423E0,7.0875543E-1,-9.742451E-2,1.0266066E0,7.9133385E-1,-1.0182425E-1,7.794386E-2,9.833649E-1,-6.522893E-2,8.618688E-1,2.0932005E-1,1.0547779E0,-1.0755743E-1,9.011261E-1,5.5365067E-2,-9.113177E-2,-9.521776E-2,5.333149E-2,-5.9776153E-2,4.6022292E-2],"categories":[],"categories_nodes":[],"categories_segments":[],"categories_sizes":[],"default_left":[0,0,0,0,0,0,0,0,0,0,0,0,0,0,0,0,0,0,0,0,0,0,0],"id":29,"left_children":[1,-1,3,5,7,-1,9,11,-1,-1,13,-1,15,17,19,-1,21,-1,-1,-1,-1,-1,-1],"loss_changes":[1.7965063E3,0E0,2.0596619E1,5.4484863E1,8.893297E1,0E0,1.4682129E1,5.6512405E1,0E0,0E0,3.5945496E1,0E0,4.488275E1,1.0513349E2,2.3030579E1,0E0,1.5646454E1,0E0,0E0,0E0,0E0,0E0,0E0],"parents":[2147483647,0,0,2,2,3,3,4,4,6,6,7,7,10,10,12,12,13,13,14,14,16,16],"right_children":[2,-1,4,6,8,-1,10,12,-1,-1,14,-1,16,18,20,-1,22,-1,-1,-1,-1,-1,-1],"split_conditions":[1.98E2,-5.82319E-2,3.91E1,8.6E0,1.498E3,-9.742451E-2,1.417E3,2.04E2,-1.0182425E-1,7.794386E-2,2.05E2,-6.522893E-2,4.12E1,2.979E2,1.479E3,-1.0755743E-1,2.974E2,5.5365067E-2,-9.113177E-2,-9.521776E-2,5.333149E-2,-5.9776153E-2,4.6022292E-2],"split_indices":[5,0,4,6,3,0,3,5,0,0,5,0,4,1,3,0,1,0,0,0,0,0,0],"split_type":[0,0,0,0,0,0,0,0,0,0,0,0,0,0,0,0,0,0,0,0,0,0,0],"sum_hessian":[1.7782318E3,6.852171E2,1.0930148E3,7.088257E2,3.8418906E2,5.3251033E0,7.035006E2,3.7366086E2,1.0528188E1,5.022462E1,6.5327594E2,1.1595999E1,3.6206488E2,5.5512115E1,5.9776385E2,3.96484E0,3.5810004E2,3.881408E1,1.6698036E1,1.7475939E0,5.9601624E2,2.7137532E0,3.553863E2],"tree_param":{"num_deleted":"0","num_feature":"8","num_nodes":"23","size_leaf_vector":"1"}},{"base_weights":[1.6814879E-1,-5.775993E-2,9.1453654E-1,9.222941E-1,-5.185008E-2,1.2625048E0,8.76695E-1,1.3675412E0,-6.6281445E-2,-8.187871E-2,8.945638E-1,7.006408E-2,-4.8827786E-2,-5.5038393E-2,9.0847397E-1,4.204822E-2,5.8291953E-2],"categories":[],"categories_nodes":[],"categories_segments":[],"categories_sizes":[],"default_left":[0,0,0,0,0,0,0,0,0,0,0,0,0,0,0,0,0],"id":30,"left_children":[1,-1,3,5,-1,7,9,11,-1,-1,13,-1,-1,-1,15,-1,-1],"loss_changes":[1.8239489E3,0E0,1.882898E1,1.7143188E1,0E0,3.899315E1,4.8217834E1,1.1802582E1,0E0,0E0,2.9697876E1,0E0,0E0,0E0,1.686914E1,0E0,0E0],"parents":[2147483647,0,0,2,2,3,3,5,5,6,6,7,7,10,10,14,14],"right_children":[2,-1,4,6,-1,8,10,12,-1,-1,14,-1,-1,-1,16,-1,-1],"split_conditions":[1.98E2,-5.775993E-2,1.15E1,3.081E2,-5.185008E-2,5.55974E4,3.083E2,1.55E3,-6.6281445E-2,-8.187871E-2,2E2,7.006408E-2,-4.8827786E-2,-5.5038393E-2,1.851E3,4.204822E-2,5.8291953E-2],"split_indices":[5,0,6,2,0,7,2,3,0,0,5,0,0,0,3,0,0],"split_type":[0,0,0,0,0,0,0,0,0,0,0,0,0,0,0,0,0],"sum_hessian":[1.8445367E3,6.6497925E2,1.1795576E3,1.1754126E3,4.1449556E0,1.357685E2,1.0396442E3,1.3092659E2,4.8418946E0,6.6968966E0,1.0329473E3,1.294653E2,1.4612843E0,6.610285E0,1.0263369E3,8.164428E2,2.0989412E2],"tree_param":{"num_deleted":"0","num_feature":"8","num_nodes":"17","size_leaf_vector":"1"}},{"base_weights":[1.2882072E-1,-1.3152207E-1,3.8754168E-1,-6.32998E-2,6.721564E-2,7.885993E-1,8.28243E-2,1.7392583E-1,-6.3224085E-2,-5.0640624E-2,8.367232E-1,-4.863118E-1,6.5264636E-1,-6.912098E-2,2.4138701E-1,9.530689E-1,1.625324E-1,-8.009706E-1,5.963139E-2,-6.0540613E-2,8.305232E-1,-5.9833407E-2,3.1313005E-1,1.1705058E0,4.3678626E-1,-6.328867E-2,5.6138214E-2,9.5761615E-1,-6.4931855E-2,9.0810984E-1,-5.8470853E-2,1.0781E-2,5.6033827E-2,-4.1455224E-2,5.9849273E-2,-6.01286E-2,5.352306E-2,-4.7773268E-2,6.089033E-2,4.8584078E-2,-5.7837375E-2],"categories":[],"categories_nodes":[],"categories_segments":[],"categories_sizes":[],"default_left":[0,0,0,0,0,0,0,0,0,0,0,0,0,0,0,0,0,0,0,0,0,0,0,0,0,0,0,0,0,0,0,0,0,0,0,0,0,0,0,0,0],"id":31,"left_children":[1,3,5,-1,7,9,11,13,-1,-1,15,17,19,-1,21,23,25,27,-1,-1,29,-1,31,33,35,-1,-1,37,-1,39,-1,-1,-1,-1,-1,-1,-1,-1,-1,-1,-1],"loss_changes":[1.158251E2,1.934147E2,1.0532262E2,0E0,1.0404332E2,3.3114136E1,1.5960126E2,7.144382E1,0E0,0E0,2.8323807E1,1.3107242E2,8.249834E1,0E0,6.743535E1,3.422473E1,7.6359184E1,1.833016E2,0E0,0E0,3.597885E1,0E0,4.857204E1,1.248941E1,9.820279E1,0E0,0E0,2.4289387E1,0E0,2.963301E1,0E0,0E0,0E0,0E0,0E0,0E0,0E0,0E0,0E0,0E0,0E0],"parents":[2147483647,0,0,1,1,2,2,4,4,5,5,6,6,7,7,10,10,11,11,12,12,14,14,15,15,16,16,17,17,20,20,22,22,23,23,24,24,27,27,29,29],"right_children":[2,4,6,-1,8,10,12,14,-1,-1,16,18,20,-1,22,24,26,28,-1,-1,30,-1,32,34,36,-1,-1,38,-1,40,-1,-1,-1,-1,-1,-1,-1,-1,-1,-1,-1],"split_conditions":[1E0,1.441E3,1.424E3,-6.32998E-2,1.12E1,1.324E3,1.669E3,4.46532E4,-6.3224085E-2,-5.0640624E-2,3.008E2,7.89152E4,2.996E2,-6.912098E-2,3.083E2,9.7E0,3.132E2,2.97E2,5.963139E-2,-6.0540613E-2,3.118E2,-5.9833407E-2,1.867E3,1.364E3,1.14E1,-6.328867E-2,5.6138214E-2,2.969E2,-6.4931855E-2,2E0,-5.8470853E-2,1.0781E-2,5.6033827E-2,-4.1455224E-2,5.9849273E-2,-6.01286E-2,5.352306E-2,-4.7773268E-2,6.089033E-2,4.8584078E-2,-5.7837375E-2],"split_indices":[0,3,3,0,6,3,3,7,0,0,1,7,1,0,2,6,2,1,0,0,2,0,3,3,6,0,0,1,0,0,0,0,0,0,0,0,0,0,0,0,0],"split_type":[0,0,0,0,0,0,0,0,0,0,0,0,0,0,0,0,0,0,0,0,0,0,0,0,0,0,0,0,0,0,0,0,0,0,0,0,0,0,0,0,0],"sum_hessian":[1.7178356E3,8.564791E2,8.6135645E2,1.2687216E2,7.29607E2,3.7120386E2,4.901526E2,6.7628503E2,5.332198E1,9.136934E0,3.6206693E2,2.4529723E2,2.4485538E2,2.7286514E1,6.489985E2,3.0842764E2,5.3639282E1,2.0702122E2,3.8275997E1,2.0830074E1,2.240253E2,3.0094223E1,6.189043E2,2.1613385E2,9.229379E1,2.1435965E1,3.220332E1,4.5459244E1,1.6156198E2,2.1618446E2,7.8408346E0,5.5335455E2,6.5549736E1,2.428587E0,2.1370528E2,2.547933E1,6.681447E1,5.122593E0,4.033665E1,2.102411E2,5.943367E0],"tree_param":{"num_deleted":"0","num_feature":"8","num_nodes":"41","size_leaf_vector":"1"}},{"base_weights":[9.3696035E-2,-5.7180114E-2,8.615048E-1,-7.565857E-2,8.9164037E-1,4.12819E-1,9.474764E-1,-8.7326735E-2,1.1926702E0,9.7211903E-1,4.9347228E-1,-6.1392684E-2,6.2758304E-2,1.1971269E0,9.1614264E-1,-9.857447E-2,6.185211E-2,6.1493576E-2,-5.8012944E-2,-1.0650479E-1,4.7172423E-2],"categories":[],"categories_nodes":[],"categories_segments":[],"categories_sizes":[],"default_left":[0,0,0,0,0,0,0,0,0,0,0,0,0,0,0,0,0,0,0,0,0],"id":32,"left_children":[1,-1,3,-1,5,7,9,-1,11,13,15,-1,-1,17,19,-1,-1,-1,-1,-1,-1],"loss_changes":[1.5388016E3,0E0,7.2872314E1,0E0,2.6011658E1,1.7874173E2,9.406494E0,0E0,1.3289856E1,9.44696E0,8.9545906E1,0E0,0E0,1.4048401E1,5.812451E1,0E0,0E0,0E0,0E0,0E0,0E0],"parents":[2147483647,0,0,2,2,4,4,5,5,6,6,8,8,9,9,10,10,13,13,14,14],"right_children":[2,-1,4,-1,6,8,10,-1,12,14,16,-1,-1,18,20,-1,-1,-1,-1,-1,-1],"split_conditions":[2E2,-5.7180114E-2,1.373E3,-7.565857E-2,2.05E2,1.851E3,6.89156E4,-8.7326735E-2,3.91636E4,3.084E2,2.32E2,-6.1392684E-2,6.2758304E-2,1.616E3,3.089E2,-9.857447E-2,6.185211E-2,6.1493576E-2,-5.8012944E-2,-1.0650479E-1,4.7172423E-2],"split_indices":[5,0,3,0,5,3,7,0,7,2,5,0,0,3,2,0,0,0,0,0,0],"split_type":[0,0,0,0,0,0,0,0,0,0,0,0,0,0,0,0,0,0,0,0,0],"sum_hessian":[1.6177399E3,6.1928815E2,9.984517E2,1.1895286E1,9.865564E2,1.03905785E2,8.8265063E2,2.7240147E1,7.666564E1,8.3612573E2,4.6524937E1,1.460288E0,7.520535E1,1.6250793E2,6.736178E2,1.03993435E1,3.612559E1,1.6075333E2,1.7546086E0,5.3003707E0,6.683174E2],"tree_param":{"num_deleted":"0","num_feature":"8","num_nodes":"21","size_leaf_vector":"1"}},{"base_weights":[1.9862069E-1,1.4561151E-1,9.013364E-1,2.4338256E-1,-6.0275115E-2,-5.255344E-2,1.0893824E0,7.27274E-1,1.1713791E-1,-4.150432E-2,1.1251659E0,-2.9132825E-1,9.847448E-1,9.97443E-3,6.619577E-1,-3.3697784E-2,5.7787817E-2,-6.610846E-2,6.2739795E-1,-5.207732E-2,1.0299809E0,-6.5819725E-2,1.0478678E-1,8.687799E-1,-6.6956125E-2,5.275739E-2,-5.3421356E-2,-5.040544E-2,5.3523578E-2,5.9804954E-2,9.345766E-4,-6.42599E-2,4.912134E-2],"categories":[],"categories_nodes":[],"categories_segments":[],"categories_sizes":[],"default_left":[0,0,0,0,0,0,0,0,0,0,0,0,0,0,0,0,0,0,0,0,0,0,0,0,0,0,0,0,0,0,0,0,0],"id":33,"left_children":[1,3,5,7,-1,-1,9,11,13,-1,15,17,19,21,23,-1,-1,-1,25,-1,27,-1,29,31,-1,-1,-1,-1,-1,-1,-1,-1,-1],"loss_changes":[6.426393E1,2.1279532E2,4.5593163E1,9.160449E1,0E0,0E0,8.552567E0,8.168413E1,6.956229E1,0E0,6.795166E0,6.086757E1,2.3802475E1,1.2548197E2,8.22135E1,0E0,0E0,0E0,2.5934229E1,0E0,2.1137482E1,0E0,8.7465904E1,4.4859634E1,0E0,0E0,0E0,0E0,0E0,0E0,0E0,0E0,0E0],"parents":[2147483647,0,0,1,1,2,2,3,3,6,6,7,7,8,8,10,10,11,11,12,12,13,13,14,14,18,18,20,20,22,22,23,23],"right_children":[2,4,6,8,-1,-1,10,12,14,-1,16,18,20,22,24,-1,-1,-1,26,-1,28,-1,30,32,-1,-1,-1,-1,-1,-1,-1,-1,-1],"split_conditions":[7.95472E4,4.81E1,1E0,1.424E3,-6.0275115E-2,-5.255344E-2,3.088E2,1E0,1.867E3,-4.150432E-2,1.318E3,6.50793E4,1.373E3,2.9E1,3.008E2,-3.3697784E-2,5.7787817E-2,-6.610846E-2,6.52004E4,-5.207732E-2,2.984E2,-6.5819725E-2,4.69804E4,3.91636E4,-6.6956125E-2,5.275739E-2,-5.3421356E-2,-5.040544E-2,5.3523578E-2,5.9804954E-2,9.345766E-4,-6.42599E-2,4.912134E-2],"split_indices":[7,4,0,3,0,0,2,0,3,0,3,7,3,4,1,0,0,0,7,0,1,0,7,7,0,0,0,0,0,0,0,0,0],"split_type":[0,0,0,0,0,0,0,0,0,0,0,0,0,0,0,0,0,0,0,0,0,0,0,0,0,0,0,0,0,0,0,0,0],"sum_hessian":[1.7277118E3,1.6076466E3,1.20065216E2,1.4999269E3,1.0771978E2,1.0144948E1,1.09920265E2,3.093682E2,1.1905586E3,1.6054353E0,1.08314835E2,6.2394085E1,2.469741E2,9.9572296E2,1.948357E2,1.4592643E0,1.0685557E2,2.9196041E1,3.3198044E1,4.912238E0,2.4206186E2,6.556887E1,9.3015405E2,1.7709756E2,1.7738123E1,2.681269E1,6.385355E0,4.2498345E0,2.3781203E2,6.707265E1,8.630814E2,8.358984E0,1.6873859E2],"tree_param":{"num_deleted":"0","num_feature":"8","num_nodes":"33","size_leaf_vector":"1"}},{"base_weights":[9.909729E-2,3.3829596E-2,8.845736E-1,1.3008113E-1,-6.011049E-2,-5.3043198E-2,1.0772082E0,7.25022E-1,1.4273126E-2,-4.404322E-2,1.1231059E0,9.5116115E-1,-5.577631E-2,-6.0706634E-2,1.2475562E-1,-3.240048E-2,5.7429176E-2,-5.5672534E-2,1.104453E0,3.9787017E-2,9.485478E-1,-4.8348457E-2,5.8726043E-2,5.7292003E-3,-6.392895E-2,-5.352619E-2,5.347247E-2],"categories":[],"categories_nodes":[],"categories_segments":[],"categories_sizes":[],"default_left":[0,0,0,0,0,0,0,0,0,0,0,0,0,0,0,0,0,0,0,0,0,0,0,0,0,0,0],"id":34,"left_children":[1,3,5,7,-1,-1,9,11,13,-1,15,17,-1,-1,19,-1,-1,-1,21,23,25,-1,-1,-1,-1,-1,-1],"loss_changes":[7.82056E1,1.6790822E2,4.5003517E1,9.018257E1,0E0,0E0,1.0604507E1,8.9830666E1,1.490043E2,0E0,5.481308E0,6.1513992E1,0E0,0E0,7.0461845E1,0E0,0E0,0E0,2.6943924E1,9.0281784E1,2.4122292E1,0E0,0E0,0E0,0E0,0E0,0E0],"parents":[2147483647,0,0,1,1,2,2,3,3,6,6,7,7,8,8,10,10,11,11,14,14,18,18,19,19,20,20],"right_children":[2,4,6,8,-1,-1,10,12,14,-1,16,18,-1,-1,20,-1,-1,-1,22,24,26,-1,-1,-1,-1,-1,-1],"split_conditions":[7.95472E4,4.81E1,1E0,3.082E2,-6.011049E-2,-5.3043198E-2,9.5E0,5.71914E4,2.986E2,-4.404322E-2,3.088E2,3.1E1,-5.577631E-2,-6.0706634E-2,4.76E1,-3.240048E-2,5.7429176E-2,-5.5672534E-2,3.076E2,3.121E2,1E0,-4.8348457E-2,5.8726043E-2,5.7292003E-3,-6.392895E-2,-5.352619E-2,5.347247E-2],"split_indices":[7,4,0,2,0,0,6,7,1,0,2,4,0,0,4,0,0,0,2,2,0,0,0,0,0,0,0],"split_type":[0,0,0,0,0,0,0,0,0,0,0,0,0,0,0,0,0,0,0,0,0,0,0,0,0,0,0],"sum_hessian":[1.5250638E3,1.4090265E3,1.1603737E2,1.3080614E3,1.0096518E2,1.0048575E1,1.0598879E2,2.1227576E2,1.0957856E3,2.010851E0,1.0397794E2,1.8947867E2,2.2797098E1,8.9597824E1,1.00618774E3,1.1280116E0,1.0284993E2,1.266303E1,1.7681564E2,9.1306006E2,9.3127686E1,5.366444E0,1.7144919E2,8.649032E2,4.8156868E1,4.817665E0,8.831003E1],"tree_param":{"num_deleted":"0","num_feature":"8","num_nodes":"27","size_leaf_vector":"1"}},{"base_weights":[1.2134681E-1,-5.6531508E-2,8.496707E-1,-9.6902505E-2,8.6209685E-1,9.694429E-1,6.6169083E-1,9.764977E-1,-8.810267E-2,8.5725695E-1,-2.1658447E0,7.1136504E-2,9.394909E-1,-5.9433885E-2,9.172704E-1,-5.0248295E-2,-2.3184211E0,-9.181099E-2,4.7717948E-2,-8.265066E-2,4.6641614E-2,-3.411147E-2,-1.1858864E-1],"categories":[],"categories_nodes":[],"categories_segments":[],"categories_sizes":[],"default_left":[0,0,0,0,0,0,0,0,0,0,0,0,0,0,0,0,0,0,0,0,0,0,0],"id":35,"left_children":[1,-1,3,-1,5,7,9,11,-1,13,15,-1,17,-1,19,-1,21,-1,-1,-1,-1,-1,-1],"loss_changes":[1.4338163E3,0E0,3.610437E1,0E0,2.066272E1,1.4106018E1,1.9460814E2,9.260437E0,0E0,4.1208862E1,1.714325E0,0E0,2.632898E1,0E0,1.4261261E1,0E0,7.675934E-2,0E0,0E0,0E0,0E0,0E0,0E0],"parents":[2147483647,0,0,2,2,4,4,5,5,6,6,7,7,9,9,10,10,12,12,14,14,16,16],"right_children":[2,-1,4,-1,6,8,10,12,-1,14,16,-1,18,-1,20,-1,22,-1,-1,-1,-1,-1,-1],"split_conditions":[1.98E2,-5.6531508E-2,3.91636E4,-9.6902505E-2,3.91E1,2.36E2,1.456E3,1.417E3,-8.810267E-2,2.04E2,2.04E2,7.1136504E-2,1.493E3,-5.9433885E-2,5.8178E4,-5.0248295E-2,2.97E2,-9.181099E-2,4.7717948E-2,-8.265066E-2,4.6641614E-2,-3.411147E-2,-1.1858864E-1],"split_indices":[5,0,7,0,4,5,3,3,0,5,5,0,3,0,7,0,1,0,0,0,0,0,0],"split_type":[0,0,0,0,0,0,0,0,0,0,0,0,0,0,0,0,0,0,0,0,0,0,0],"sum_hessian":[1.5703812E3,5.773587E2,9.930225E2,3.719031E0,9.893035E2,6.4172864E2,3.4757486E2,6.407164E2,1.0123045E0,3.257418E2,2.1833067E1,4.6198887E1,5.9451746E2,8.746768E0,3.1699503E2,3.4175153E0,1.841555E1,2.5148711E0,5.920026E2,1.274462E0,3.1572055E2,1.0168914E0,1.7398659E1],"tree_param":{"num_deleted":"0","num_feature":"8","num_nodes":"23","size_leaf_vector":"1"}},{"base_weights":[1.2456407E-1,-5.6186028E-2,8.2271016E-1,9.2954546E-1,5.021853E-1,-9.250288E-2,9.5313734E-1,7.267989E-1,-2.7359346E-1,9.602139E-1,-8.144095E-2,-8.245333E-2,8.6873704E-1,-1.7568743E0,5.2952804E-2,9.6894336E-1,-4.7208022E-2,-9.931621E-2,9.359291E-1,-4.8037753E-2,-9.334784E-2,-5.592915E-2,4.871178E-2,-7.065283E-2,4.9458947E-2],"categories":[],"categories_nodes":[],"categories_segments":[],"categories_sizes":[],"default_left":[0,0,0,0,0,0,0,0,0,0,0,0,0,0,0,0,0,0,0,0,0,0,0,0,0],"id":36,"left_children":[1,-1,3,5,7,-1,9,11,13,15,-1,-1,17,19,-1,21,-1,-1,23,-1,-1,-1,-1,-1,-1],"loss_changes":[1.3260862E3,0E0,3.294635E1,4.9676575E1,4.308242E1,0E0,1.4813721E1,6.588325E1,1.1252169E2,1.2947571E1,0E0,0E0,3.6581833E1,5.6118774E-1,0E0,9.055115E0,0E0,0E0,2.3602386E1,0E0,0E0,0E0,0E0,0E0,0E0],"parents":[2147483647,0,0,2,2,3,3,4,4,6,6,7,7,8,8,9,9,12,12,13,13,15,15,18,18],"right_children":[2,-1,4,6,8,-1,10,12,14,16,-1,-1,18,20,-1,22,-1,-1,24,-1,-1,-1,-1,-1,-1],"split_conditions":[1.98E2,-5.6186028E-2,6.01082E4,8.6E0,9.8E0,-9.250288E-2,2.36E2,2.07E2,8.214E4,1.15E1,-8.144095E-2,-8.245333E-2,3E2,2.03E2,5.2952804E-2,1.393E3,-4.7208022E-2,-9.931621E-2,1.384E3,-4.8037753E-2,-9.334784E-2,-5.592915E-2,4.871178E-2,-7.065283E-2,4.9458947E-2],"split_indices":[5,0,7,6,6,0,5,5,7,6,0,0,1,5,0,3,0,0,3,0,0,0,0,0,0],"split_type":[0,0,0,0,0,0,0,0,0,0,0,0,0,0,0,0,0,0,0,0,0,0,0,0,0],"sum_hessian":[1.5195789E3,5.4482416E2,9.747547E2,7.2965173E2,2.4510303E2,5.489225E0,7.241625E2,1.901201E2,5.498292E1,7.228095E2,1.3529484E0,1.0119202E1,1.800009E2,2.587022E1,2.9112701E1,7.200003E2,2.809212E0,3.4820747E0,1.7651883E2,4.3243065E0,2.1545914E1,1.2887428E0,7.1871155E2,3.3467977E0,1.7317203E2],"tree_param":{"num_deleted":"0","num_feature":"8","num_nodes":"25","size_leaf_vector":"1"}},{"base_weights":[1.4844804E-1,-5.581698E-2,8.21877E-1,6.4750004E-1,9.6719337E-1,7.183599E-1,-8.632069E-2,1.0036579E0,-7.887687E-2,8.661095E-1,1.3550417E-1,-6.6677E-2,1.0196835E0,1.1783711E0,5.398382E-1,-2.2069285E0,1.0288297E0,1.2103674E0,9.830408E-1,6.435796E-2,4.859209E-2,3.969991E-2,-8.943625E-2,-7.5268075E-2,-1.4016129E-1,5.744433E-2,-7.877862E-2,6.27179E-2,-4.8682716E-2,-1.2300239E-1,5.0956704E-2],"categories":[],"categories_nodes":[],"categories_segments":[],"categories_sizes":[],"default_left":[0,0,0,0,0,0,0,0,0,0,0,0,0,0,0,0,0,0,0,0,0,0,0,0,0,0,0,0,0,0,0],"id":37,"left_children":[1,-1,3,5,7,9,-1,11,-1,13,15,-1,17,19,21,23,25,27,29,-1,-1,-1,-1,-1,-1,-1,-1,-1,-1,-1,-1],"loss_changes":[1.2762489E3,0E0,2.4147278E1,7.650247E1,5.087799E1,3.735675E1,0E0,2.0999023E1,0E0,3.4713745E1,1.8889816E2,0E0,2.4528198E0,2.71344E0,1.0293251E2,6.2137985E0,2.2211021E1,8.879501E0,5.751352E1,0E0,0E0,0E0,0E0,0E0,0E0,0E0,0E0,0E0,0E0,0E0,0E0],"parents":[2147483647,0,0,2,2,3,3,4,4,5,5,7,7,9,9,10,10,12,12,13,13,14,14,15,15,16,16,17,17,18,18],"right_children":[2,-1,4,6,8,10,-1,12,-1,14,16,-1,18,20,22,24,26,28,30,-1,-1,-1,-1,-1,-1,-1,-1,-1,-1,-1,-1],"split_conditions":[1.98E2,-5.581698E-2,2.14E2,2.11E2,4.81E1,1.55E3,-8.632069E-2,3.083E2,-7.887687E-2,5.6511E4,1.892E3,-6.6677E-2,2.987E2,3.081E2,1.443E3,2.04E2,3.008E2,5.984E4,2.995E2,6.435796E-2,4.859209E-2,3.969991E-2,-8.943625E-2,-7.5268075E-2,-1.4016129E-1,5.744433E-2,-7.877862E-2,6.27179E-2,-4.8682716E-2,-1.2300239E-1,5.0956704E-2],"split_indices":[5,0,5,5,4,3,0,2,0,7,3,0,1,2,3,5,1,7,1,0,0,0,0,0,0,0,0,0,0,0,0],"split_type":[0,0,0,0,0,0,0,0,0,0,0,0,0,0,0,0,0,0,0,0,0,0,0,0,0,0,0,0,0,0,0],"sum_hessian":[1.4963165E3,5.1966327E2,9.7665326E2,4.4641696E2,5.3023627E2,4.3415512E2,1.2261861E1,5.233427E2,6.893607E0,3.4596863E2,8.818648E1,3.0041037E0,5.2033856E2,1.7544522E2,1.7052342E2,2.3940489E1,6.424599E1,7.87098E1,4.4162878E2,1.11487495E2,6.3957718E1,1.5433676E2,1.6186657E1,1.2618659E1,1.132183E1,6.1949146E1,2.2968428E0,7.7573E1,1.1368055E0,3.8847752E0,4.37744E2],"tree_param":{"num_deleted":"0","num_feature":"8","num_nodes":"31","size_leaf_vector":"1"}},{"base_weights":[1.00793675E-1,-5.6898147E-2,1.5513062E-1,-5.8591943E-2,1.9638015E-1,1.1913826E-1,6.968491E-1,3.54765E-1,-3.4510618E-1,8.782274E-1,-6.359478E-2,7.8111595E-1,1.2402745E-1,-6.478939E-2,-1.5732725E-3,-5.7614487E-2,9.555172E-1,4.7667813E-2,4.193563E-4,-2.8394839E-2,1.9612862E-2,2.4582578E-2,-3.7330672E-2,5.004254E-2,-5.144648E-2],"categories":[],"categories_nodes":[],"categories_segments":[],"categories_sizes":[],"default_left":[0,0,0,0,0,0,0,0,0,0,0,0,0,0,0,0,0,0,0,0,0,0,0,0,0],"id":38,"left_children":[1,-1,3,-1,5,7,9,11,13,15,-1,17,19,-1,21,-1,23,-1,-1,-1,-1,-1,-1,-1,-1],"loss_changes":[9.297936E1,0E0,7.2574554E1,0E0,4.9502014E1,1.21805374E2,6.2283737E1,7.254091E1,1.2247531E2,2.5808617E1,0E0,3.4475967E1,8.9360664E1,0E0,1.0196419E2,0E0,1.4722824E1,0E0,0E0,0E0,0E0,0E0,0E0,0E0,0E0],"parents":[2147483647,0,0,2,2,4,4,5,5,6,6,7,7,8,8,9,9,11,11,12,12,14,14,16,16],"right_children":[2,-1,4,-1,6,8,10,12,14,16,-1,18,20,-1,22,-1,24,-1,-1,-1,-1,-1,-1,-1,-1],"split_conditions":[1.373E3,-5.6898147E-2,2.974E2,-5.8591943E-2,1.867E3,1.532E3,3.008E2,3.9E1,3.102E2,1.87E1,-6.359478E-2,9.7E0,4.43E1,-6.478939E-2,3.07E1,-5.7614487E-2,1.12E1,4.7667813E-2,4.193563E-4,-2.8394839E-2,1.9612862E-2,2.4582578E-2,-3.7330672E-2,5.004254E-2,-5.144648E-2],"split_indices":[3,0,1,0,3,3,1,4,2,4,0,6,4,0,4,0,6,0,0,0,0,0,0,0,0],"split_type":[0,0,0,0,0,0,0,0,0,0,0,0,0,0,0,0,0,0,0,0,0,0,0,0,0],"sum_hessian":[1.3777323E3,5.7055542E1,1.3206768E3,3.898988E1,1.2816869E3,1.1113936E3,1.7029333E2,7.3737537E2,3.740182E2,1.5643506E2,1.3858276E1,2.580928E2,4.7928256E2,9.8542625E1,2.7547556E2,5.226204E0,1.5120885E2,2.1085886E2,4.7233936E1,1.3358086E2,3.457017E2,1.6595296E2,1.095226E2,1.483163E2,2.8925517E0],"tree_param":{"num_deleted":"0","num_feature":"8","num_nodes":"25","size_leaf_vector":"1"}},{"base_weights":[7.5562045E-2,-5.538491E-2,7.599092E-1,-6.506712E-2,7.8113276E-1,8.274011E-1,2.994397E-1,8.7658495E-1,1.952887E-1,-2.3183975E0,1.0925914E0,8.844685E-1,-8.074604E-2,-8.248727E-2,6.1255485E-2,-6.306235E-2,-1.3371885E-1,5.7406474E-2,-4.847854E-2,-5.656023E-2,4.462427E-2],"categories":[],"categories_nodes":[],"categories_segments":[],"categories_sizes":[],"default_left":[0,0,0,0,0,0,0,0,0,0,0,0,0,0,0,0,0,0,0,0,0],"id":39,"left_children":[1,-1,3,-1,5,7,9,11,13,15,17,19,-1,-1,-1,-1,-1,-1,-1,-1,-1],"loss_changes":[1.0642284E3,0E0,3.744049E1,0E0,1.8133453E1,2.320514E1,1.558591E2,1.5125305E1,1.0760227E2,3.2093048E0,7.681755E0,1.2252991E1,0E0,0E0,0E0,0E0,0E0,0E0,0E0,0E0,0E0],"parents":[2147483647,0,0,2,2,4,4,5,5,6,6,7,7,8,8,9,9,10,10,11,11],"right_children":[2,-1,4,-1,6,8,10,12,14,16,18,20,-1,-1,-1,-1,-1,-1,-1,-1,-1],"split_conditions":[1.98E2,-5.538491E-2,1.364E3,-6.506712E-2,3.023E2,6.5904E4,3.132E2,3.119E2,8.75688E4,2.06E2,1.51E3,3.078E2,-8.074604E-2,-8.248727E-2,6.1255485E-2,-6.306235E-2,-1.3371885E-1,5.7406474E-2,-4.847854E-2,-5.656023E-2,4.462427E-2],"split_indices":[5,0,3,0,1,7,2,2,7,5,3,2,0,0,0,0,0,0,0,0,0],"split_type":[0,0,0,0,0,0,0,0,0,0,0,0,0,0,0,0,0,0,0,0,0],"sum_hessian":[1.3122107E3,4.8060654E2,8.316042E2,7.860583E0,8.237436E2,7.508993E2,7.284431E1,6.963319E2,5.456742E1,1.649121E1,5.6353096E1,6.947785E2,1.553399E0,1.9331324E1,3.52361E1,5.2987037E0,1.1192508E1,5.5306816E1,1.0462811E0,2.1973534E0,6.925811E2],"tree_param":{"num_deleted":"0","num_feature":"8","num_nodes":"21","size_leaf_vector":"1"}},{"base_weights":[1.8474133E-1,8.9273006E-2,7.7250135E-1,-6.501992E-2,1.5257737E-1,9.2072153E-1,-6.3093476E-2,3.395523E-1,-2.5205538E-1,-5.308962E-2,1.0048672E0,-5.5808693E-2,3.952208E-1,-6.674888E-2,1.6205933E-2,1.0370374E0,-4.1746695E-2,8.438373E-1,2.9012078E-1,6.0287046E-1,-4.1864374E-1,-4.3972105E-2,1.0556611E0,4.686844E-2,-5.2762456E-2,-6.8428986E-2,2.0625247E-2,-5.4781117E-2,3.596798E-2,-5.9551116E-2,3.112023E-2,4.477907E-2,5.6794804E-2],"categories":[],"categories_nodes":[],"categories_segments":[],"categories_sizes":[],"default_left":[0,0,0,0,0,0,0,0,0,0,0,0,0,0,0,0,0,0,0,0,0,0,0,0,0,0,0,0,0,0,0,0,0],"id":40,"left_children":[1,3,5,-1,7,9,-1,11,13,-1,15,-1,17,-1,19,21,-1,23,25,27,29,-1,31,-1,-1,-1,-1,-1,-1,-1,-1,-1,-1],"loss_changes":[7.978264E1,1.07995026E2,6.1081566E1,0E0,8.88194E1,3.206195E1,0E0,6.5482796E1,1.0787198E2,0E0,1.1445328E1,0E0,3.6238747E1,0E0,7.641079E1,7.2145233E0,0E0,2.6983833E1,1.2813625E2,2.6013126E1,1.3907492E2,0E0,1.2288818E0,0E0,0E0,0E0,0E0,0E0,0E0,0E0,0E0,0E0,0E0],"parents":[2147483647,0,0,1,1,2,2,4,4,5,5,7,7,8,8,10,10,12,12,14,14,15,15,17,17,18,18,19,19,20,20,22,22],"right_children":[2,4,6,-1,8,10,-1,12,14,-1,16,-1,18,-1,20,22,-1,24,26,28,30,-1,32,-1,-1,-1,-1,-1,-1,-1,-1,-1,-1],"split_conditions":[1.867E3,2.9E1,3.008E2,-6.501992E-2,9.9E0,3.089E2,-6.3093476E-2,1.379E3,5.7085E4,-5.308962E-2,1.13E1,-5.5808693E-2,3.11E1,-6.674888E-2,6.01082E4,1.59E1,-4.1746695E-2,3.11E2,3.5E1,1.455E3,1.14E1,-4.3972105E-2,1.1E1,4.686844E-2,-5.2762456E-2,-6.8428986E-2,2.0625247E-2,-5.4781117E-2,3.596798E-2,-5.9551116E-2,3.112023E-2,4.477907E-2,5.6794804E-2],"split_indices":[3,4,1,0,6,2,0,3,7,0,6,0,4,0,7,4,0,2,4,3,6,0,6,0,0,0,0,0,0,0,0,0,0],"split_type":[0,0,0,0,0,0,0,0,0,0,0,0,0,0,0,0,0,0,0,0,0,0,0,0,0,0,0,0,0,0,0,0,0],"sum_hessian":[1.4220636E3,1.2243479E3,1.9771573E2,5.249191E1,1.171856E3,1.8479906E2,1.2916672E1,8.016062E2,3.702498E2,7.0511827E0,1.7774788E2,2.8823515E1,7.727827E2,7.271919E1,2.975306E2,1.7512209E2,2.625796E0,1.4534644E2,6.274363E2,1.264917E2,1.7103891E2,1.2405503E0,1.7388153E2,1.3900667E2,6.3397703E0,4.2413517E1,5.8502277E2,7.57901E0,1.1891269E2,9.8106964E1,7.2931946E1,6.2115284E1,1.1176625E2],"tree_param":{"num_deleted":"0","num_feature":"8","num_nodes":"33","size_leaf_vector":"1"}},{"base_weights":[2.3035488E-1,-5.5135507E-2,8.488051E-1,5.089971E-1,8.93088E-1,8.8564014E-1,-8.2003504E-2,-6.312044E-2,9.0834373E-1,-6.4162605E-2,1.032548E0,-6.0441524E-2,9.139521E-1,7.538874E-1,5.8257785E-2,9.199845E-1,-4.3987613E-2,-7.099667E-2,5.7130676E-2,4.362565E-2,5.4934748E-2],"categories":[],"categories_nodes":[],"categories_segments":[],"categories_sizes":[],"default_left":[0,0,0,0,0,0,0,0,0,0,0,0,0,0,0,0,0,0,0,0,0],"id":41,"left_children":[1,-1,3,5,7,9,-1,-1,11,-1,13,-1,15,17,-1,19,-1,-1,-1,-1,-1],"loss_changes":[1.2191418E3,0E0,1.4742371E1,9.758182E1,3.0484192E1,3.3729652E1,0E0,0E0,1.1630737E1,0E0,2.6617737E0,0E0,1.0381958E1,3.011949E1,0E0,6.525879E0,0E0,0E0,0E0,0E0,0E0],"parents":[2147483647,0,0,2,2,3,3,4,4,5,5,8,8,10,10,12,12,13,13,15,15],"right_children":[2,-1,4,6,8,10,-1,-1,12,-1,14,-1,16,18,-1,20,-1,-1,-1,-1,-1],"split_conditions":[2E2,-5.5135507E-2,2.05E2,3.097E2,1.364E3,3.088E2,-8.2003504E-2,-6.312044E-2,7.9E0,-6.4162605E-2,1.828E3,-6.0441524E-2,1.15E1,6.01E1,5.8257785E-2,2.32E2,-4.3987613E-2,-7.099667E-2,5.7130676E-2,4.362565E-2,5.4934748E-2],"split_indices":[5,0,5,2,3,2,0,0,6,0,3,0,6,4,0,5,0,0,0,0,0],"split_type":[0,0,0,0,0,0,0,0,0,0,0,0,0,0,0,0,0,0,0,0,0],"sum_hessian":[1.4766262E3,4.6770612E2,1.0089201E3,1.1776154E2,8.9115857E2,1.00700745E2,1.7060802E1,5.68841E0,8.8547015E2,5.8974795E0,9.480326E1,1.7726016E0,8.836976E2,3.272349E1,6.207977E1,8.8122107E2,2.476521E0,4.561582E0,2.8161911E1,7.0091614E2,1.8030489E2],"tree_param":{"num_deleted":"0","num_feature":"8","num_nodes":"21","size_leaf_vector":"1"}},{"base_weights":[2.65549E-1,-5.4741222E-2,8.312189E-1,6.7290294E-1,9.594115E-1,7.720362E-1,-9.2656724E-2,-5.0773274E-2,9.70588E-1,-7.576326E-2,7.9015553E-1,-5.4107267E-2,9.796626E-1,1.033125E0,6.3609916E-1,6.234429E-2,9.378353E-1,5.8161695E-2,2.5822863E-2,-6.366979E-2,3.7409183E-2,-6.981572E-2,4.784225E-2],"categories":[],"categories_nodes":[],"categories_segments":[],"categories_sizes":[],"default_left":[0,0,0,0,0,0,0,0,0,0,0,0,0,0,0,0,0,0,0,0,0,0,0],"id":42,"left_children":[1,-1,3,5,7,9,-1,-1,11,-1,13,-1,15,17,19,-1,21,-1,-1,-1,-1,-1,-1],"loss_changes":[1.1404215E3,0E0,2.0592468E1,1.195184E2,1.3696899E1,2.0032501E1,0E0,0E0,1.1736938E1,0E0,1.6244873E1,0E0,5.2147217E0,1.1070007E1,6.065303E1,0E0,2.342871E1,0E0,0E0,0E0,0E0,0E0,0E0],"parents":[2147483647,0,0,2,2,3,3,4,4,5,5,8,8,10,10,12,12,13,13,14,14,16,16],"right_children":[2,-1,4,6,8,10,-1,-1,12,-1,14,-1,16,18,20,-1,22,-1,-1,-1,-1,-1,-1],"split_conditions":[1.98E2,-5.4741222E-2,2.14E2,2.1E2,1.372E3,3.91636E4,-9.2656724E-2,-5.0773274E-2,2.972E2,-7.576326E-2,2.985E2,-5.4107267E-2,2.975E2,5.55974E4,2.03E2,6.234429E-2,2.986E2,5.8161695E-2,2.5822863E-2,-6.366979E-2,3.7409183E-2,-6.981572E-2,4.784225E-2],"split_indices":[5,0,5,5,3,7,0,0,1,0,1,0,1,7,5,0,1,0,0,0,0,0,0],"split_type":[0,0,0,0,0,0,0,0,0,0,0,0,0,0,0,0,0,0,0,0,0,0,0],"sum_hessian":[1.4798037E3,4.3433667E2,1.045467E3,4.7056958E2,5.7489746E2,4.534678E2,1.7101776E1,2.7295632E0,5.721679E2,2.914612E0,4.505532E2,1.9978237E0,5.701701E2,1.7261226E2,2.7794095E2,7.326837E1,4.969017E2,1.3688902E2,3.5723236E1,1.4835709E1,2.6310522E2,3.428856E0,4.9347284E2],"tree_param":{"num_deleted":"0","num_feature":"8","num_nodes":"23","size_leaf_vector":"1"}},{"base_weights":[1.84079E-1,-5.447187E-2,7.8187466E-1,1.0690254E0,7.057488E-1,1.1557813E0,-6.248976E-2,-8.2944706E-2,7.425869E-1,1.2053183E0,-6.450056E-2,6.340377E-1,1.0804789E0,6.14984E-2,-5.3672817E-2,-9.497132E-2,6.809189E-1,-5.808593E-2,5.522529E-2,3.4791954E-2,-1.0450597E-1],"categories":[],"categories_nodes":[],"categories_segments":[],"categories_sizes":[],"default_left":[0,0,0,0,0,0,0,0,0,0,0,0,0,0,0,0,0,0,0,0,0],"id":43,"left_children":[1,-1,3,5,7,9,-1,-1,11,13,-1,15,17,-1,-1,-1,19,-1,-1,-1,-1],"loss_changes":[9.998417E2,0E0,1.8779358E1,3.8724564E1,6.3017303E1,2.3260391E1,0E0,0E0,2.4956451E1,1.12126465E1,0E0,6.442511E1,1.0363998E1,0E0,0E0,0E0,2.3061646E1,0E0,0E0,0E0,0E0],"parents":[2147483647,0,0,2,2,3,3,4,4,5,5,8,8,9,9,11,11,12,12,16,16],"right_children":[2,-1,4,6,8,10,-1,-1,12,14,-1,16,18,-1,-1,-1,20,-1,-1,-1,-1],"split_conditions":[1.98E2,-5.447187E-2,3.084E2,4.06E1,3.088E2,1.616E3,-6.248976E-2,-8.2944706E-2,2.32E2,1.1E1,-6.450056E-2,8.6E0,2.993E2,6.14984E-2,-5.3672817E-2,-9.497132E-2,2.28E2,-5.808593E-2,5.522529E-2,3.4791954E-2,-1.0450597E-1],"split_indices":[5,0,2,4,2,3,0,0,5,6,0,6,1,0,0,0,5,0,0,0,0],"split_type":[0,0,0,0,0,0,0,0,0,0,0,0,0,0,0,0,0,0,0,0,0],"sum_hessian":[1.3112114E3,4.186073E2,8.9260406E2,1.843151E2,7.08289E2,1.7815134E2,6.16375E0,1.01895275E1,6.980994E2,1.7511182E2,3.039526E0,5.3053827E2,1.675612E2,1.7369322E2,1.418598E0,8.921176E0,5.2161707E2,1.2744908E0,1.6628671E2,5.195684E2,2.0486357E0],"tree_param":{"num_deleted":"0","num_feature":"8","num_nodes":"21","size_leaf_vector":"1"}},{"base_weights":[8.144849E-2,-5.432696E-2,7.1897995E-1,-9.349158E-2,7.3228705E-1,3.6228854E-2,7.771497E-1,-7.066866E-2,5.4635167E-2,7.1759266E-1,1.0483227E0,-9.237232E-2,7.4655694E-1,1.0917578E0,-6.318593E-2,-1.10049605E-1,3.7821706E-2,4.7113728E-2,5.7587583E-2],"categories":[],"categories_nodes":[],"categories_segments":[],"categories_sizes":[],"default_left":[0,0,0,0,0,0,0,0,0,0,0,0,0,0,0,0,0,0,0],"id":44,"left_children":[1,-1,3,-1,5,7,9,-1,-1,11,13,-1,15,17,-1,-1,-1,-1,-1],"loss_changes":[8.5950336E2,0E0,2.7089996E1,0E0,2.3189758E1,7.209738E1,1.0527863E1,0E0,0E0,4.4161346E1,1.3792633E1,0E0,1.8263214E1,7.598877E-3,0E0,0E0,0E0,0E0,0E0],"parents":[2147483647,0,0,2,2,4,4,5,5,6,6,9,9,10,10,12,12,13,13],"right_children":[2,-1,4,-1,6,8,10,-1,-1,12,14,-1,16,18,-1,-1,-1,-1,-1],"split_conditions":[2E2,-5.432696E-2,3.91636E4,-9.349158E-2,2.04E2,1.851E3,2.32E2,-7.066866E-2,5.4635167E-2,8.6E0,1.11E1,-9.237232E-2,4.32352E4,4.42E1,-6.318593E-2,-1.10049605E-1,3.7821706E-2,4.7113728E-2,5.7587583E-2],"split_indices":[5,0,7,0,5,3,5,0,0,6,6,0,7,4,0,0,0,0,0],"split_type":[0,0,0,0,0,0,0,0,0,0,0,0,0,0,0,0,0,0,0],"sum_hessian":[1.1522218E3,4.0660254E2,7.4561926E2,3.0995944E0,7.4251965E2,4.5068882E1,6.9745074E2,1.8857056E1,2.6211826E1,5.748452E2,1.2260554E2,5.7176085E0,5.691276E2,1.2086275E2,1.7427942E0,1.1598719E0,5.679678E2,3.9399467E1,8.146328E1],"tree_param":{"num_deleted":"0","num_feature":"8","num_nodes":"19","size_leaf_vector":"1"}},{"base_weights":[1.8201323E-1,-5.4009683E-2,7.4893034E-1,-8.604618E-2,7.612171E-1,1.0631244E0,6.81494E-1,1.1638795E0,-6.431936E-2,-7.9504386E-2,7.1627027E-1,1.1991273E0,-6.305676E-2,5.1481694E-1,8.6564946E-1,6.0913123E-2,-4.4727832E-2,3.2946378E-2,-9.272156E-2,4.4176765E-2,-8.882406E-2],"categories":[],"categories_nodes":[],"categories_segments":[],"categories_sizes":[],"default_left":[0,0,0,0,0,0,0,0,0,0,0,0,0,0,0,0,0,0,0,0,0],"id":45,"left_children":[1,-1,3,-1,5,7,9,11,-1,-1,13,15,-1,17,19,-1,-1,-1,-1,-1,-1],"loss_changes":[8.854822E2,0E0,2.7217773E1,0E0,1.9738861E1,4.3118652E1,5.449179E1,1.5967743E1,0E0,0E0,1.9592651E1,7.7886047E0,0E0,9.886849E1,1.9569305E1,0E0,0E0,0E0,0E0,0E0,0E0],"parents":[2147483647,0,0,2,2,4,4,5,5,6,6,7,7,10,10,11,11,13,13,14,14],"right_children":[2,-1,4,-1,6,8,10,12,-1,-1,14,16,-1,18,20,-1,-1,-1,-1,-1,-1],"split_conditions":[1.98E2,-5.4009683E-2,3.91636E4,-8.604618E-2,3.084E2,5.984E4,3.088E2,1.1E1,-6.431936E-2,-7.9504386E-2,2.14E2,1.616E3,-6.305676E-2,3.114E2,2E0,6.0913123E-2,-4.4727832E-2,3.2946378E-2,-9.272156E-2,4.4176765E-2,-8.882406E-2],"split_indices":[5,0,7,0,2,7,2,6,0,0,5,3,0,2,0,0,0,0,0,0,0],"split_type":[0,0,0,0,0,0,0,0,0,0,0,0,0,0,0,0,0,0,0,0,0],"sum_hessian":[1.2353254E3,3.825951E2,8.527303E2,3.532698E0,8.491976E2,1.7482173E2,6.7437585E2,1.6811693E2,6.7048025E0,9.494186E0,6.6488165E2,1.6620662E2,1.9103084E0,2.8498972E2,3.7989197E2,1.6511568E2,1.090944E0,2.693295E2,1.5660208E1,3.7799872E2,1.8932555E0],"tree_param":{"num_deleted":"0","num_feature":"8","num_nodes":"21","size_leaf_vector":"1"}},{"base_weights":[1.5299684E-1,1.04450904E-1,8.3861625E-1,2.7921993E-1,-2.4168366E-1,1.0569683E0,-6.0746443E-2,4.448277E-1,-1.8733436E-1,-8.795408E-1,2.4580522E-2,-5.1501732E-2,6.001338E-2,6.1699957E-1,1.0357202E-1,-6.81851E-1,7.547675E-1,-6.7814484E-2,5.831523E-2,5.5898007E-2,-2.4940667E-1,8.7185866E-1,3.010046E-1,-6.3926496E-2,3.8499272E-1,9.346932E-1,-6.0724624E-2,-5.026533E-2,9.6114683E-1,5.1114887E-2,-5.870667E-2,-6.840113E-2,1.1809743E-1,5.4797884E-2,2.0113362E-2,-6.990337E-2,2.9368088E-2,4.7444846E-2,-2.0305552E-2,-3.8882468E-2,5.5841472E-2,5.186152E-2,-3.920509E-2,1.7946787E-2,-6.5347984E-2],"categories":[],"categories_nodes":[],"categories_segments":[],"categories_sizes":[],"default_left":[0,0,0,0,0,0,0,0,0,0,0,0,0,0,0,0,0,0,0,0,0,0,0,0,0,0,0,0,0,0,0,0,0,0,0,0,0,0,0,0,0,0,0,0,0],"id":46,"left_children":[1,3,5,7,9,11,-1,13,15,17,19,-1,-1,21,23,25,27,-1,29,-1,31,33,35,-1,37,39,-1,-1,41,-1,-1,-1,43,-1,-1,-1,-1,-1,-1,-1,-1,-1,-1,-1,-1],"loss_changes":[3.8376728E1,6.542267E1,3.5484715E1,5.558702E1,6.1674835E1,2.2014618E1,0E0,3.1103256E1,8.851631E1,4.7891632E1,7.7291824E1,0E0,0E0,2.8115967E1,7.014823E1,1.0824498E2,2.4756958E1,0E0,4.5155632E1,0E0,8.5004524E1,2.0030518E1,7.810671E1,0E0,6.710445E1,1.0659857E1,0E0,0E0,8.66523E0,0E0,0E0,0E0,5.4101055E1,0E0,0E0,0E0,0E0,0E0,0E0,0E0,0E0,0E0,0E0,0E0,0E0],"parents":[2147483647,0,0,1,1,2,2,3,3,4,4,5,5,7,7,8,8,9,9,10,10,13,13,14,14,15,15,16,16,18,18,20,20,21,21,22,22,24,24,25,25,28,28,32,32],"right_children":[2,4,6,8,10,12,-1,14,16,18,20,-1,-1,22,24,26,28,-1,30,-1,32,34,36,-1,38,40,-1,-1,42,-1,-1,-1,44,-1,-1,-1,-1,-1,-1,-1,-1,-1,-1,-1,-1],"split_conditions":[1.996E3,1.532E3,3.099E2,6.5904E4,1.615E3,3.096E2,-6.0746443E-2,9.7E0,7.95472E4,6.10218E4,1.616E3,-5.1501732E-2,6.001338E-2,3.1E2,5.92515E4,8.2E0,1E0,-6.7814484E-2,6.11363E4,5.5898007E-2,9.6E0,1.417E3,9.1E0,-6.3926496E-2,6.01082E4,1.49E3,-6.0724624E-2,-5.026533E-2,8.30578E4,5.1114887E-2,-5.870667E-2,-6.840113E-2,5.09877E4,5.4797884E-2,2.0113362E-2,-6.990337E-2,2.9368088E-2,4.7444846E-2,-2.0305552E-2,-3.8882468E-2,5.5841472E-2,5.186152E-2,-3.920509E-2,1.7946787E-2,-6.5347984E-2],"split_indices":[3,3,2,7,3,2,0,6,7,7,3,0,0,2,7,6,0,0,7,0,6,3,6,0,7,3,0,0,7,0,0,0,7,0,0,0,0,0,0,0,0,0,0,0,0],"split_type":[0,0,0,0,0,0,0,0,0,0,0,0,0,0,0,0,0,0,0,0,0,0,0,0,0,0,0,0,0,0,0,0,0,0,0,0,0,0,0,0,0,0,0,0,0],"sum_hessian":[1.1546387E3,1.0793655E3,7.527316E1,7.173547E2,3.620108E2,6.847731E1,6.7958508E0,5.294633E2,1.8789137E2,1.0593405E2,2.5607675E2,4.002154E0,6.447516E1,3.5137698E2,1.7808633E2,1.2339606E2,6.4495316E1,6.993646E1,3.599759E1,5.069436E1,2.053824E2,1.9353018E2,1.5784679E2,2.9527744E1,1.4855858E2,3.0394676E1,9.300138E1,6.362508E0,5.813281E1,2.0294434E1,1.5703154E1,5.011598E1,1.5526642E2,1.3010667E2,6.34235E1,2.2206205E1,1.356406E2,8.661754E1,6.194104E1,2.607818E0,2.7786858E1,5.609313E1,2.0396783E0,1.3345953E2,2.180688E1],"tree_param":{"num_deleted":"0","num_feature":"8","num_nodes":"45","size_leaf_vector":"1"}},{"base_weights":[6.9852464E-2,-5.363931E-2,6.582368E-1,4.559E-1,8.3763593E-1,6.777803E-1,-1.6461647E-1,-4.3116383E-2,8.483125E-1,-8.542025E-2,7.804938E-1,-2.0525334E0,9.130096E-1,7.2849363E-1,1.0293438E0,9.177889E-1,8.114484E-2,-6.736393E-2,-1.2047245E-1,5.3151157E-2,-8.8225156E-2,8.623505E-1,-1.3223526E-1,5.4882415E-2,7.659473E-1,5.402994E-2,2.5777513E-2,-7.717203E-2,5.3376373E-2,-8.6206354E-2,4.464453E-2,-7.890144E-2,5.693055E-2],"categories":[],"categories_nodes":[],"categories_segments":[],"categories_sizes":[],"default_left":[0,0,0,0,0,0,0,0,0,0,0,0,0,0,0,0,0,0,0,0,0,0,0,0,0,0,0,0,0,0,0,0,0],"id":47,"left_children":[1,-1,3,5,7,9,11,-1,13,-1,15,17,19,21,23,25,27,-1,-1,-1,-1,29,-1,-1,31,-1,-1,-1,-1,-1,-1,-1,-1],"loss_changes":[7.056574E2,0E0,2.476471E1,4.523796E1,7.374359E0,6.0554718E1,1.7914604E2,0E0,7.1503906E0,0E0,2.2234375E1,4.801407E0,2.4434467E1,1.0278319E2,1.7254486E0,1.215535E1,6.450406E1,0E0,0E0,0E0,0E0,1.8510162E1,0E0,0E0,3.0344E1,0E0,0E0,0E0,0E0,0E0,0E0,0E0,0E0],"parents":[2147483647,0,0,2,2,3,3,4,4,5,5,6,6,8,8,10,10,11,11,12,12,13,13,14,14,15,15,16,16,21,21,24,24],"right_children":[2,-1,4,6,8,10,12,-1,14,-1,16,18,20,22,24,26,28,-1,-1,-1,-1,30,-1,-1,32,-1,-1,-1,-1,-1,-1,-1,-1],"split_conditions":[1.98E2,-5.363931E-2,2.15E2,1.525E3,1.372E3,9.3E0,1.851E3,-4.3116383E-2,4.53E1,-8.542025E-2,6.52004E4,2.04E2,2.04E2,5.984E4,6.89156E4,9.7E0,6.14E1,-6.736393E-2,-1.2047245E-1,5.3151157E-2,-8.8225156E-2,8.6E0,-1.3223526E-1,5.4882415E-2,2.51E2,5.402994E-2,2.5777513E-2,-7.717203E-2,5.3376373E-2,-8.6206354E-2,4.464453E-2,-7.890144E-2,5.693055E-2],"split_indices":[5,0,5,3,3,6,3,0,4,0,7,5,5,7,7,6,4,0,0,0,0,6,0,0,5,0,0,0,0,0,0,0,0],"split_type":[0,0,0,0,0,0,0,0,0,0,0,0,0,0,0,0,0,0,0,0,0,0,0,0,0,0,0,0,0,0,0,0,0],"sum_hessian":[1.0475499E3,3.5578818E2,6.917617E2,3.267619E2,3.6499982E2,2.4062755E2,8.613434E1,1.7802172E0,3.6321957E2,9.285233E0,2.3134232E2,3.0970955E1,5.5163383E1,2.2158417E2,1.4163542E2,1.9311745E2,3.8224873E1,1.2011458E1,1.8959497E1,5.2807697E1,2.3556855E0,2.1384271E2,7.741459E0,1.0995454E2,3.1680885E1,1.3627313E2,5.6844315E1,1.4227403E1,2.3997473E1,1.8483588E0,2.1199435E2,3.9022288E0,2.7778656E1],"tree_param":{"num_deleted":"0","num_feature":"8","num_nodes":"33","size_leaf_vector":"1"}},{"base_weights":[2.0481366E-1,1.14557095E-1,7.4827623E-1,-6.42552E-2,1.751008E-1,8.916852E-1,-6.2197305E-2,9.617637E-2,9.0596664E-1,-4.8779994E-2,9.6663713E-1,1.990842E-1,-5.898438E-2,-4.7916334E-2,1.038571E0,-4.1767586E-2,9.863538E-1,7.207707E-1,6.142025E-2,-3.3135436E-2,5.3417157E-2,9.1599554E-1,5.9171766E-2,4.444113E-2,-5.4134555E-2,-2.9050564E-2,1.3581641E-2,-4.2061407E-2,4.7709953E-2],"categories":[],"categories_nodes":[],"categories_segments":[],"categories_sizes":[],"default_left":[0,0,0,0,0,0,0,0,0,0,0,0,0,0,0,0,0,0,0,0,0,0,0,0,0,0,0,0,0],"id":48,"left_children":[1,3,5,-1,7,9,-1,11,13,-1,15,17,-1,-1,19,-1,21,23,25,-1,-1,27,-1,-1,-1,-1,-1,-1,-1],"loss_changes":[5.5895317E1,8.326377E1,4.749716E1,0E0,5.4144646E1,2.2222633E1,0E0,1.1179137E2,2.3618408E1,0E0,6.0353546E0,5.6482773E1,0E0,0E0,5.059677E0,0E0,9.3421936E-1,5.0739975E1,8.440725E1,0E0,0E0,8.300262E0,0E0,0E0,0E0,0E0,0E0,0E0,0E0],"parents":[2147483647,0,0,1,1,2,2,4,4,5,5,7,7,8,8,10,10,11,11,14,14,16,16,17,17,18,18,21,21],"right_children":[2,4,6,-1,8,10,-1,12,14,-1,16,18,-1,-1,20,-1,22,24,26,-1,-1,28,-1,-1,-1,-1,-1,-1,-1],"split_conditions":[1.867E3,2.9E1,3.008E2,-6.42552E-2,7.95472E4,3.089E2,-6.2197305E-2,4.8E1,1E0,-4.8779994E-2,3.55134E4,3.084E2,-5.898438E-2,-4.7916334E-2,3.088E2,-4.1767586E-2,2.245E3,5.984E4,3.003E2,-3.3135436E-2,5.3417157E-2,3.91636E4,5.9171766E-2,4.444113E-2,-5.4134555E-2,-2.9050564E-2,1.3581641E-2,-4.2061407E-2,4.7709953E-2],"split_indices":[3,4,1,0,7,2,0,4,0,0,7,2,0,0,2,0,3,7,1,0,0,7,0,0,0,0,0,0,0],"split_type":[0,0,0,0,0,0,0,0,0,0,0,0,0,0,0,0,0,0,0,0,0,0,0,0,0,0,0,0,0],"sum_hessian":[1.1402806E3,9.7891614E2,1.6136455E2,3.9749664E1,9.391665E2,1.5104414E2,1.0320406E1,8.48654E2,9.051249E1,5.365157E0,1.4567899E2,7.860937E2,6.256029E1,5.5969987E0,8.49155E1,1.1289804E0,1.4455E2,1.6324196E2,6.2285175E2,1.0948106E0,8.382069E1,1.1068363E2,3.3866367E1,1.4979114E2,1.3450822E1,1.5312422E2,4.697275E2,1.9078906E0,1.0877574E2],"tree_param":{"num_deleted":"0","num_feature":"8","num_nodes":"29","size_leaf_vector":"1"}},{"base_weights":[1.5141293E-1,-5.3409852E-2,7.1435016E-1,-8.355334E-2,7.3937184E-1,8.298433E-1,4.814268E-1,-6.67091E-2,8.4113E-1,6.9969475E-1,-1.9408573E0,8.485888E-1,-7.481066E-2,-1.10023715E-1,7.84961E-1,-4.180214E-2,-2.060098E0,4.8922222E-2,3.516125E-2,-3.5862622E-3,4.9061712E-2,-5.2405793E-2,-1.1169302E-1],"categories":[],"categories_nodes":[],"categories_segments":[],"categories_sizes":[],"default_left":[0,0,0,0,0,0,0,0,0,0,0,0,0,0,0,0,0,0,0,0,0,0,0],"id":49,"left_children":[1,-1,3,-1,5,7,9,-1,11,13,15,17,-1,-1,19,-1,21,-1,-1,-1,-1,-1,-1],"loss_changes":[7.276735E2,0E0,4.450876E1,0E0,1.6360199E1,1.4074738E1,1.0121222E2,0E0,1.0477631E1,4.475225E1,3.6922836E-1,9.262054E0,0E0,0E0,2.8613976E1,0E0,5.839157E-2,0E0,0E0,0E0,0E0,0E0,0E0],"parents":[2147483647,0,0,2,2,4,4,5,5,6,6,8,8,9,9,10,10,11,11,14,14,16,16],"right_children":[2,-1,4,-1,6,8,10,-1,12,14,16,18,-1,-1,20,-1,22,-1,-1,-1,-1,-1,-1],"split_conditions":[1.98E2,-5.3409852E-2,8.6E0,-8.355334E-2,4.14E1,1.87E1,1.443E3,-6.67091E-2,2.36E2,4.42E1,2.04E2,1.55E3,-7.481066E-2,-1.10023715E-1,1E0,-4.180214E-2,2.983E2,4.8922222E-2,3.516125E-2,-3.5862622E-3,4.9061712E-2,-5.2405793E-2,-1.1169302E-1],"split_indices":[5,0,6,0,4,4,3,0,5,4,5,3,0,0,0,0,1,0,0,0,0,0,0],"split_type":[0,0,0,0,0,0,0,0,0,0,0,0,0,0,0,0,0,0,0,0,0,0,0],"sum_hessian":[1.057766E3,3.3376428E2,7.2400165E2,6.832645E0,7.17169E2,5.293041E2,1.8786493E2,2.1381836E0,5.271659E2,1.7298837E2,1.487655E1,5.261239E2,1.041998E0,4.232166E0,1.6875621E2,2.2296164E0,1.2646934E1,2.748583E2,2.5126562E2,3.1574696E1,1.3718152E2,2.8837905E0,9.763143E0],"tree_param":{"num_deleted":"0","num_feature":"8","num_nodes":"23","size_leaf_vector":"1"}},{"base_weights":[2.2245747E-1,-5.323712E-2,7.3822886E-1,9.910597E-1,6.744348E-1,1.0727584E0,-5.7718184E-2,-7.4757E-2,7.079216E-1,1.120255E0,-6.4641885E-2,5.2696455E-1,8.49065E-1,5.7968624E-2,-5.5476774E-2,-7.483182E-2,5.9389263E-1,-5.9183467E-2,8.607405E-1,3.2512225E-2,-7.1926296E-2,-4.6780184E-2,4.366382E-2],"categories":[],"categories_nodes":[],"categories_segments":[],"categories_sizes":[],"default_left":[0,0,0,0,0,0,0,0,0,0,0,0,0,0,0,0,0,0,0,0,0,0,0],"id":50,"left_children":[1,-1,3,5,7,9,-1,-1,11,13,-1,15,17,-1,-1,-1,19,-1,21,-1,-1,-1,-1],"loss_changes":[7.3877594E2,0E0,1.2141266E1,2.8912262E1,4.7360474E1,1.8595459E1,0E0,0E0,1.5599976E1,1.4382507E1,0E0,3.8533966E1,9.357361E0,0E0,0E0,0E0,3.1832634E1,0E0,8.696747E0,0E0,0E0,0E0,0E0],"parents":[2147483647,0,0,2,2,3,3,4,4,5,5,8,8,9,9,11,11,12,12,16,16,18,18],"right_children":[2,-1,4,6,8,10,-1,-1,12,14,-1,16,18,-1,-1,-1,20,-1,22,-1,-1,-1,-1],"split_conditions":[1.98E2,-5.323712E-2,3.084E2,4.06E1,3.088E2,1.1E1,-5.7718184E-2,-7.4757E-2,2.14E2,1.616E3,-6.4641885E-2,8.9E0,3.092E2,5.7968624E-2,-5.5476774E-2,-7.483182E-2,2.11E2,-5.9183467E-2,1.367E3,3.2512225E-2,-7.1926296E-2,-4.6780184E-2,4.366382E-2],"split_indices":[5,0,2,4,2,6,0,0,5,3,0,6,2,0,0,0,5,0,3,0,0,0,0],"split_type":[0,0,0,0,0,0,0,0,0,0,0,0,0,0,0,0,0,0,0,0,0,0,0],"sum_hessian":[1.1105966E3,3.1740103E2,7.9319556E2,1.5688564E2,6.3630994E2,1.5161215E2,5.2734823E0,9.008546E0,6.273014E2,1.4914407E2,2.468082E0,2.7695563E2,3.5034573E2,1.470445E2,2.0995672E0,8.18281E0,2.6877283E2,1.4275295E0,3.489182E2,2.6218344E2,6.589369E0,1.9077693E0,3.4701044E2],"tree_param":{"num_deleted":"0","num_feature":"8","num_nodes":"23","size_leaf_vector":"1"}},{"base_weights":[1.0821528E-1,-5.304296E-2,6.534245E-1,7.1132123E-1,-7.144341E-2,-7.61594E-2,7.2461647E-1,7.3426E-1,-6.0067445E-2,1.0777537E0,6.751715E-1,5.7727486E-2,-5.595538E-2,2.8012706E-2,4.9125656E-2],"categories":[],"categories_nodes":[],"categories_segments":[],"categories_sizes":[],"default_left":[0,0,0,0,0,0,0,0,0,0,0,0,0,0,0],"id":51,"left_children":[1,-1,3,5,-1,-1,7,9,-1,11,13,-1,-1,-1,-1],"loss_changes":[6.04452E2,0E0,7.896875E1,1.9813263E1,0E0,0E0,1.2522308E1,1.1941925E1,0E0,1.6466286E1,1.8355072E1,0E0,0E0,0E0,0E0],"parents":[2147483647,0,0,2,2,3,3,6,6,7,7,9,9,10,10],"right_children":[2,-1,4,6,-1,-1,8,10,-1,12,14,-1,-1,-1,-1],"split_conditions":[1.98E2,-5.304296E-2,4.8E1,3.91636E4,-7.144341E-2,-7.61594E-2,6.89156E4,3.081E2,-6.0067445E-2,5.55974E4,4.53E1,5.7727486E-2,-5.595538E-2,2.8012706E-2,4.9125656E-2],"split_indices":[5,0,4,7,0,0,7,2,0,7,4,0,0,0,0],"split_type":[0,0,0,0,0,0,0,0,0,0,0,0,0,0,0],"sum_hessian":[9.462359E2,3.006392E2,6.455967E2,6.2877246E2,1.6824198E1,3.0473301E0,6.2572516E2,6.232234E2,2.5017889E0,8.894251E1,5.342808E2,8.639678E1,2.5457296E0,3.9093146E2,1.4334938E2],"tree_param":{"num_deleted":"0","num_feature":"8","num_nodes":"15","size_leaf_vector":"1"}},{"base_weights":[1.7080766E-1,-5.565231E-2,2.1708103E-1,1.5344647E-1,8.7319994E-1,6.2451196E-1,3.3223893E-2,-5.400719E-2,9.655917E-1,8.0251175E-1,-5.3954013E-2,4.0577728E-1,-1.8801637E-1,-4.7720112E-2,1.0423874E0,9.35475E-1,-5.2664228E-2,-7.0667885E-2,4.7486827E-1,-7.073201E-2,-6.0854897E-2,-4.478852E-2,1.0817361E0,5.025735E-2,-5.8934566E-2,1.4975901E-2,5.5386085E-2,-2.7375925E-2,1.1260138E-2,5.5695813E-2,-3.0174E-2],"categories":[],"categories_nodes":[],"categories_segments":[],"categories_sizes":[],"default_left":[0,0,0,0,0,0,0,0,0,0,0,0,0,0,0,0,0,0,0,0,0,0,0,0,0,0,0,0,0,0,0],"id":52,"left_children":[1,-1,3,5,7,9,11,-1,13,15,-1,17,19,-1,21,23,-1,-1,25,-1,27,-1,29,-1,-1,-1,-1,-1,-1,-1,-1],"loss_changes":[5.9170605E1,0E0,3.987521E1,4.9518906E1,1.6294426E1,5.4782326E1,5.7604153E1,0E0,1.2970459E1,4.0849434E1,0E0,3.3395367E1,6.83244E1,0E0,6.961357E0,2.346849E1,0E0,0E0,2.758704E1,0E0,5.559102E1,0E0,4.873108E0,0E0,0E0,0E0,0E0,0E0,0E0,0E0,0E0],"parents":[2147483647,0,0,2,2,3,3,4,4,5,5,6,6,8,8,9,9,11,11,12,12,14,14,15,15,18,18,20,20,22,22],"right_children":[2,-1,4,6,8,10,12,-1,14,16,-1,18,20,-1,22,24,-1,-1,26,-1,28,-1,30,-1,-1,-1,-1,-1,-1,-1,-1],"split_conditions":[1.373E3,-5.565231E-2,1.996E3,3.084E2,1.59E1,5.984E4,1.456E3,-5.400719E-2,3.096E2,1.616E3,-5.3954013E-2,4.13E1,1.493E3,-4.7720112E-2,8.9E0,1.1E1,-5.2664228E-2,-7.0667885E-2,1.454E3,-7.073201E-2,3.106E2,-4.478852E-2,3.97884E4,5.025735E-2,-5.8934566E-2,1.4975901E-2,5.5386085E-2,-2.7375925E-2,1.1260138E-2,5.5695813E-2,-3.0174E-2],"split_indices":[3,0,3,2,4,7,3,0,2,3,0,4,3,0,6,6,0,0,3,0,2,0,7,0,0,0,0,0,0,0,0],"split_type":[0,0,0,0,0,0,0,0,0,0,0,0,0,0,0,0,0,0,0,0,0,0,0,0,0,0,0,0,0,0,0],"sum_hessian":[9.9093304E2,3.3671246E1,9.572618E2,8.737535E2,8.350827E1,1.7680148E2,6.96952E2,3.288659E0,8.021961E1,1.6055484E2,1.624664E1,2.5936505E2,4.3758698E2,2.645701E0,7.757391E1,1.5028333E2,1.0271514E1,8.778359E0,2.5058669E2,4.015166E1,3.9743533E2,1.1104984E0,7.646342E1,1.459966E2,4.286725E0,1.973723E2,5.3214394E1,1.4679025E2,2.5064507E2,7.536332E1,1.1000983E0],"tree_param":{"num_deleted":"0","num_feature":"8","num_nodes":"31","size_leaf_vector":"1"}},{"base_weights":[1.9988589E-1,-5.2843876E-2,6.937793E-1,4.2817748E-1,8.650107E-1,6.7563367E-1,-8.884228E-1,-4.675933E-2,8.770169E-1,-7.707595E-2,7.5803864E-1,-1.9791939E0,5.1328737E-1,8.8407594E-1,-3.6726646E-2,9.7018206E-1,2.661743E-1,-6.044329E-2,-1.0944926E-1,5.1457494E-2,-7.968333E-2,8.184949E-1,5.2774277E-2,5.0000895E-2,-7.04603E-2,3.852889E-2,-8.7621935E-2,-9.409935E-2,4.2727377E-2],"categories":[],"categories_nodes":[],"categories_segments":[],"categories_sizes":[],"default_left":[0,0,0,0,0,0,0,0,0,0,0,0,0,0,0,0,0,0,0,0,0,0,0,0,0,0,0,0,0],"id":53,"left_children":[1,-1,3,5,7,9,11,-1,13,-1,15,17,19,21,-1,23,25,-1,-1,-1,-1,27,-1,-1,-1,-1,-1,-1,-1],"loss_changes":[6.3526434E2,0E0,3.303302E1,9.50439E1,1.045105E1,4.58555E1,7.1798996E1,0E0,5.690674E0,0E0,2.4418686E1,1.5946274E0,2.4523758E1,4.1011047E0,0E0,1.3112061E1,7.5313866E1,0E0,0E0,0E0,0E0,3.3143692E1,0E0,0E0,0E0,0E0,0E0,0E0,0E0],"parents":[2147483647,0,0,2,2,3,3,4,4,5,5,6,6,8,8,10,10,11,11,12,12,13,13,15,15,16,16,21,21],"right_children":[2,-1,4,6,8,10,12,-1,14,-1,16,18,20,22,-1,24,26,-1,-1,-1,-1,28,-1,-1,-1,-1,-1,-1,-1],"split_conditions":[1.98E2,-5.2843876E-2,2.14E2,1.55E3,1.373E3,9.2E0,1.892E3,-4.675933E-2,1.15E1,-7.707595E-2,9.7E0,2.03E2,1.924E3,2.33E2,-3.6726646E-2,1.51E3,3.089E2,-6.044329E-2,-1.0944926E-1,5.1457494E-2,-7.968333E-2,8.6E0,5.2774277E-2,5.0000895E-2,-7.04603E-2,3.852889E-2,-8.7621935E-2,-9.409935E-2,4.2727377E-2],"split_indices":[5,0,5,3,3,6,3,0,6,0,6,5,3,5,0,3,2,0,0,0,0,6,0,0,0,0,0,0,0],"split_type":[0,0,0,0,0,0,0,0,0,0,0,0,0,0,0,0,0,0,0,0,0,0,0,0,0,0,0,0,0],"sum_hessian":[1.0212715E3,2.877984E2,7.334731E2,2.888815E2,4.4459155E2,2.4358612E2,4.5295387E1,2.4360907E0,4.4215546E2,8.094427E0,2.354917E2,2.5241322E1,2.0054068E1,4.4067657E2,1.4788733E0,1.6384998E2,7.164172E1,6.85025E0,1.8391071E1,1.6520714E1,3.5333536E0,3.229076E2,1.1776897E2,1.623934E2,1.4565758E0,5.7813713E1,1.3828012E1,3.5796125E0,3.19328E2],"tree_param":{"num_deleted":"0","num_feature":"8","num_nodes":"29","size_leaf_vector":"1"}},{"base_weights":[1.9941935E-1,1.2652388E-1,9.43732E-1,2.032044E-1,-5.82512E-2,-4.466886E-2,1.0530963E0,2.6403013E-1,-6.158886E-2,-3.5856053E-2,5.430444E-2,9.009598E-1,1.9405864E-1,1.0122677E0,-5.2484315E-2,-6.553114E-1,2.6355243E-1,-4.1663375E-2,5.2934676E-2,-6.833536E-2,3.5471585E-2,1.7256474E-2,-6.764748E-2],"categories":[],"categories_nodes":[],"categories_segments":[],"categories_sizes":[],"default_left":[0,0,0,0,0,0,0,0,0,0,0,0,0,0,0,0,0,0,0,0,0,0,0],"id":54,"left_children":[1,3,5,7,-1,-1,9,11,-1,-1,-1,13,15,17,-1,19,21,-1,-1,-1,-1,-1,-1],"loss_changes":[5.2931522E1,8.8548386E1,1.8432968E1,7.386922E1,0E0,0E0,5.6047974E0,3.5886257E1,0E0,0E0,0E0,1.8392715E1,4.3280983E1,7.3954086E0,0E0,5.487397E1,8.958516E1,0E0,0E0,0E0,0E0,0E0,0E0],"parents":[2147483647,0,0,1,1,2,2,3,3,6,6,7,7,11,11,12,12,13,13,15,15,16,16],"right_children":[2,4,6,8,-1,-1,10,12,-1,-1,-1,14,16,18,-1,20,22,-1,-1,-1,-1,-1,-1],"split_conditions":[7.95472E4,4.81E1,1E0,1.13E1,-5.82512E-2,-4.466886E-2,9.5E0,2E1,-6.158886E-2,-3.5856053E-2,5.430444E-2,3.008E2,2.9E1,3.55134E4,-5.2484315E-2,1.11E1,1.1E1,-4.1663375E-2,5.2934676E-2,-6.833536E-2,3.5471585E-2,1.7256474E-2,-6.764748E-2],"split_indices":[7,4,0,6,0,0,6,4,0,0,0,1,4,7,0,6,6,0,0,0,0,0,0],"split_type":[0,0,0,0,0,0,0,0,0,0,0,0,0,0,0,0,0,0,0,0,0,0,0],"sum_hessian":[9.767706E2,8.907077E2,8.606292E1,8.4158466E2,4.912307E1,4.4327316E0,8.163019E1,8.0814514E2,3.34395E1,1.1141585E0,8.051603E1,7.8817406E1,7.2932776E2,7.50178E1,3.7996113E0,5.452159E1,6.7480615E2,1.4249333E0,7.3592865E1,3.5838646E1,1.8682947E1,6.4313666E2,3.166952E1],"tree_param":{"num_deleted":"0","num_feature":"8","num_nodes":"23","size_leaf_vector":"1"}},{"base_weights":[2.038853E-1,-5.2669343E-2,6.811266E-1,5.0114894E-1,8.268253E-1,5.7823557E-1,-7.4384004E-2,-4.5928154E-2,8.402982E-1,-7.018455E-2,6.2915057E-1,-4.91364E-2,8.524197E-1,5.2725035E-1,5.562488E-2,1.0701473E0,7.886581E-1,3.1590115E-2,-7.185151E-2,5.5496823E-2,-4.027853E-2,-1.1840452E-1,4.3199442E-2],"categories":[],"categories_nodes":[],"categories_segments":[],"categories_sizes":[],"default_left":[0,0,0,0,0,0,0,0,0,0,0,0,0,0,0,0,0,0,0,0,0,0,0],"id":55,"left_children":[1,-1,3,5,7,9,-1,-1,11,-1,13,-1,15,17,-1,19,21,-1,-1,-1,-1,-1,-1],"loss_changes":[5.846286E2,0E0,1.8098724E1,4.9672356E1,9.910339E0,3.1885056E1,0E0,0E0,