{"learner":{"attributes":{"scikit_learn":"{\"_estimator_type\": \"classifier\"}"},"feature_names":["type_encoded","air_temp_k","process_temp_k","rotational_speed_rpm","torque_nm","tool_wear_min","temp_delta","power"],"feature_types":["int","float","float","int","float","int","float","float"],"gradient_booster":{"model":{"cats":{"enc":[],"feature_segments":[],"sorted_idx":[]},"gbtree_model_param":{"num_parallel_tree":"1","num_trees":"300"},"iteration_indptr":[0,1,2,3,4,5,6,7,8,9,10,11,12,13,14,15,16,17,18,19,20,21,22,23,24,25,26,27,28,29,30,31,32,33,34,35,36,37,38,39,40,41,42,43,44,45,46,47,48,49,50,51,52,53,54,55,56,57,58,59,60,61,62,63,64,65,66,67,68,69,70,71,72,73,74,75,76,77,78,79,80,81,82,83,84,85,86,87,88,89,90,91,92,93,94,95,96,97,98,99,100,101,102,103,104,105,106,107,108,109,110,111,112,113,114,115,116,117,118,119,120,121,122,123,124,125,126,127,128,129,130,131,132,133,134,135,136,137,138,139,140,141,142,143,144,145,146,147,148,149,150,151,152,153,154,155,156,157,158,159,160,161,162,163,164,165,166,167,168,169,170,171,172,173,174,175,176,177,178,179,180,181,182,183,184,185,186,187,188,189,190,191,192,193,194,195,196,197,198,199,200,201,202,203,204,205,206,207,208,209,210,211,212,213,214,215,216,217,218,219,220,221,222,223,224,225,226,227,228,229,230,231,232,233,234,235,236,237,238,239,240,241,242,243,244,245,246,247,248,249,250,251,252,253,254,255,256,257,258,259,260,261,262,263,264,265,266,267,268,269,270,271,272,273,274,275,276,277,278,279,280,281,282,283,284,285,286,287,288,289,290,291,292,293,294,295,296,297,298,299,300],"tree_info":[0,0,0,0,0,0,0,0,0,0,0,0,0,0,0,0,0,0,0,0,0,0,0,0,0,0,0,0,0,0,0,0,0,0,0,0,0,0,0,0,0,0,0,0,0,0,0,0,0,0,0,0,0,0,0,0,0,0,0,0,0,0,0,0,0,0,0,0,0,0,0,0,0,0,0,0,0,0,0,0,0,0,0,0,0,0,0,0,0,0,0,0,0,0,0,0,0,0,0,0,0,0,0,0,0,0,0,0,0,0,0,0,0,0,0,0,0,0,0,0,0,0,0,0,0,0,0,0,0,0,0,0,0,0,0,0,0,0,0,0,0,0,0,0,0,0,0,0,0,0,0,0,0,0,0,0,0,0,0,0,0,0,0,0,0,0,0,0,0,0,0,0,0,0,0,0,0,0,0,0,0,0,0,0,0,0,0,0,0,0,0,0,0,0,0,0,0,0,0,0,0,0,0,0,0,0,0,0,0,0,0,0,0,0,0,0,0,0,0,0,0,0,0,0,0,0,0,0,0,0,0,0,0,0,0,0,0,0,0,0,0,0,0,0,0,0,0,0,0,0,0,0,0,0,0,0,0,0,0,0,0,0,0,0,0,0,0,0,0,0,0,0,0,0,0,0,0,0,0,0,0,0,0,0,0,0,0,0,0,0,0,0,0,0,0,0,0,0,0,0],"trees":[{"base_weights":[4.395242E-2,1.3764637E0,-7.7036124E-1,9.9031694E-2,9.1308385E-1,-1.277875E0,1.1516558E0,-1.1089206E0,1.3930029E0,9.8192684E-2,-1.6674182E0,9.4012463E-1,9.5457695E-2,-9.8976985E-2,1.4630119E0,7.75123E-1,1.8968672E0,-1.931413E0,1.6388164E0,-8.461539E-2,9.914126E-1,9.017047E-2,-7.5E-2,-1.6306393E0,9.849163E-2,9.7314745E-2,1.5354565E0,-1.9716586E0,-1.7059147E0,5.112812E-1,9.749784E-2,1.0274198E0,-7.894737E-2,-9.854015E-2,8.597052E-4,-7.647059E-2,9.203195E-2,-9.174592E-2,-9.988802E-2,2.5804246E-2,-9.1952674E-2,-8.888889E-2,9.032892E-2,5.309088E-2,-7.777778E-2],"categories":[],"categories_nodes":[],"categories_segments":[],"categories_sizes":[],"default_left":[0,0,0,0,0,0,0,0,0,0,0,0,0,0,0,0,0,0,0,0,0,0,0,0,0,0,0,0,0,0,0,0,0,0,0,0,0,0,0,0,0,0,0,0,0],"id":0,"left_children":[1,3,5,-1,7,9,11,13,15,-1,17,19,-1,-1,21,23,25,27,29,-1,31,-1,-1,33,-1,-1,35,37,39,41,-1,43,-1,-1,-1,-1,-1,-1,-1,-1,-1,-1,-1,-1,-1],"loss_changes":[3.4087783E3,3.3178955E2,1.9035275E3,0E0,6.577523E2,1.9518569E3,6.3557312E1,2.945939E2,1.6881189E2,0E0,1.2059937E3,4.4988586E1,0E0,0E0,3.651375E1,7.1420496E2,2.3811035E0,8.222168E0,3.494156E1,0E0,3.08031E1,0E0,0E0,4.6350754E1,0E0,0E0,4.1071022E1,1.7822266E-1,6.034082E1,7.291955E1,0E0,2.9331787E1,0E0,0E0,0E0,0E0,0E0,0E0,0E0,0E0,0E0,0E0,0E0,0E0,0E0],"parents":[2147483647,0,0,1,1,2,2,4,4,5,5,6,6,7,7,8,8,10,10,11,11,14,14,15,15,16,16,17,17,18,18,20,20,23,23,26,26,27,27,28,28,29,29,31,31],"right_children":[2,4,6,-1,8,10,12,14,16,-1,18,20,-1,-1,22,24,26,28,30,-1,32,-1,-1,34,-1,-1,36,38,40,42,-1,44,-1,-1,-1,-1,-1,-1,-1,-1,-1,-1,-1,-1,-1],"split_conditions":[1.382E3,8.7E0,2.02E2,9.9031694E-2,7.1136E4,3.37705E4,7.2628E4,2.07E2,1.81E2,9.8192684E-2,8.05156E4,2.03E2,9.5457695E-2,-9.8976985E-2,2.993E2,8.56482E4,1E0,6.76863E4,8.56482E4,-8.461539E-2,7.02691E4,9.017047E-2,-7.5E-2,3.023E2,9.849163E-2,9.7314745E-2,7.9134E4,4.84158E4,6.786E4,1.74E2,9.749784E-2,1.15E1,-7.894737E-2,-9.854015E-2,8.597052E-4,-7.647059E-2,9.203195E-2,-9.174592E-2,-9.988802E-2,2.5804246E-2,-9.1952674E-2,-8.888889E-2,9.032892E-2,5.309088E-2,-7.777778E-2],"split_indices":[3,6,5,0,7,7,7,5,5,0,7,5,0,0,1,7,0,7,7,0,7,0,0,1,0,0,7,7,7,5,0,6,0,0,0,0,0,0,0,0,0,0,0,0,0],"split_type":[0,0,0,0,0,0,0,0,0,0,0,0,0,0,0,0,0,0,0,0,0,0,0,0,0,0,0,0,0,0,0,0,0,0,0,0,0,0,0,0,0,0,0,0,0],"sum_hessian":[3.1395166E3,1.1905905E3,1.9489263E3,5.1536536E2,6.752251E2,1.5420729E3,4.0685333E2,1.292703E2,5.4595483E2,1.649917E2,1.3770812E3,3.1979245E2,8.706089E1,9.675E1,3.2520294E1,2.4637178E2,2.9958304E2,1.2756403E3,1.0144096E2,5.5E0,3.1429245E2,2.9520296E1,3E0,8.163007E1,1.647417E2,2.5968268E2,3.990037E1,1.0758801E3,1.9976015E2,2.2510147E1,7.893082E1,3.1054245E2,3.75E0,6.75E1,1.4130074E1,3.25E0,3.665037E1,1.8388008E2,8.92E2,1.1130074E1,1.8863008E2,8E0,1.4510148E1,3.0704245E2,3.5E0],"tree_param":{"num_deleted":"0","num_feature":"8","num_nodes":"45","size_leaf_vector":"1"}},{"base_weights":[2.506433E-2,1.2947748E0,-7.478408E-1,8.6870676E-1,1.6960016E0,-1.1868556E0,1.1924654E0,-2.0780621E-1,1.6313844E0,1.7632874E0,1.0919644E0,9.3372695E-2,-1.5071216E0,9.11053E-1,1.6344275E0,-9.470301E-2,1.6109527E0,9.0879583E-1,1.7471689E0,9.254643E-2,1.6639441E0,-8.8169165E-2,1.654587E0,-1.7793775E0,1.5739497E0,1.0798117E0,-9.457032E-2,-7.581578E-2,1.71506E0,7.3480433E-1,8.939399E-2,-8.8073015E-2,8.8848814E-2,1.5104424E0,9.348062E-2,-2.07713E-1,1.7850826E0,-6.00258E-2,8.797208E-2,-1.7973919E0,-4.9033943E-1,7.3143613E-1,9.3106054E-2,1.1211456E0,-7.4886195E-2,1.5159038E0,9.343856E-2,7.01352E-2,-7.842635E-2,-8.2984164E-2,8.732443E-2,-8.577087E-2,8.360943E-2,7.919492E-2,9.4682835E-2,-7.381972E-2,-9.3892224E-2,4.1598544E-2,-9.2341915E-2,-8.612735E-2,8.9160286E-2,8.349131E-2,4.784151E-2,-7.637619E-2,8.510901E-2],"categories":[],"categories_nodes":[],"categories_segments":[],"categories_sizes":[],"default_left":[0,0,0,0,0,0,0,0,0,0,0,0,0,0,0,0,0,0,0,0,0,0,0,0,0,0,0,0,0,0,0,0,0,0,0,0,0,0,0,0,0,0,0,0,0,0,0,0,0,0,0,0,0,0,0,0,0,0,0,0,0,0,0,0,0],"id":1,"left_children":[1,3,5,7,9,11,13,15,17,19,21,-1,23,25,27,-1,29,31,33,-1,35,-1,37,39,41,43,-1,-1,45,47,-1,-1,-1,49,-1,51,53,-1,-1,55,57,59,-1,61,-1,63,-1,-1,-1,-1,-1,-1,-1,-1,-1,-1,-1,-1,-1,-1,-1,-1,-1,-1,-1],"loss_changes":[3.077624E3,2.0138391E2,1.661983E3,4.745328E2,2.2870605E1,1.5583694E3,4.330951E1,7.402988E2,2.6704834E1,1.6854248E0,1.05371216E2,0E0,1.2106179E3,1.07189835E2,3.787964E1,0E0,1.669754E1,1.1623154E2,5.5929565E0,0E0,6.077826E1,0E0,1.8216309E1,2.9850586E1,2.7149353E1,2.4088287E1,0E0,0E0,1.326416E0,3.4843414E1,0E0,0E0,0E0,8.086983E1,0E0,5.131164E1,2.468872E0,0E0,0E0,3.0924316E1,3.672077E1,8.457115E1,0E0,1.7117737E1,0E0,3.9155884E1,0E0,0E0,0E0,0E0,0E0,0E0,0E0,0E0,0E0,0E0,0E0,0E0,0E0,0E0,0E0,0E0,0E0,0E0,0E0],"parents":[2147483647,0,0,1,1,2,2,3,3,4,4,5,5,6,6,7,7,8,8,9,9,10,10,12,12,13,13,14,14,16,16,17,17,18,18,20,20,22,22,23,23,24,24,25,25,28,28,29,29,33,33,35,35,36,36,39,39,40,40,41,41,43,43,45,45],"right_children":[2,4,6,8,10,12,14,16,18,20,22,-1,24,26,28,-1,30,32,34,-1,36,-1,38,40,42,44,-1,-1,46,48,-1,-1,-1,50,-1,52,54,-1,-1,56,58,60,-1,62,-1,64,-1,-1,-1,-1,-1,-1,-1,-1,-1,-1,-1,-1,-1,-1,-1,-1,-1,-1,-1],"split_conditions":[1.382E3,3.016E2,2.05E2,7.7556E4,3.123E2,3.37705E4,4.53E1,1.94E2,6.09E1,3.108E2,5.67E1,9.3372695E-2,5.67E1,4.14E1,2.07E2,-9.470301E-2,6.86886E4,1.88E2,8.56482E4,9.254643E-2,3.023E2,-8.8169165E-2,8.9E1,2.03E2,8.56482E4,6.11488E4,-9.457032E-2,-7.581578E-2,7.3584E4,2.991E2,8.939399E-2,-8.8073015E-2,8.8848814E-2,1.07E2,9.348062E-2,2.06E2,3.03E2,-6.00258E-2,8.797208E-2,1.44E3,3.085E2,1.73E2,9.3106054E-2,2.35E1,-7.4886195E-2,3.002E2,9.343856E-2,7.01352E-2,-7.842635E-2,-8.2984164E-2,8.732443E-2,-8.577087E-2,8.360943E-2,7.919492E-2,9.4682835E-2,-7.381972E-2,-9.3892224E-2,4.1598544E-2,-9.2341915E-2,-8.612735E-2,8.9160286E-2,8.349131E-2,4.784151E-2,-7.637619E-2,8.510901E-2],"split_indices":[3,1,5,7,2,7,4,5,4,2,4,0,4,4,5,0,7,5,7,0,1,0,5,5,7,7,0,0,7,1,0,0,0,5,0,5,1,0,0,3,2,5,0,4,0,1,0,0,0,0,0,0,0,0,0,0,0,0,0,0,0,0,0,0,0],"split_type":[0,0,0,0,0,0,0,0,0,0,0,0,0,0,0,0,0,0,0,0,0,0,0,0,0,0,0,0,0,0,0,0,0,0,0,0,0,0,0,0,0,0,0,0,0,0,0,0,0,0,0,0,0,0,0,0,0,0,0,0,0,0,0,0,0],"sum_hessian":[3.1340754E3,1.1856471E3,1.9484283E3,5.7655786E2,6.090892E2,1.5892355E3,3.5919293E2,2.3938936E2,3.3716852E2,5.4631415E2,6.277505E1,1.503688E2,1.4388666E3,2.2132753E2,1.378654E2,1.2419818E2,1.1519118E2,4.7787136E1,2.8938138E2,2.8088464E2,2.6542947E2,9.98192E0,5.2793133E1,1.3224335E3,1.1643311E2,2.0933638E2,1.1991144E1,2.9958572E0,1.3486954E2,2.0219027E1,9.4972145E1,1.1472461E1,3.631468E1,1.0319833E2,1.8618304E2,1.609153E1,2.4933795E2,1.4999998E0,5.1293133E1,1.3038181E3,1.8615326E1,3.0576416E1,8.58567E1,2.0658852E2,2.7478614E0,6.348155E1,7.138799E1,1.597713E1,4.241896E0,6.73364E0,9.646469E1,8.97831E0,7.1132197E0,9.285991E1,1.5647804E2,2.6516953E2,1.0386487E3,9.622259E0,8.993067E0,8.98197E0,2.1594446E1,4.5498375E1,1.6109015E2,3.2460744E0,6.0235474E1],"tree_param":{"num_deleted":"0","num_feature":"8","num_nodes":"65","size_leaf_vector":"1"}},{"base_weights":[-1.180397E-2,1.1840345E0,-7.4931383E-1,6.910209E-1,1.604041E0,8.923798E-2,-9.6956193E-1,-3.245659E-1,1.5330689E0,1.6715333E0,7.9010314E-1,-1.2539202E0,9.6821743E-1,1.430701E-1,-9.0243615E-2,1.2262931E0,8.944469E-2,1.6954758E0,4.3730938E-1,-8.5665904E-2,1.5595435E0,-1.5896646E0,-1.0662878E0,2.8809616E-1,8.9427665E-2,5.382745E-1,-8.372073E-1,-6.0400516E-2,1.2667841E0,8.87716E-2,1.6072975E0,1.0170904E0,-6.6226475E-2,1.2271298E0,8.747616E-2,-1.6347613E0,7.084256E-1,-1.2505087E0,-5.10634E-1,6.118289E-1,-8.441921E-1,-1.42547265E-2,7.016879E-2,-8.8875115E-2,2.5863767E-2,7.109069E-2,3.533716E-2,2.3827167E-2,8.2723826E-2,-5.9808683E-2,8.19918E-2,-6.1242957E-2,7.6767765E-2,-8.597844E-2,-5.283301E-2,-6.849857E-2,8.205473E-2,-2.260173E-2,-6.8707965E-2,2.3526995E-2,-4.5316573E-2,5.286414E-2,1.4495862E-3,-8.73873E-2,4.566533E-2],"categories":[],"categories_nodes":[],"categories_segments":[],"categories_sizes":[],"default_left":[0,0,0,0,0,0,0,0,0,0,0,0,0,0,0,0,0,0,0,0,0,0,0,0,0,0,0,0,0,0,0,0,0,0,0,0,0,0,0,0,0,0,0,0,0,0,0,0,0,0,0,0,0,0,0,0,0,0,0,0,0,0,0,0,0],"id":2,"left_children":[1,3,5,7,9,-1,11,13,15,17,19,21,23,25,-1,27,-1,29,31,-1,33,35,37,39,-1,41,43,-1,45,-1,47,49,-1,51,-1,53,55,57,59,61,63,-1,-1,-1,-1,-1,-1,-1,-1,-1,-1,-1,-1,-1,-1,-1,-1,-1,-1,-1,-1,-1,-1,-1,-1],"loss_changes":[2.680337E3,2.3895349E2,1.0508878E3,4.5807663E2,3.3027832E1,0E0,9.5455176E2,1.6872858E2,2.0777954E1,1.6294067E1,9.854748E1,9.337671E1,1.2332297E2,7.2458626E1,0E0,1.4962799E1,0E0,1.1309814E0,1.3929708E1,0E0,2.9047394E-1,5.701831E1,9.877197E1,4.543589E1,0E0,9.5188774E1,6.943437E1,0E0,1.0675949E1,0E0,1.4112976E1,1.5515305E1,0E0,1.5019665E1,0E0,2.411499E1,2.370934E1,7.13208E1,9.496413E1,2.4861572E1,4.553065E1,0E0,0E0,0E0,0E0,0E0,0E0,0E0,0E0,0E0,0E0,0E0,0E0,0E0,0E0,0E0,0E0,0E0,0E0,0E0,0E0,0E0,0E0,0E0,0E0],"parents":[2147483647,0,0,1,1,2,2,3,3,4,4,6,6,7,7,8,8,9,9,10,10,11,11,12,12,13,13,15,15,17,17,18,18,20,20,21,21,22,22,23,23,25,25,26,26,28,28,30,30,31,31,33,33,35,35,36,36,37,37,38,38,39,39,40,40],"right_children":[2,4,6,8,10,-1,12,14,16,18,20,22,24,26,-1,28,-1,30,32,-1,34,36,38,40,-1,42,44,-1,46,-1,48,50,-1,52,-1,54,56,58,60,62,64,-1,-1,-1,-1,-1,-1,-1,-1,-1,-1,-1,-1,-1,-1,-1,-1,-1,-1,-1,-1,-1,-1,-1,-1],"split_conditions":[1.386E3,3.016E2,3.37705E4,7.7556E4,3.123E2,8.923798E-2,7.3818E4,1E0,8.56482E4,1.382E3,5.82E1,2.992E2,8.56482E4,2.995E2,-9.0243615E-2,3.078E2,8.944469E-2,3.108E2,5.05E1,-8.5665904E-2,8.3762E4,2.261E3,4.43E1,1E0,8.9427665E-2,2.99E2,5.41E1,-6.0400516E-2,1E0,8.87716E-2,3.02E2,4.76E1,-6.6226475E-2,3.038E2,8.747616E-2,2E0,1.58E1,2.998E2,6.53293E4,5.32E1,3.121E2,-1.42547265E-2,7.016879E-2,-8.8875115E-2,2.5863767E-2,7.109069E-2,3.533716E-2,2.3827167E-2,8.2723826E-2,-5.9808683E-2,8.19918E-2,-6.1242957E-2,7.6767765E-2,-8.597844E-2,-5.283301E-2,-6.849857E-2,8.205473E-2,-2.260173E-2,-6.8707965E-2,2.3526995E-2,-4.5316573E-2,5.286414E-2,1.4495862E-3,-8.73873E-2,4.566533E-2],"split_indices":[3,1,7,7,2,0,7,0,7,3,4,1,7,1,0,2,0,2,4,0,7,3,4,0,0,1,4,0,0,0,1,4,0,1,0,0,4,1,7,4,2,0,0,0,0,0,0,0,0,0,0,0,0,0,0,0,0,0,0,0,0,0,0,0,0],"split_type":[0,0,0,0,0,0,0,0,0,0,0,0,0,0,0,0,0,0,0,0,0,0,0,0,0,0,0,0,0,0,0,0,0,0,0,0,0,0,0,0,0,0,0,0,0,0,0,0,0,0,0,0,0,0,0,0,0,0,0,0,0,0,0,0,0],"sum_hessian":[3.0371226E3,1.1583331E3,1.8787894E3,5.3407196E2,6.242611E2,1.4966856E2,1.7291208E3,2.4236827E2,2.917037E2,5.7548755E2,4.8773552E1,1.5081598E3,2.209611E2,1.8487022E2,5.749805E1,1.3527745E2,1.5642625E2,5.641696E2,1.1317943E1,1.1178127E1,3.7595425E1,5.3800183E2,9.7015796E2,1.2154346E2,9.941765E1,1.3207452E2,5.27957E1,1.741559E0,1.3353589E2,2.858444E2,2.7832523E2,8.833689E0,2.4842544E0,1.6385115E1,2.121031E1,5.279306E2,1.0071226E1,7.2765985E2,2.424981E2,9.487685E1,2.6666605E1,6.801295E1,6.406157E1,3.0978094E1,2.1817604E1,1.033797E2,3.0156185E1,1.1592189E1,2.6673303E2,1.7375512E0,7.096137E0,1.4975924E0,1.4887523E1,4.5866934E2,6.926129E1,2.9743016E0,7.096925E0,9.819846E1,6.2946136E2,6.963689E1,1.7286122E2,5.3314972E1,4.156188E1,1.761569E1,9.050916E0],"tree_param":{"num_deleted":"0","num_feature":"8","num_nodes":"65","size_leaf_vector":"1"}},{"base_weights":[-6.693123E-2,-9.382052E-1,9.0082973E-1,8.621647E-2,-1.1913598E0,5.331329E-1,1.5666081E0,-1.4938078E0,5.4854214E-1,1.610618E0,-1.5728843E-1,9.3252075E-1,1.6452891E0,-1.12583786E-1,-1.6910548E0,6.237716E-1,-8.242842E-2,8.432665E-2,1.4902928E0,-1.4721761E0,8.628895E-2,-8.5393384E-2,8.1499256E-2,1.6554811E0,-5.3999703E-2,-8.7145306E-2,1.0347493E0,-1.4643658E0,-1.7388222E0,4.4545323E-1,8.008619E-2,-7.673753E-2,8.126403E-2,-1.6256344E0,1.225784E0,1.7215022E0,1.200915E0,6.453207E-2,-7.941177E-2,-8.812087E-2,6.5261284E-3,-8.850096E-2,-7.3409565E-2,3.0938907E-2,-8.761775E-2,-5.0886273E-2,-9.066423E-2,-7.191863E-2,8.997891E-2,5.3993028E-2,8.664059E-2,-8.347352E-2,8.164676E-2],"categories":[],"categories_nodes":[],"categories_segments":[],"categories_sizes":[],"default_left":[0,0,0,0,0,0,0,0,0,0,0,0,0,0,0,0,0,0,0,0,0,0,0,0,0,0,0,0,0,0,0,0,0,0,0,0,0,0,0,0,0,0,0,0,0,0,0,0,0,0,0,0,0],"id":3,"left_children":[1,3,5,-1,7,9,11,13,15,17,19,21,23,25,27,29,-1,-1,31,33,-1,-1,-1,35,-1,-1,37,39,41,43,-1,-1,-1,45,47,49,51,-1,-1,-1,-1,-1,-1,-1,-1,-1,-1,-1,-1,-1,-1,-1,-1],"loss_changes":[2.4777417E3,1.044328E3,3.3998755E2,0E0,7.442018E2,6.6859326E2,2.3152588E1,3.2775586E2,3.5726997E1,6.921997E-1,1.3605427E3,1.07625336E2,1.3978394E1,2.851691E2,8.858887E0,3.480993E1,0E0,0E0,6.14411E1,1.359267E2,0E0,0E0,0E0,1.1066895E1,0E0,0E0,6.215145E1,9.037955E1,4.7006836E0,6.7243164E1,0E0,0E0,0E0,3.3119812E1,3.0073982E1,8.8500977E-1,7.5653854E1,0E0,0E0,0E0,0E0,0E0,0E0,0E0,0E0,0E0,0E0,0E0,0E0,0E0,0E0,0E0,0E0],"parents":[2147483647,0,0,1,1,2,2,4,4,5,5,6,6,7,7,8,8,9,9,10,10,11,11,12,12,13,13,14,14,15,15,18,18,19,19,23,23,26,26,27,27,28,28,29,29,33,33,34,34,35,35,36,36],"right_children":[2,4,6,-1,8,10,12,14,16,18,20,22,24,26,28,30,-1,-1,32,34,-1,-1,-1,36,-1,-1,38,40,42,44,-1,-1,-1,46,48,50,52,-1,-1,-1,-1,-1,-1,-1,-1,-1,-1,-1,-1,-1,-1,-1,-1],"split_conditions":[4.73E1,3.37705E4,1.89E2,8.621647E-2,2.03E2,8.7E0,5.02E1,8.7E0,6.53293E4,7.09776E4,8.56482E4,2.12E2,1.15E1,4.15E1,4.8737E4,4.51E1,-8.242842E-2,8.432665E-2,5.34E1,6.4E1,8.628895E-2,-8.5393384E-2,8.1499256E-2,1E0,-5.3999703E-2,-8.7145306E-2,6.4539E4,4.81873E4,2E0,6.11488E4,8.008619E-2,-7.673753E-2,8.126403E-2,4.87E1,1.66E2,6.90378E4,7.85696E4,6.453207E-2,-7.941177E-2,-8.812087E-2,6.5261284E-3,-8.850096E-2,-7.3409565E-2,3.0938907E-2,-8.761775E-2,-5.0886273E-2,-9.066423E-2,-7.191863E-2,8.997891E-2,5.3993028E-2,8.664059E-2,-8.347352E-2,8.164676E-2],"split_indices":[4,7,5,0,5,6,4,6,7,7,7,5,6,4,7,4,0,0,4,4,0,0,0,0,0,0,7,7,0,7,0,0,0,4,5,7,7,0,0,0,0,0,0,0,0,0,0,0,0,0,0,0,0],"split_type":[0,0,0,0,0,0,0,0,0,0,0,0,0,0,0,0,0,0,0,0,0,0,0,0,0,0,0,0,0,0,0,0,0,0,0,0,0,0,0,0,0,0,0,0,0,0,0,0,0,0,0,0,0],"sum_hessian":[2.9365486E3,1.5453251E3,1.3912235E3,1.3366821E2,1.4116569E3,8.974046E2,4.9381894E2,1.2027275E3,2.0892928E2,3.4994333E2,5.4746124E2,5.593031E1,4.378886E2,1.504901E2,1.0522374E3,2.0270473E2,6.224549E0,2.0658784E2,1.4335548E2,3.2249277E2,2.249685E2,1.1384264E1,4.4546047E1,4.366482E2,1.2404277E0,6.1946735E1,8.854336E1,1.8864525E2,8.6359216E2,1.7267493E2,3.0029802E1,5.68079E0,1.3767468E2,3.0551282E2,1.6979929E1,3.7883856E2,5.780963E1,8.113588E1,7.4074764E0,1.5885374E2,2.9791502E1,7.6936365E2,9.422852E1,1.6071869E2,1.195624E1,7.357705E1,2.3193578E2,2.7419837E0,1.4237945E1,8.232831E0,3.7060574E2,7.187936E0,5.0621696E1],"tree_param":{"num_deleted":"0","num_feature":"8","num_nodes":"53","size_leaf_vector":"1"}},{"base_weights":[-1.347859E-2,9.622822E-1,-7.7578044E-1,1.6284361E0,5.092801E-1,1.54045E0,-1.0185804E0,8.3869204E-2,4.3910906E-1,-7.403678E-1,1.2808455E0,8.231655E-2,9.6265465E-1,-1.1636832E0,7.617443E-1,-7.958134E-2,6.377874E-2,-1.4636242E0,-4.0047646E-1,9.9579084E-1,8.20914E-2,1.176018E0,-5.9447236E-2,-1.2667971E0,-6.961024E-1,9.975405E-1,-8.05721E-2,-8.5727E-2,-8.9457875E-1,-8.48841E-2,-1.4643633E-1,5.255832E-1,1.3399694E0,6.716412E-1,7.212916E-2,-1.2865353E0,7.101715E-2,1.0258812E0,-9.1158396E-1,4.6861205E-1,7.778063E-2,5.670316E-4,-8.207542E-2,-8.4257E-2,5.8289054E-3,-8.318341E-2,4.402795E-2,3.4504212E-2,7.408173E-2,7.391945E-2,-6.2292516E-2,-6.0394663E-2,-8.588272E-2,7.6667316E-2,-7.2803564E-2,-7.354405E-2,-2.3879593E-2,-6.721956E-3,6.0309947E-2],"categories":[],"categories_nodes":[],"categories_segments":[],"categories_sizes":[],"default_left":[0,0,0,0,0,0,0,0,0,0,0,0,0,0,0,0,0,0,0,0,0,0,0,0,0,0,0,0,0,0,0,0,0,0,0,0,0,0,0,0,0,0,0,0,0,0,0,0,0,0,0,0,0,0,0,0,0,0,0],"id":4,"left_children":[1,3,5,7,9,11,13,-1,15,17,19,-1,21,23,25,-1,-1,27,29,31,-1,33,-1,35,37,39,-1,-1,41,-1,43,45,47,49,-1,51,-1,53,55,57,-1,-1,-1,-1,-1,-1,-1,-1,-1,-1,-1,-1,-1,-1,-1,-1,-1,-1,-1],"loss_changes":[2.220127E3,3.942151E2,9.439217E2,3.0084229E1,7.536548E2,8.165802E0,3.9284143E2,0E0,3.9880226E1,7.282817E1,4.8068237E1,0E0,1.3835285E1,6.677783E1,6.59307E1,0E0,0E0,1.2044769E1,6.7156235E1,4.3385956E1,0E0,2.4125366E0,0E0,6.2745483E1,9.584128E1,3.0316986E1,0E0,0E0,2.1125154E1,0E0,6.9861145E1,9.2221695E1,1.3400116E1,1.818875E1,0E0,3.6599365E1,0E0,3.865393E1,5.4605087E1,2.4817219E1,0E0,0E0,0E0,0E0,0E0,0E0,0E0,0E0,0E0,0E0,0E0,0E0,0E0,0E0,0E0,0E0,0E0,0E0,0E0],"parents":[2147483647,0,0,1,1,2,2,3,3,4,4,5,5,6,6,8,8,9,9,10,10,12,12,13,13,14,14,17,17,18,18,19,19,21,21,23,23,24,24,25,25,28,28,30,30,31,31,32,32,33,33,35,35,37,37,38,38,39,39],"right_children":[2,4,6,8,10,12,14,-1,16,18,20,-1,22,24,26,-1,-1,28,30,32,-1,34,-1,36,38,40,-1,-1,42,-1,44,46,48,50,-1,52,-1,54,56,58,-1,-1,-1,-1,-1,-1,-1,-1,-1,-1,-1,-1,-1,-1,-1,-1,-1,-1,-1],"split_conditions":[1.406E3,8.7E0,1.58E1,1.382E3,5.54E1,1.38E1,5.15E1,8.3869204E-2,5.15E1,3.095E2,6.4E1,8.231655E-2,3.102E2,4.48E1,1.08E1,-7.958134E-2,6.377874E-2,1.1E1,1.351E3,1.351E3,8.20914E-2,3.095E2,-5.9447236E-2,3.044E2,8.3E0,5.82E1,-8.05721E-2,-8.5727E-2,1.11E1,-8.48841E-2,4.59E1,5.82E1,3.094E2,2.958E2,7.212916E-2,4.14E1,7.101715E-2,4.61E1,3.099E2,3.115E2,7.778063E-2,5.670316E-4,-8.207542E-2,-8.4257E-2,5.8289054E-3,-8.318341E-2,4.402795E-2,3.4504212E-2,7.408173E-2,7.391945E-2,-6.2292516E-2,-6.0394663E-2,-8.588272E-2,7.6667316E-2,-7.2803564E-2,-7.354405E-2,-2.3879593E-2,-6.721956E-3,6.0309947E-2],"split_indices":[3,6,4,3,4,4,4,0,4,2,4,0,2,4,6,0,0,6,3,3,0,2,0,1,6,4,0,0,6,0,4,4,2,1,0,4,0,4,2,2,0,0,0,0,0,0,0,0,0,0,0,0,0,0,0,0,0,0,0],"split_type":[0,0,0,0,0,0,0,0,0,0,0,0,0,0,0,0,0,0,0,0,0,0,0,0,0,0,0,0,0,0,0,0,0,0,0,0,0,0,0,0,0,0,0,0,0,0,0,0,0,0,0,0,0,0,0,0,0,0,0],"sum_hessian":[2.9827432E3,1.3080947E3,1.6746484E3,5.284288E2,7.7966595E2,1.5838306E2,1.5162654E3,5.0714627E2,2.1282513E1,2.976403E2,4.8202567E2,1.3229134E2,2.6091726E1,1.4023179E3,1.1394745E2,5.945495E0,1.5337017E1,9.409946E1,2.0354082E2,2.7143878E2,2.1058688E2,2.4150286E1,1.9414415E0,1.1475448E3,2.547731E2,1.0417631E2,9.771135E0,6.390713E1,3.0192327E1,3.2402275E1,1.7113855E2,1.1578433E2,1.5565445E2,9.5673E0,1.4582987E1,1.1396945E3,7.8503346E0,2.791715E1,2.2685594E2,5.442921E1,4.97471E1,1.4089087E1,1.6103241E1,2.4193453E1,1.469451E2,1.5640089E1,1.0014424E2,2.8908543E1,1.267459E2,6.895252E0,2.6720471E0,9.6708655E2,1.726079E2,2.349543E1,4.4217215E0,9.807498E1,1.2878096E2,3.0395542E1,2.4033669E1],"tree_param":{"num_deleted":"0","num_feature":"8","num_nodes":"59","size_leaf_vector":"1"}},{"base_weights":[2.1799225E-2,1.1255792E0,-6.629066E-1,8.122535E-2,7.245462E-1,-1.0957853E0,1.1258154E0,-9.262238E-1,1.144512E0,8.0244E-2,-1.3676844E0,9.1714174E-1,1.4161063E0,-8.394156E-2,1.267178E0,4.8952547E-1,1.4772192E0,-1.5253661E0,1.1704547E0,1.0231123E0,-7.895047E-2,-6.785934E-2,1.4811883E0,1.4828575E0,-6.236251E-2,-1.3216465E0,1.5784206E0,1.4946703E0,-6.0496517E-2,-1.5421188E0,-3.4934428E-1,2.0592201E-1,7.921262E-2,1.0904863E0,-8.142121E-2,1.5421487E0,-6.4746834E-2,4.0963702E-2,8.596165E-2,-8.509325E-2,5.453715E-3,8.2439E-2,-6.2484693E-2,6.360694E-2,8.09736E-2,-6.374229E-2,-8.047358E-2,5.778083E-2,-8.364708E-2,-8.1142254E-2,7.15676E-2,-7.305946E-2,5.6977313E-2,4.3795522E-2,8.155051E-2],"categories":[],"categories_nodes":[],"categories_segments":[],"categories_sizes":[],"default_left":[0,0,0,0,0,0,0,0,0,0,0,0,0,0,0,0,0,0,0,0,0,0,0,0,0,0,0,0,0,0,0,0,0,0,0,0,0,0,0,0,0,0,0,0,0,0,0,0,0,0,0,0,0,0,0],"id":5,"left_children":[1,3,5,-1,7,9,11,13,15,-1,17,19,21,-1,23,25,27,29,31,33,-1,-1,35,37,-1,39,41,43,-1,45,47,49,-1,51,-1,53,-1,-1,-1,-1,-1,-1,-1,-1,-1,-1,-1,-1,-1,-1,-1,-1,-1,-1,-1],"loss_changes":[2.2758887E3,2.2949658E2,1.4402814E3,0E0,4.454044E2,1.1013743E3,2.0667664E1,2.1762263E2,1.1072064E2,0E0,5.462864E2,5.8171814E1,2.9050781E1,0E0,2.024416E1,3.447757E2,1.7688354E1,2.4706543E1,3.1660843E1,3.8524323E1,0E0,0E0,2.6850616E1,3.5631943E0,0E0,3.597296E1,2.3744751E1,7.2963867E0,0E0,2.0685547E1,4.0357952E1,5.881884E1,0E0,2.6853546E1,0E0,7.106079E0,0E0,0E0,0E0,0E0,0E0,0E0,0E0,0E0,0E0,0E0,0E0,0E0,0E0,0E0,0E0,0E0,0E0,0E0,0E0],"parents":[2147483647,0,0,1,1,2,2,4,4,5,5,6,6,7,7,8,8,10,10,11,11,12,12,14,14,15,15,16,16,17,17,18,18,19,19,22,22,23,23,25,25,26,26,27,27,29,29,30,30,31,31,33,33,35,35],"right_children":[2,4,6,-1,8,10,12,14,16,-1,18,20,22,-1,24,26,28,30,32,34,-1,-1,36,38,-1,40,42,44,-1,46,48,50,-1,52,-1,54,-1,-1,-1,-1,-1,-1,-1,-1,-1,-1,-1,-1,-1,-1,-1,-1,-1,-1,-1],"split_conditions":[1.382E3,8.7E0,2.05E2,8.122535E-2,7.1136E4,3.37705E4,6.36696E4,2.07E2,7.9134E4,8.0244E-2,7.98095E4,6.11488E4,2.07E2,-8.394156E-2,3.104E2,1.89E2,1.14E1,2.03E2,8.56482E4,2.29E2,-7.895047E-2,-6.785934E-2,1.502E3,1.09E1,-6.236251E-2,3.118E2,1E0,8.56482E4,-6.0496517E-2,1.44E3,3.085E2,1.84E2,7.921262E-2,1.428E3,-8.142121E-2,3.093E2,-6.4746834E-2,4.0963702E-2,8.596165E-2,-8.509325E-2,5.453715E-3,8.2439E-2,-6.2484693E-2,6.360694E-2,8.09736E-2,-6.374229E-2,-8.047358E-2,5.778083E-2,-8.364708E-2,-8.1142254E-2,7.15676E-2,-7.305946E-2,5.6977313E-2,4.3795522E-2,8.155051E-2],"split_indices":[3,6,5,0,7,7,7,5,7,0,7,7,5,0,2,5,6,5,7,5,0,0,3,6,0,2,0,7,0,3,2,5,0,3,0,2,0,0,0,0,0,0,0,0,0,0,0,0,0,0,0,0,0,0,0],"split_type":[0,0,0,0,0,0,0,0,0,0,0,0,0,0,0,0,0,0,0,0,0,0,0,0,0,0,0,0,0,0,0,0,0,0,0,0,0,0,0,0,0,0,0,0,0,0,0,0,0,0,0,0,0,0,0],"sum_hessian":[3.0093853E3,1.1518698E3,1.8575155E3,5.119272E2,6.3994257E2,1.4958907E3,3.6162482E2,1.2954224E2,5.104003E2,1.3638E2,1.3595107E3,2.1280832E2,1.4881648E2,9.662317E1,3.291906E1,1.7276215E2,3.3763815E2,1.2803671E3,7.914372E1,2.0470786E2,8.100466E0,2.9570315E0,1.4585945E2,3.0696293E1,2.2227676E0,6.478716E1,1.0797498E2,3.359005E2,1.7376578E0,1.2620771E3,1.8289864E1,2.4209873E1,5.493385E1,2.002094E2,4.4984612E0,1.4316031E2,2.6991343E0,9.235421E0,2.1460873E1,5.1034946E1,1.3752218E1,1.0576082E2,2.2141676E0,1.24715744E2,2.1118477E2,2.5803906E2,1.0040381E3,8.617958E0,9.671905E0,9.583563E0,1.462631E1,3.2337613E0,1.9697563E2,1.8125034E1,1.2503528E2],"tree_param":{"num_deleted":"0","num_feature":"8","num_nodes":"55","size_leaf_vector":"1"}},{"base_weights":[-2.0788386E-2,-5.4964095E-1,1.0998304E0,-8.9404345E-1,1.0533655E0,7.159934E-1,1.404111E0,7.65429E-2,-1.1037656E0,8.6826056E-1,1.5465275E0,-6.8104476E-1,1.0163023E0,-6.550948E-2,1.4233991E0,-1.5360199E0,-2.856548E-1,9.102257E-1,-7.725746E-2,1.6318496E0,-6.64439E-2,-8.2105584E-2,8.08182E-2,6.947901E-1,1.4916736E0,1.2357675E0,7.8546114E-2,-1.559351E0,2.3970518E-3,-1.4412501E0,7.777967E-1,1.0949016E0,3.9305374E-1,-5.9273183E-2,8.498531E-2,-8.064779E-2,1.1878875E0,7.852355E-2,-6.8617314E-2,-6.9742817E-1,1.4261823E0,-7.917651E-2,-6.7568436E-2,5.146047E-2,-7.588001E-2,-4.153263E-2,-8.0720805E-2,5.161791E-2,-8.1579715E-2,7.436718E-2,4.425372E-2,-3.4701165E-2,4.7979232E-2,6.672733E-2,-8.10474E-2,-8.517685E-2,2.8797427E-2,3.6958136E-2,8.0229364E-2],"categories":[],"categories_nodes":[],"categories_segments":[],"categories_sizes":[],"default_left":[0,0,0,0,0,0,0,0,0,0,0,0,0,0,0,0,0,0,0,0,0,0,0,0,0,0,0,0,0,0,0,0,0,0,0,0,0,0,0,0,0,0,0,0,0,0,0,0,0,0,0,0,0,0,0,0,0,0,0],"id":6,"left_children":[1,3,5,7,9,11,13,-1,15,17,19,21,23,-1,25,27,29,31,-1,33,-1,-1,-1,35,37,39,-1,41,43,45,47,49,51,-1,-1,-1,53,-1,-1,55,57,-1,-1,-1,-1,-1,-1,-1,-1,-1,-1,-1,-1,-1,-1,-1,-1,-1,-1],"loss_changes":[1.7092028E3,1.0826494E3,1.0699243E2,8.2217444E2,3.0330994E1,1.7309473E2,2.8814148E1,0E0,5.2488745E2,2.7187958E1,2.5085617E1,1.6450647E2,5.0718323E1,0E0,1.2219971E1,3.488208E1,6.337384E2,2.3526993E1,0E0,1.9443832E1,0E0,0E0,0E0,2.3391425E2,3.2791077E1,8.561423E1,0E0,2.6738281E0,2.5777555E1,2.4780823E1,1.6650362E2,1.3857727E1,4.227521E1,0E0,0E0,0E0,7.15992E1,0E0,0E0,2.8248726E1,2.4503265E1,0E0,0E0,0E0,0E0,0E0,0E0,0E0,0E0,0E0,0E0,0E0,0E0,0E0,0E0,0E0,0E0,0E0,0E0],"parents":[2147483647,0,0,1,1,2,2,3,3,4,4,5,5,6,6,8,8,9,9,10,10,11,11,12,12,14,14,15,15,16,16,17,17,19,19,23,23,24,24,25,25,27,27,28,28,29,29,30,30,31,31,32,32,36,36,39,39,40,40],"right_children":[2,4,6,8,10,12,14,-1,16,18,20,22,24,-1,26,28,30,32,-1,34,-1,-1,-1,36,38,40,-1,42,44,46,48,50,52,-1,-1,-1,54,-1,-1,56,58,-1,-1,-1,-1,-1,-1,-1,-1,-1,-1,-1,-1,-1,-1,-1,-1,-1,-1],"split_conditions":[5.21E1,2.05E2,7.9134E4,3.37705E4,2.25E2,3.098E2,5.67E1,7.65429E-2,3.016E2,2.23E2,2.35E2,2.12E2,1.87E2,-6.550948E-2,8.56482E4,2.03E2,4.51E1,1E0,-7.725746E-2,2.977E2,-6.64439E-2,-8.2105584E-2,8.08182E-2,3.016E2,1E0,9E1,7.8546114E-2,2E0,3.085E2,3.5E1,3.12E2,3.086E2,3.003E2,-5.9273183E-2,8.498531E-2,-8.064779E-2,3.121E2,7.852355E-2,-6.8617314E-2,3.017E2,1.74E2,-7.917651E-2,-6.7568436E-2,5.146047E-2,-7.588001E-2,-4.153263E-2,-8.0720805E-2,5.161791E-2,-8.1579715E-2,7.436718E-2,4.425372E-2,-3.4701165E-2,4.7979232E-2,6.672733E-2,-8.10474E-2,-8.517685E-2,2.8797427E-2,3.6958136E-2,8.0229364E-2],"split_indices":[4,5,7,7,5,2,4,0,1,5,5,5,5,0,7,5,4,0,0,1,0,0,0,1,0,5,0,0,2,5,2,2,1,0,0,0,2,0,0,1,5,0,0,0,0,0,0,0,0,0,0,0,0,0,0,0,0,0,0],"split_type":[0,0,0,0,0,0,0,0,0,0,0,0,0,0,0,0,0,0,0,0,0,0,0,0,0,0,0,0,0,0,0,0,0,0,0,0,0,0,0,0,0,0,0,0,0,0,0,0,0,0,0,0,0,0,0,0,0,0,0],"sum_hessian":[2.8820186E3,1.9583336E3,9.23685E2,1.6123632E3,3.459705E2,4.0992947E2,5.137555E2,1.2784641E2,1.4845167E3,2.5355936E2,9.241113E1,7.230385E1,3.376256E2,3.152789E0,5.106027E2,9.707414E2,5.137753E2,2.4983795E2,3.721414E0,9.016805E1,2.2430835E0,5.117939E1,2.1124462E1,2.0287495E2,1.3475067E2,2.288764E2,2.817263E2,9.562261E2,1.4515361E1,2.460504E2,2.677249E2,1.8327542E2,6.6562515E1,1.73331E0,8.8434746E1,3.531696E1,1.67558E2,1.3158212E2,3.1685433E0,2.0283579E1,2.0859282E2,8.5071185E2,1.0551424E2,8.8558235E0,5.6595373E0,5.564357E1,1.9040683E2,2.4265863E2,2.506629E1,6.1730927E1,1.215445E2,2.2727415E1,4.3835102E1,1.5974219E2,7.8158164E0,1.1142197E1,9.141381E0,4.4061134E1,1.645317E2],"tree_param":{"num_deleted":"0","num_feature":"8","num_nodes":"59","size_leaf_vector":"1"}},{"base_weights":[-4.0495683E-2,1.0199153E0,-6.6301334E-1,7.6851055E-2,6.3428575E-1,-1.0688915E0,1.0559616E0,-4.7805864E-1,1.128098E0,7.503064E-2,-1.2597616E0,-7.31886E-2,1.086365E0,-7.995208E-2,1.443384E0,7.8668714E-1,1.5213487E0,-1.451075E0,1.1805342E0,9.079771E-1,1.554327E0,8.001146E-2,-6.714321E-2,-9.786318E-1,7.5734995E-2,1.1802688E0,7.793706E-2,-1.4673518E0,-3.3629993E-1,4.6466944E-1,7.504364E-2,1.2871708E0,5.9011596E-1,1.6085675E0,9.3734723E-1,-8.3416104E-2,4.3888707E-3,7.323664E-2,-6.2402584E-2,-6.445565E-2,-7.557499E-2,3.9590217E-2,-8.0182336E-2,-7.79474E-2,7.4776106E-2,-6.728054E-2,6.857741E-2,4.3808516E-2,-3.658481E-3,8.293491E-2,5.361542E-2,-6.0693413E-2,7.772111E-2],"categories":[],"categories_nodes":[],"categories_segments":[],"categories_sizes":[],"default_left":[0,0,0,0,0,0,0,0,0,0,0,0,0,0,0,0,0,0,0,0,0,0,0,0,0,0,0,0,0,0,0,0,0,0,0,0,0,0,0,0,0,0,0,0,0,0,0,0,0,0,0,0,0],"id":7,"left_children":[1,3,5,-1,7,9,11,13,15,-1,17,-1,19,-1,21,23,25,27,29,31,33,-1,-1,35,-1,37,-1,39,41,43,-1,45,47,49,51,-1,-1,-1,-1,-1,-1,-1,-1,-1,-1,-1,-1,-1,-1,-1,-1,-1,-1],"loss_changes":[1.8530201E3,2.0608496E2,1.2351382E3,0E0,3.2818768E2,7.03881E2,2.751062E1,3.9883014E2,5.4306335E1,0E0,6.240005E2,0E0,2.6544922E1,0E0,3.2020767E1,2.8853436E2,5.9680176E-1,2.1942139E1,2.1650223E1,2.8754547E1,1.5382996E0,0E0,0E0,4.8559467E1,0E0,1.7711182E1,0E0,7.638672E0,2.8564411E1,6.819937E1,0E0,2.6462723E1,2.5688515E1,4.3304443E-1,1.4832116E1,0E0,0E0,0E0,0E0,0E0,0E0,0E0,0E0,0E0,0E0,0E0,0E0,0E0,0E0,0E0,0E0,0E0,0E0],"parents":[2147483647,0,0,1,1,2,2,4,4,5,5,6,6,7,7,8,8,10,10,12,12,14,14,15,15,16,16,17,17,18,18,19,19,20,20,23,23,25,25,27,27,28,28,29,29,31,31,32,32,33,33,34,34],"right_children":[2,4,6,-1,8,10,12,14,16,-1,18,-1,20,-1,22,24,26,28,30,32,34,-1,-1,36,-1,38,-1,40,42,44,-1,46,48,50,52,-1,-1,-1,-1,-1,-1,-1,-1,-1,-1,-1,-1,-1,-1,-1,-1,-1,-1],"split_conditions":[1.382E3,8.7E0,2.05E2,7.6851055E-2,7.3584E4,3.37705E4,2.969E2,2.07E2,1.83E2,7.503064E-2,7.98095E4,-7.31886E-2,2.25E2,-7.995208E-2,2.993E2,8.56482E4,2.982E2,2.03E2,8.56482E4,1.456E3,3.028E2,8.001146E-2,-6.714321E-2,3.01E2,7.5734995E-2,1.318E3,7.793706E-2,1.44E3,9.2E0,1.74E2,7.504364E-2,2.07E2,5.726E4,1.11E1,6.2832E4,-8.3416104E-2,4.3888707E-3,7.323664E-2,-6.2402584E-2,-6.445565E-2,-7.557499E-2,3.9590217E-2,-8.0182336E-2,-7.79474E-2,7.4776106E-2,-6.728054E-2,6.857741E-2,4.3808516E-2,-3.658481E-3,8.293491E-2,5.361542E-2,-6.0693413E-2,7.772111E-2],"split_indices":[3,6,5,0,7,7,1,5,5,0,7,0,5,0,1,7,1,5,7,3,1,0,0,1,0,3,0,3,6,5,0,5,7,6,7,0,0,0,0,0,0,0,0,0,0,0,0,0,0,0,0,0,0],"split_type":[0,0,0,0,0,0,0,0,0,0,0,0,0,0,0,0,0,0,0,0,0,0,0,0,0,0,0,0,0,0,0,0,0,0,0,0,0,0,0,0,0,0,0,0,0,0,0,0,0,0,0,0,0],"sum_hessian":[2.8050522E3,1.0373566E3,1.7676956E3,4.418615E2,5.9549506E2,1.4303456E3,3.3734995E2,1.8309456E2,4.124005E2,9.842878E1,1.3319169E3,3.459893E0,3.3389008E2,1.1573926E2,6.735529E1,2.2235646E2,1.9004407E2,1.2354647E3,9.645213E1,2.4386761E2,9.0022446E1,6.416874E1,3.186553E0,6.482399E1,1.5753247E2,2.1993378E1,1.6805069E2,1.2173735E3,1.8091175E1,3.0575409E1,6.5876724E1,1.09814514E2,1.340531E2,8.127056E1,8.751887E0,3.902227E1,2.5801723E1,2.0042345E1,1.9510337E0,2.4766676E2,9.697068E2,9.769907E0,8.321268E0,1.0145997E1,2.042941E1,2.945957E0,1.0686856E2,9.343607E1,4.0617027E1,7.2408554E1,8.862008E0,1.7352867E0,7.016601E0],"tree_param":{"num_deleted":"0","num_feature":"8","num_nodes":"53","size_leaf_vector":"1"}},{"base_weights":[1.2600402E-2,1.0032245E0,-6.144738E-1,1.4602178E0,6.759718E-1,7.3745385E-2,-7.823024E-1,1.475617E0,6.202594E-1,-7.1916133E-1,1.0577127E0,-1.0114244E0,7.582502E-1,7.510279E-2,9.616585E-1,-6.112892E-2,6.81642E-2,-1.1765714E-1,-7.742671E-2,7.517363E-1,7.3446564E-2,-1.1426284E0,-5.8914214E-1,2.6185384E-1,7.4153505E-2,-6.279687E-2,1.2808255E0,3.2015055E-1,-7.276774E-2,1.0201559E0,-6.844704E-1,-1.0728116E0,-7.6273896E-2,3.0321422E-1,-9.0863645E-1,-8.7311727E-1,5.7546073E-1,7.333512E-2,4.0842365E-2,-3.0750338E-2,4.6428688E-2,3.7758E-2,6.0567897E-2,-7.916498E-2,3.3585653E-2,-5.4680508E-2,2.0238E-2,-7.3701166E-2,3.0377328E-2,-7.830109E-2,-2.9980753E-2,2.2960912E-2,-8.038233E-2,4.0405624E-2,-1.9643197E-2],"categories":[],"categories_nodes":[],"categories_segments":[],"categories_sizes":[],"default_left":[0,0,0,0,0,0,0,0,0,0,0,0,0,0,0,0,0,0,0,0,0,0,0,0,0,0,0,0,0,0,0,0,0,0,0,0,0,0,0,0,0,0,0,0,0,0,0,0,0,0,0,0,0,0,0],"id":8,"left_children":[1,3,5,7,9,-1,11,13,15,17,19,21,23,-1,25,-1,-1,27,-1,29,-1,31,33,35,-1,-1,37,39,-1,41,43,45,-1,47,49,51,53,-1,-1,-1,-1,-1,-1,-1,-1,-1,-1,-1,-1,-1,-1,-1,-1,-1,-1],"loss_changes":[1.7672358E3,1.6393518E2,6.1204614E2,5.025696E0,3.439902E2,0E0,5.702044E2,4.6746216E0,1.5351426E1,6.918656E1,6.2614563E1,7.716077E1,7.4968315E1,0E0,1.9169418E1,0E0,0E0,4.8302174E1,0E0,1.1342476E2,0E0,2.698352E1,9.5806465E1,4.518038E1,0E0,0E0,7.151718E-1,3.6051487E1,0E0,1.158844E1,5.7920517E1,2.837622E1,0E0,4.9081543E1,4.9235245E1,2.7721367E1,2.2609344E1,0E0,0E0,0E0,0E0,0E0,0E0,0E0,0E0,0E0,0E0,0E0,0E0,0E0,0E0,0E0,0E0,0E0,0E0],"parents":[2147483647,0,0,1,1,2,2,3,3,4,4,6,6,7,7,8,8,9,9,10,10,11,11,12,12,14,14,17,17,19,19,21,21,22,22,23,23,26,26,27,27,29,29,30,30,31,31,33,33,34,34,35,35,36,36],"right_children":[2,4,6,8,10,-1,12,14,16,18,20,22,24,-1,26,-1,-1,28,-1,30,-1,32,34,36,-1,-1,38,40,-1,42,44,46,-1,48,50,52,54,-1,-1,-1,-1,-1,-1,-1,-1,-1,-1,-1,-1,-1,-1,-1,-1,-1,-1],"split_conditions":[1.386E3,8.9E0,3.37705E4,1.382E3,7.1136E4,7.3745385E-2,7.3818E4,8.7E0,8.8E0,2.993E2,6.4E1,4.43E1,8.56482E4,7.510279E-2,5.48E1,-6.112892E-2,6.81642E-2,1E0,-7.742671E-2,1E0,7.3446564E-2,6.11488E4,6.53293E4,9.5E0,7.4153505E-2,-6.279687E-2,3.014E2,2.985E2,-7.276774E-2,1.354E3,6.09E1,6.10236E4,-7.6273896E-2,6.35803E4,6.81615E4,7.44246E4,1E0,7.333512E-2,4.0842365E-2,-3.0750338E-2,4.6428688E-2,3.7758E-2,6.0567897E-2,-7.916498E-2,3.3585653E-2,-5.4680508E-2,2.0238E-2,-7.3701166E-2,3.0377328E-2,-7.830109E-2,-2.9980753E-2,2.2960912E-2,-8.038233E-2,4.0405624E-2,-1.9643197E-2],"split_indices":[3,6,7,3,7,0,7,6,6,1,4,4,7,0,4,0,0,0,0,0,0,7,7,6,0,0,1,1,0,3,4,7,0,7,7,7,0,0,0,0,0,0,0,0,0,0,0,0,0,0,0,0,0,0,0],"split_type":[0,0,0,0,0,0,0,0,0,0,0,0,0,0,0,0,0,0,0,0,0,0,0,0,0,0,0,0,0,0,0,0,0,0,0,0,0,0,0,0,0,0,0,0,0,0,0,0,0,0,0,0,0,0,0],"sum_hessian":[2.8429055E3,1.1017732E3,1.7411322E3,4.583067E2,6.4346655E2,1.2887794E2,1.6122543E3,4.4931256E2,8.994133E0,1.3805145E2,5.0541507E2,1.4038127E3,2.0844159E2,4.2550162E2,2.3810955E1,2.3989322E0,6.595201E0,8.068E1,5.7371452E1,2.9141174E2,2.1400331E2,1.0697372E3,3.3407553E2,1.2452283E2,8.391876E1,2.6265366E0,2.1184418E1,6.1358864E1,1.9321135E1,2.4576857E2,4.564319E1,9.079625E2,1.6177461E2,8.808966E1,2.4598589E2,2.6572065E1,9.795077E1,1.3582081E1,7.602337E0,2.4181164E1,3.71777E1,1.0508116E2,1.4068741E2,2.734948E1,1.829371E1,8.956156E2,1.2346921E1,1.231707E1,7.577259E1,7.7356575E1,1.686293E2,9.576471E0,1.6995594E1,7.910926E1,1.8841503E1],"tree_param":{"num_deleted":"0","num_feature":"8","num_nodes":"55","size_leaf_vector":"1"}},{"base_weights":[1.813583E-2,1.010621E0,-6.16483E-1,7.311172E-2,6.5051496E-1,-1.0425318E0,1.0412834E0,-2.6233026E-1,1.1955887E0,1.3085167E0,-1.2781945E0,7.807912E-1,1.4075248E0,-1.3528622E0,1.2297136E0,9.26383E-1,7.3286265E-2,5.875231E-1,7.089747E-2,-1.422681E0,1.1493982E0,-7.89006E-2,8.5507655E-1,-6.1014052E-2,1.4607998E0,-7.647124E-2,-4.532322E-1,-5.8206778E-2,1.2891642E0,-8.4227644E-2,1.3185613E0,1.0309829E0,-6.418502E-2,-1.4424393E0,-7.211564E-2,-6.37431E-2,1.2633089E0,8.913888E-1,-6.642632E-2,1.2981876E0,8.206878E-2,5.9280556E-2,-7.423434E-2,1.8396804E-2,6.9852695E-2,4.136416E-2,6.949861E-2,6.149885E-2,-3.942625E-2,-6.1021592E-2,-7.499399E-2,8.9662544E-2,-7.657426E-2,4.1764658E-2,6.8902954E-2,1.7345779E-2,5.23487E-2,6.945314E-2,-6.438817E-2],"categories":[],"categories_nodes":[],"categories_segments":[],"categories_sizes":[],"default_left":[0,0,0,0,0,0,0,0,0,0,0,0,0,0,0,0,0,0,0,0,0,0,0,0,0,0,0,0,0,0,0,0,0,0,0,0,0,0,0,0,0,0,0,0,0,0,0,0,0,0,0,0,0,0,0,0,0,0,0],"id":9,"left_children":[1,3,5,-1,7,9,11,13,15,17,19,21,23,25,27,29,-1,31,-1,33,35,-1,37,-1,39,-1,41,-1,43,-1,45,47,-1,49,51,-1,53,55,-1,57,-1,-1,-1,-1,-1,-1,-1,-1,-1,-1,-1,-1,-1,-1,-1,-1,-1,-1,-1],"loss_changes":[1.7694387E3,1.7724194E2,1.2113898E3,0E0,3.0453406E2,7.572649E2,3.2373962E1,3.749421E2,2.6495117E1,9.00882E0,4.3657495E2,3.766902E1,2.2023682E1,2.0434967E1,1.5361725E1,2.014314E2,0E0,1.6380785E1,0E0,3.1138672E1,2.0999199E1,0E0,1.7169037E1,0E0,2.0437012E0,0E0,4.1051407E1,0E0,8.978821E0,0E0,4.803833E0,6.4819107E0,0E0,1.2883789E1,5.156775E1,0E0,2.167221E0,1.6485703E1,0E0,2.0491394E1,0E0,0E0,0E0,0E0,0E0,0E0,0E0,0E0,0E0,0E0,0E0,0E0,0E0,0E0,0E0,0E0,0E0,0E0,0E0],"parents":[2147483647,0,0,1,1,2,2,4,4,5,5,6,6,7,7,8,8,9,9,10,10,11,11,12,12,13,13,14,14,15,15,17,17,19,19,20,20,22,22,24,24,26,26,28,28,30,30,31,31,33,33,34,34,36,36,37,37,39,39],"right_children":[2,4,6,-1,8,10,12,14,16,18,20,22,24,26,28,30,-1,32,-1,34,36,-1,38,-1,40,-1,42,-1,44,-1,46,48,-1,50,52,-1,54,56,-1,58,-1,-1,-1,-1,-1,-1,-1,-1,-1,-1,-1,-1,-1,-1,-1,-1,-1,-1,-1],"split_conditions":[1.382E3,8.7E0,2.05E2,7.311172E-2,5.75E1,1.58E1,4.59E1,1.94E2,1.71E2,2.45E3,5.75E1,1.428E3,2.07E2,3.118E2,1.323E3,6.25E1,7.3286265E-2,2.985E2,7.089747E-2,2.03E2,1.399E3,-7.89006E-2,1.15E1,-6.1014052E-2,2.2E2,-7.647124E-2,3.119E2,-5.8206778E-2,2.03E2,-8.4227644E-2,6.4E1,1.5E2,-6.418502E-2,1.44E3,1.386E3,-6.37431E-2,5.94E1,9.3E0,-6.642632E-2,1.462E3,8.206878E-2,5.9280556E-2,-7.423434E-2,1.8396804E-2,6.9852695E-2,4.136416E-2,6.949861E-2,6.149885E-2,-3.942625E-2,-6.1021592E-2,-7.499399E-2,8.9662544E-2,-7.657426E-2,4.1764658E-2,6.8902954E-2,1.7345779E-2,5.23487E-2,6.945314E-2,-6.438817E-2],"split_indices":[3,6,5,0,4,4,4,5,5,3,4,3,5,2,3,4,0,1,0,5,3,0,6,0,5,0,2,0,5,0,4,5,0,3,3,0,4,6,0,3,0,0,0,0,0,0,0,0,0,0,0,0,0,0,0,0,0,0,0],"split_type":[0,0,0,0,0,0,0,0,0,0,0,0,0,0,0,0,0,0,0,0,0,0,0,0,0,0,0,0,0,0,0,0,0,0,0,0,0,0,0,0,0,0,0,0,0,0,0,0,0,0,0,0,0,0,0,0,0,0,0],"sum_hessian":[2.8073142E3,1.0947047E3,1.7126094E3,4.8428998E2,6.1041473E2,1.3627511E3,3.4985828E2,2.2841034E2,3.8200436E2,1.23738884E2,1.2390122E3,2.0627527E2,1.4358301E2,1.320145E2,9.639585E1,1.9355034E2,1.8845404E2,1.7145443E1,1.06593445E2,1.1698014E3,6.921078E1,5.6798186E0,2.0059546E2,2.4178233E0,1.4116519E2,1.0977069E2,2.2243803E1,1.885668E0,9.4510185E1,2.4845495E1,1.6870485E2,1.422363E1,2.9218135E0,1.1528673E3,1.6934153E1,2.6487186E0,6.656206E1,1.9789632E2,2.6991389E0,7.8586006E1,6.2579174E1,8.534371E0,1.3709431E1,1.0370529E1,8.4139656E1,2.3007486E1,1.4569736E2,1.3113456E1,1.1101744E0,2.415439E2,9.113234E2,7.3327036E0,9.601449E0,1.5822746E1,5.0739307E1,4.4699455E1,1.5319685E2,7.6365234E1,2.220774E0],"tree_param":{"num_deleted":"0","num_feature":"8","num_nodes":"59","size_leaf_vector":"1"}},{"base_weights":[3.0206006E-2,9.5059305E-1,-5.1971376E-1,7.699264E-1,1.3507701E0,-9.6144336E-1,9.6806955E-1,-2.1530385E-1,1.008448E0,1.2121978E0,7.086127E-2,7.003263E-2,-1.1891063E0,7.675994E-1,1.3328024E0,-7.440607E-2,1.2025778E0,1.0697955E0,-1.7306904E-1,-6.211232E-2,1.2690572E0,-1.378255E0,1.2384105E0,9.382824E-1,-3.4081575E-1,8.242551E-1,1.4073657E0,1.3395355E0,-6.9281004E-2,9.7998106E-1,1.3405622E0,-7.545277E-2,6.322507E-2,9.5472205E-1,7.3249415E-2,-1.1447479E0,-1.4210516E0,4.9524024E-1,7.18924E-2,5.7230145E-1,1.2536621E0,8.652065E-1,-8.3545834E-2,1.4943278E0,-6.703995E-2,1.1496766E0,7.407027E-2,7.1863204E-2,-5.7518642E-2,4.964223E-2,-6.0526337E-2,7.016746E-2,2.0147989E-2,5.8609337E-2,-7.6743856E-2,-7.2814696E-2,2.7880205E-2,-6.415349E-2,-7.313688E-2,-7.177438E-2,6.873133E-2,6.346335E-2,-1.7010687E-2,6.533618E-2,-6.161941E-2,-6.660508E-2,7.546406E-2,9.092217E-2,5.085689E-2,-7.231372E-2,7.633638E-2],"categories":[],"categories_nodes":[],"categories_segments":[],"categories_sizes":[],"default_left":[0,0,0,0,0,0,0,0,0,0,0,0,0,0,0,0,0,0,0,0,0,0,0,0,0,0,0,0,0,0,0,0,0,0,0,0,0,0,0,0,0,0,0,0,0,0,0,0,0,0,0,0,0,0,0,0,0,0,0,0,0,0,0,0,0,0,0,0,0,0,0],"id":10,"left_children":[1,3,5,7,9,11,13,15,17,19,-1,-1,21,23,25,-1,27,29,31,-1,33,35,37,39,41,43,45,47,-1,49,51,-1,-1,53,-1,55,57,59,-1,61,63,65,-1,67,-1,69,-1,-1,-1,-1,-1,-1,-1,-1,-1,-1,-1,-1,-1,-1,-1,-1,-1,-1,-1,-1,-1,-1,-1,-1,-1],"loss_changes":[1.3835168E3,7.2874756E1,1.1254902E3,1.6628699E2,1.1982422E0,7.1146094E2,2.7656464E1,2.5185658E2,4.1436707E1,1.68656E1,0E0,0E0,5.547283E2,4.8652084E1,4.0637817E0,0E0,2.5286713E1,1.1846802E1,5.7513454E1,0E0,5.2262573E0,9.544189E0,1.227005E1,2.486589E1,5.730776E1,3.1061245E1,5.621948E-1,1.7053192E1,0E0,1.2757385E1,7.2098083E0,0E0,0E0,2.5715439E1,0E0,9.536624E1,3.5332031E0,3.6028152E1,0E0,6.685102E1,1.720456E1,2.8790436E1,0E0,5.8922577E-1,0E0,3.2517918E1,0E0,0E0,0E0,0E0,0E0,0E0,0E0,0E0,0E0,0E0,0E0,0E0,0E0,0E0,0E0,0E0,0E0,0E0,0E0,0E0,0E0,0E0,0E0,0E0,0E0],"parents":[2147483647,0,0,1,1,2,2,3,3,4,4,5,5,6,6,7,7,8,8,9,9,12,12,13,13,14,14,16,16,17,17,18,18,20,20,21,21,22,22,23,23,24,24,25,25,26,26,27,27,29,29,30,30,33,33,35,35,36,36,37,37,39,39,40,40,41,41,43,43,45,45],"right_children":[2,4,6,8,10,12,14,16,18,20,-1,-1,22,24,26,-1,28,30,32,-1,34,36,38,40,42,44,46,48,-1,50,52,-1,-1,54,-1,56,58,60,-1,62,64,66,-1,68,-1,70,-1,-1,-1,-1,-1,-1,-1,-1,-1,-1,-1,-1,-1,-1,-1,-1,-1,-1,-1,-1,-1,-1,-1,-1,-1],"split_conditions":[1.382E3,8.14653E4,2.02E2,3.098E2,8.56482E4,3.37705E4,4.59E1,1.89E2,3.121E2,4.2E1,7.086127E-2,7.003263E-2,5.75E1,6.01425E4,2.07E2,-7.440607E-2,1E0,1.95E2,1.93E2,-6.211232E-2,1.74E2,4.8737E4,8.56482E4,2.14E2,1.443E3,1.402E3,3.097E2,3.089E2,-6.9281004E-2,1.9E2,1E0,-7.545277E-2,6.322507E-2,1.14E2,7.3249415E-2,4.81873E4,1.44E3,1.73E2,7.18924E-2,1.55E3,2.35E2,1.434E3,-8.3545834E-2,4.64E1,-6.703995E-2,7.2352E4,7.407027E-2,7.1863204E-2,-5.7518642E-2,4.964223E-2,-6.0526337E-2,7.016746E-2,2.0147989E-2,5.8609337E-2,-7.6743856E-2,-7.2814696E-2,2.7880205E-2,-6.415349E-2,-7.313688E-2,-7.177438E-2,6.873133E-2,6.346335E-2,-1.7010687E-2,6.533618E-2,-6.161941E-2,-6.660508E-2,7.546406E-2,9.092217E-2,5.085689E-2,-7.231372E-2,7.633638E-2],"split_indices":[3,7,5,2,7,7,4,5,2,5,0,0,4,7,5,0,0,5,5,0,5,7,7,5,3,3,2,2,0,5,0,0,0,5,0,7,3,5,0,3,5,3,0,4,0,7,0,0,0,0,0,0,0,0,0,0,0,0,0,0,0,0,0,0,0,0,0,0,0,0,0],"split_type":[0,0,0,0,0,0,0,0,0,0,0,0,0,0,0,0,0,0,0,0,0,0,0,0,0,0,0,0,0,0,0,0,0,0,0,0,0,0,0,0,0,0,0,0,0,0,0,0,0,0,0,0,0,0,0,0,0,0,0,0,0,0,0,0,0,0,0,0,0,0,0],"sum_hessian":[2.7314958E3,1.0213534E3,1.7101426E3,7.056844E2,3.1566904E2,1.3189069E3,3.912357E2,1.3756393E2,5.681204E2,1.0855398E2,2.0711507E2,1.1549079E2,1.203416E3,2.5447289E2,1.367628E2,7.246412E1,6.509982E1,5.40168E2,2.7952408E1,1.9857868E0,1.0656819E2,1.1168268E3,8.658932E1,2.20649E2,3.3823875E1,1.9029488E1,1.17733315E2,6.2286312E1,2.8135118E0,4.0909033E2,1.310777E2,1.4462321E1,1.3490086E1,4.3174873E1,6.339332E1,1.7728273E2,9.39544E2,1.905759E1,6.753173E1,1.0343406E2,1.1721495E2,1.7922657E1,1.590122E1,1.476851E1,4.260978E0,2.996617E1,8.776714E1,6.034071E1,1.9456017E0,4.0724554E2,1.844775E0,1.2238536E2,8.692337E0,4.019319E1,2.9816794E0,1.4997961E2,2.7303104E1,2.253634E2,7.141806E2,5.765917E0,1.3291674E1,5.842157E1,4.501249E1,1.152299E2,1.9850534E0,3.8204997E0,1.4102158E1,7.121043E0,7.6474667E0,3.4408135E0,2.6525356E1],"tree_param":{"num_deleted":"0","num_feature":"8","num_nodes":"71","size_leaf_vector":"1"}},{"base_weights":[-9.548214E-3,9.0565586E-1,-6.1723554E-1,1.3658687E0,5.5213666E-1,6.834523E-2,-7.8962886E-1,1.3801659E0,-5.8868933E-2,-6.00982E-1,9.1547537E-1,-9.6768004E-1,7.358998E-1,7.074248E-2,1.2272066E0,-1.2383523E0,2.2154932E-1,6.258308E-1,6.8842664E-2,-1.0228431E0,-4.9787647E-1,1.3342457E-1,6.959351E-2,6.464679E-1,1.2713847E0,-5.6785995E-1,-7.406803E-2,5.738396E-1,-6.833743E-2,8.6869377E-1,-6.0811746E-1,-8.4521157E-1,-1.3504924E0,-7.195666E-2,-1.8061891E-1,3.7024295E-1,-6.935673E-2,5.708712E-2,-5.8227725E-2,6.6059776E-2,4.6824597E-2,-6.879045E-2,3.762832E-2,4.436884E-2,-6.2462956E-2,-6.601189E-2,4.6556413E-2,-4.9507868E-2,3.297222E-2,-4.4521954E-2,2.4685543E-2,2.7861802E-2,-7.026256E-2,-3.4302324E-2,2.0672193E-2,-5.397546E-3,5.084088E-2],"categories":[],"categories_nodes":[],"categories_segments":[],"categories_sizes":[],"default_left":[0,0,0,0,0,0,0,0,0,0,0,0,0,0,0,0,0,0,0,0,0,0,0,0,0,0,0,0,0,0,0,0,0,0,0,0,0,0,0,0,0,0,0,0,0,0,0,0,0,0,0,0,0,0,0,0,0],"id":11,"left_children":[1,3,5,7,9,-1,11,13,-1,15,17,19,21,-1,23,25,27,29,-1,31,33,35,-1,37,39,41,-1,43,-1,45,47,49,51,-1,53,55,-1,-1,-1,-1,-1,-1,-1,-1,-1,-1,-1,-1,-1,-1,-1,-1,-1,-1,-1,-1,-1],"loss_changes":[1.4563268E3,1.6924445E2,5.39349E2,1.8106506E1,2.4884549E2,0E0,3.9415216E2,6.5734863E-1,0E0,7.503123E1,5.9412415E1,3.3117188E1,5.9868774E1,0E0,1.5112E0,1.2273857E1,3.6093273E1,8.411444E1,0E0,6.638513E1,4.1036736E1,2.943455E1,0E0,8.920819E0,1.5518188E-1,2.5609064E1,0E0,3.1033453E1,0E0,3.313524E1,2.3149946E1,4.616107E1,4.3217407E1,0E0,3.1682323E1,2.183979E1,0E0,0E0,0E0,0E0,0E0,0E0,0E0,0E0,0E0,0E0,0E0,0E0,0E0,0E0,0E0,0E0,0E0,0E0,0E0,0E0,0E0],"parents":[2147483647,0,0,1,1,2,2,3,3,4,4,6,6,7,7,9,9,10,10,11,11,12,12,14,14,15,15,16,16,17,17,19,19,20,20,21,21,23,23,24,24,25,25,27,27,29,29,30,30,31,31,32,32,34,34,35,35],"right_children":[2,4,6,8,10,-1,12,14,-1,16,18,20,22,-1,24,26,28,30,-1,32,34,36,-1,38,40,42,-1,44,-1,46,48,50,52,-1,54,56,-1,-1,-1,-1,-1,-1,-1,-1,-1,-1,-1,-1,-1,-1,-1,-1,-1,-1,-1,-1,-1],"split_conditions":[1.389E3,8.9E0,3.37705E4,3.123E2,7.1136E4,6.834523E-2,5.21E1,8.6E0,-5.8868933E-2,1.1E1,8.56482E4,4.77E1,8.56482E4,7.074248E-2,4.78E1,3.086E2,3.105E2,1E0,6.8842664E-2,3.91E1,3.093E2,1.1E1,6.959351E-2,1.326E3,3.11E2,3.085E2,-7.406803E-2,1E0,-6.833743E-2,3.081E2,3.118E2,3.89E1,7.9E0,-7.195666E-2,1.01E1,3.116E2,-6.935673E-2,5.708712E-2,-5.8227725E-2,6.6059776E-2,4.6824597E-2,-6.879045E-2,3.762832E-2,4.436884E-2,-6.2462956E-2,-6.601189E-2,4.6556413E-2,-4.9507868E-2,3.297222E-2,-4.4521954E-2,2.4685543E-2,2.7861802E-2,-7.026256E-2,-3.4302324E-2,2.0672193E-2,-5.397546E-3,5.084088E-2],"split_indices":[3,6,7,2,7,0,4,6,0,6,7,4,7,0,4,2,2,0,0,4,2,6,0,3,2,2,0,0,0,2,2,4,6,0,6,2,0,0,0,0,0,0,0,0,0,0,0,0,0,0,0,0,0,0,0,0,0],"split_type":[0,0,0,0,0,0,0,0,0,0,0,0,0,0,0,0,0,0,0,0,0,0,0,0,0,0,0,0,0,0,0,0,0,0,0,0,0,0,0,0,0,0,0,0,0,0,0,0,0,0,0,0,0,0,0,0,0],"sum_hessian":[2.616544E3,1.0438976E3,1.5726464E3,4.5226868E2,5.916289E2,1.2516347E2,1.4474829E3,4.5019516E2,2.0735142E0,1.4159584E2,4.5003305E2,1.2965254E3,1.509575E2,3.6025708E2,8.993807E1,7.949248E1,6.210336E1,2.779178E2,1.7211525E2,1.159234E3,1.3729135E2,7.9314545E1,7.164296E1,7.4633155E0,8.247476E1,2.2034142E1,5.7458332E1,5.1352005E1,1.0751354E1,2.3246129E2,4.5456505E1,7.5402637E2,4.0520764E2,3.3718204E1,1.0357314E2,6.9280945E1,1.0033602E1,6.1507745E0,1.3125412E0,6.923228E1,1.3242483E1,1.3643776E1,8.390365E0,4.425438E1,7.0976253E0,5.887887E0,2.265734E2,3.509716E1,1.0359345E1,7.297124E2,2.4314013E1,1.1050361E1,3.941573E2,5.5877678E1,4.7695465E1,4.0305115E1,2.8975828E1],"tree_param":{"num_deleted":"0","num_feature":"8","num_nodes":"57","size_leaf_vector":"1"}},{"base_weights":[5.5109486E-2,-3.9806536E-1,9.5728874E-1,-7.4226797E-1,9.4059235E-1,6.511085E-1,1.2843331E0,6.6221845E-1,-1.0974035E0,7.381652E-1,1.2679096E0,7.725583E-2,1.2988273E0,-5.6351107E-2,1.2998974E0,-9.0216845E-1,1.1093146E0,6.607017E-2,-1.3403437E0,8.8665724E-1,-8.307276E-2,-5.7103228E-2,1.3097881E0,1.2782141E0,-7.7438615E-2,1.173425E0,7.116386E-2,1.1078064E0,6.851595E-2,6.349477E-2,-6.9463305E-2,1.1577815E0,-6.1368924E-2,-1.0598221E0,-1.3891882E0,7.252721E-1,1.4160441E0,1.0485547E0,7.57508E-2,1.3109218E0,6.0285383E-1,-7.885086E-2,1.339602E0,-7.0178084E-2,1.1923321E0,1.728226E-2,6.1683185E-2,-7.019669E-2,3.45089E-2,-5.75728E-2,-7.099677E-2,4.1443747E-2,-7.169429E-2,3.5401117E-2,7.5979136E-2,6.4140804E-2,-7.071997E-2,6.6480406E-2,4.0332515E-2,-5.892567E-2,6.0057778E-2,4.7773924E-2,7.104529E-2,4.2563282E-2,7.13775E-2],"categories":[],"categories_nodes":[],"categories_segments":[],"categories_sizes":[],"default_left":[0,0,0,0,0,0,0,0,0,0,0,0,0,0,0,0,0,0,0,0,0,0,0,0,0,0,0,0,0,0,0,0,0,0,0,0,0,0,0,0,0,0,0,0,0,0,0,0,0,0,0,0,0,0,0,0,0,0,0,0,0,0,0,0,0],"id":12,"left_children":[1,3,5,7,9,11,13,15,17,19,21,23,25,-1,27,29,31,-1,33,35,-1,-1,37,39,-1,41,-1,43,-1,-1,-1,45,-1,47,49,51,53,55,-1,57,59,-1,61,-1,63,-1,-1,-1,-1,-1,-1,-1,-1,-1,-1,-1,-1,-1,-1,-1,-1,-1,-1,-1,-1],"loss_changes":[1.1036361E3,8.286627E2,8.954028E1,7.139591E2,2.344516E1,1.7391722E2,1.7805237E1,2.0329184E2,6.7267664E2,8.33406E1,1.5546463E1,4.888192E2,1.7612E0,0E0,4.339966E0,7.036272E1,2.6946411E1,0E0,1.2750366E1,1.7513962E1,0E0,0E0,5.772644E0,2.3893127E0,0E0,5.477124E1,0E0,2.744159E1,0E0,0E0,0E0,1.3212738E1,0E0,9.6208206E1,4.803711E0,3.885115E1,2.56398E0,3.854325E1,0E0,2.1318054E-1,1.0475422E1,0E0,2.0523682E0,0E0,8.249542E0,0E0,0E0,0E0,0E0,0E0,0E0,0E0,0E0,0E0,0E0,0E0,0E0,0E0,0E0,0E0,0E0,0E0,0E0,0E0,0E0],"parents":[2147483647,0,0,1,1,2,2,3,3,4,4,5,5,6,6,7,7,8,8,9,9,10,10,11,11,12,12,14,14,15,15,16,16,18,18,19,19,22,22,23,23,25,25,27,27,31,31,33,33,34,34,35,35,36,36,37,37,39,39,40,40,42,42,44,44],"right_children":[2,4,6,8,10,12,14,16,18,20,22,24,26,-1,28,30,32,-1,34,36,-1,-1,38,40,-1,42,-1,44,-1,-1,-1,46,-1,48,50,52,54,56,-1,58,60,-1,62,-1,64,-1,-1,-1,-1,-1,-1,-1,-1,-1,-1,-1,-1,-1,-1,-1,-1,-1,-1,-1,-1],"split_conditions":[5.21E1,2.03E2,8.14653E4,8.7E0,2.2E2,1.83E2,5.82E1,4.15E1,3.37705E4,6.52267E4,2.972E2,8.7E0,2.06E2,-5.6351107E-2,8.56482E4,3.37705E4,7.0834E4,6.607017E-2,4.8737E4,4.42E1,-8.307276E-2,-5.7103228E-2,4.53E1,7.80426E4,-7.7438615E-2,5.54E1,7.116386E-2,4.2E1,6.851595E-2,6.349477E-2,-6.9463305E-2,4.43E1,-6.1368924E-2,4.81873E4,2.1E1,4.14E1,6.34658E4,5.97891E4,7.57508E-2,8.6E0,6.03E1,-7.885086E-2,3.097E2,-7.0178084E-2,1.66E2,1.728226E-2,6.1683185E-2,-7.019669E-2,3.45089E-2,-5.75728E-2,-7.099677E-2,4.1443747E-2,-7.169429E-2,3.5401117E-2,7.5979136E-2,6.4140804E-2,-7.071997E-2,6.6480406E-2,4.0332515E-2,-5.892567E-2,6.0057778E-2,4.7773924E-2,7.104529E-2,4.2563282E-2,7.13775E-2],"split_indices":[4,5,7,6,5,5,4,4,7,7,1,6,5,0,7,7,7,0,7,4,0,0,4,7,0,4,0,5,0,0,0,4,0,7,5,4,7,7,0,6,4,0,2,0,5,0,0,0,0,0,0,0,0,0,0,0,0,0,0,0,0,0,0,0,0],"split_type":[0,0,0,0,0,0,0,0,0,0,0,0,0,0,0,0,0,0,0,0,0,0,0,0,0,0,0,0,0,0,0,0,0,0,0,0,0,0,0,0,0,0,0,0,0,0,0,0,0,0,0,0,0,0,0,0,0,0,0,0,0,0,0,0,0],"sum_hessian":[2.697468E3,1.7959174E3,9.0155084E2,1.4289451E3,3.669722E2,4.6717273E2,4.343781E2,2.882222E2,1.1407229E3,2.2875528E2,1.3821693E2,2.4830437E2,2.1886835E2,2.3277853E0,4.3205032E2,6.3837456E1,2.2438475E2,1.037097E2,1.0370132E3,2.1601825E2,1.273703E1,1.91207E0,1.3630486E2,1.4294292E2,1.0536144E2,1.1421164E2,1.04656715E2,1.2038993E2,3.116604E2,1.1399183E1,5.243827E1,2.2031947E2,4.0652723E0,1.571534E2,8.798598E2,1.673662E2,4.8652054E1,6.2657604E1,7.3647255E1,1.3544237E2,7.50055E0,6.023587E0,1.0818805E2,3.4119332E0,1.16978E2,1.9301233E1,2.0101825E2,1.3149467E2,2.5658733E1,1.0516792E2,7.7469183E2,1.6029108E2,7.0751286E0,7.2070055E0,4.1445045E1,5.765314E1,5.0044637E0,1.2902454E2,6.4178348E0,1.6419847E0,5.858565E0,2.1126547E1,8.706151E1,4.963138E1,6.734662E1],"tree_param":{"num_deleted":"0","num_feature":"8","num_nodes":"65","size_leaf_vector":"1"}},{"base_weights":[5.192931E-2,8.979579E-1,-4.4634894E-1,6.764495E-2,5.454167E-1,-8.330949E-1,1.0035673E0,-2.6144758E-1,1.0146245E0,1.2076317E0,-1.0450538E0,8.9227813E-1,1.3441799E0,-1.2493199E0,1.165696E0,6.7789793E-1,1.3404076E0,6.5511376E-2,4.7957942E-1,-1.2487499E0,1.1359727E0,9.275448E-1,-7.103386E-2,-6.079608E-2,1.4349456E0,-7.1844816E-2,-3.1786475E-1,-5.1368028E-2,1.222198E0,-7.909971E-2,1.1793234E0,9.5514923E-1,6.817012E-2,4.8252128E-2,-6.2377628E-2,-1.2662481E0,-1.7019215E-1,1.1715068E0,-4.3316435E-2,1.0690819E0,5.29613E-1,1.5052258E0,7.0027226E-1,4.728579E-2,-6.7706965E-2,1.8413333E-2,6.577356E-2,4.3258693E-2,6.593343E-2,-5.268676E-2,6.2036086E-2,-5.301109E-2,-6.5950885E-2,5.0345708E-2,-7.099911E-2,4.5583658E-2,6.7407206E-2,7.5941995E-2,4.7437157E-2,-8.807288E-2,3.8351297E-2,5.6276508E-2,7.9083994E-2,-5.5607397E-2,6.3792326E-2],"categories":[],"categories_nodes":[],"categories_segments":[],"categories_sizes":[],"default_left":[0,0,0,0,0,0,0,0,0,0,0,0,0,0,0,0,0,0,0,0,0,0,0,0,0,0,0,0,0,0,0,0,0,0,0,0,0,0,0,0,0,0,0,0,0,0,0,0,0,0,0,0,0,0,0,0,0,0,0,0,0,0,0,0,0],"id":13,"left_children":[1,3,5,-1,7,9,11,13,15,17,19,21,23,25,27,29,31,-1,33,35,37,39,-1,-1,41,-1,43,-1,45,-1,47,49,-1,-1,-1,51,53,55,-1,57,59,61,63,-1,-1,-1,-1,-1,-1,-1,-1,-1,-1,-1,-1,-1,-1,-1,-1,-1,-1,-1,-1,-1,-1],"loss_changes":[1.1007241E3,1.5448328E2,9.223359E2,0E0,2.0732999E2,5.6264545E2,1.1934906E1,2.8610724E2,3.7051575E1,8.527817E0,5.2399365E2,2.2863312E1,2.1114029E1,2.0474045E1,1.1553558E1,1.9697896E2,2.4676514E-1,0E0,1.52209835E1,2.0096802E1,8.200806E0,1.4121109E1,0E0,0E0,3.1261597E0,0E0,2.9256124E1,0E0,6.005066E0,0E0,5.052887E0,8.873206E0,0E0,0E0,0E0,1.0114258E1,2.840691E1,3.3450012E0,0E0,8.91684E0,3.964338E1,3.3952332E-1,1.074346E1,0E0,0E0,0E0,0E0,0E0,0E0,0E0,0E0,0E0,0E0,0E0,0E0,0E0,0E0,0E0,0E0,0E0,0E0,0E0,0E0,0E0,0E0],"parents":[2147483647,0,0,1,1,2,2,4,4,5,5,6,6,7,7,8,8,9,9,10,10,11,11,12,12,13,13,14,14,15,15,16,16,18,18,19,19,20,20,21,21,24,24,26,26,28,28,30,30,31,31,35,35,36,36,37,37,39,39,40,40,41,41,42,42],"right_children":[2,4,6,-1,8,10,12,14,16,18,20,22,24,26,28,30,32,-1,34,36,38,40,-1,-1,42,-1,44,-1,46,-1,48,50,-1,-1,-1,52,54,56,-1,58,60,62,64,-1,-1,-1,-1,-1,-1,-1,-1,-1,-1,-1,-1,-1,-1,-1,-1,-1,-1,-1,-1,-1,-1],"split_conditions":[1.382E3,8.7E0,2.05E2,6.764495E-2,5.67E1,1.58E1,2.25E2,2E2,1.71E2,1.38E1,5.67E1,2.23E2,2.977E2,3.118E2,1.323E3,6.25E1,1.79E2,6.5511376E-2,2.985E2,2.03E2,1.13E1,1.568E3,-7.103386E-2,-6.079608E-2,2.35E2,-7.1844816E-2,3.119E2,-5.1368028E-2,2.07E2,-7.909971E-2,6.72E1,6.4E1,6.817012E-2,4.8252128E-2,-6.2377628E-2,1.44E3,3.085E2,6.09E1,-4.3316435E-2,3.6E1,1.613E3,8.9E0,4.93E1,4.728579E-2,-6.7706965E-2,1.8413333E-2,6.577356E-2,4.3258693E-2,6.593343E-2,-5.268676E-2,6.2036086E-2,-5.301109E-2,-6.5950885E-2,5.0345708E-2,-7.099911E-2,4.5583658E-2,6.7407206E-2,7.5941995E-2,4.7437157E-2,-8.807288E-2,3.8351297E-2,5.6276508E-2,7.9083994E-2,-5.5607397E-2,6.3792326E-2],"split_indices":[3,6,5,0,4,4,5,5,5,4,4,5,1,2,3,4,5,0,1,5,6,3,0,0,5,0,2,0,5,0,4,4,0,0,0,3,2,4,0,4,3,6,4,0,0,0,0,0,0,0,0,0,0,0,0,0,0,0,0,0,0,0,0,0,0],"split_type":[0,0,0,0,0,0,0,0,0,0,0,0,0,0,0,0,0,0,0,0,0,0,0,0,0,0,0,0,0,0,0,0,0,0,0,0,0,0,0,0,0,0,0,0,0,0,0,0,0,0,0,0,0,0,0,0,0,0,0,0,0,0,0,0,0],"sum_hessian":[2.6091372E3,9.668006E2,1.6423367E3,4.2085968E2,5.459409E2,1.2968457E3,3.45491E2,2.0090361E2,3.4503732E2,1.2158036E2,1.1752653E3,2.6313562E2,8.235538E1,1.1879679E2,8.210683E1,1.7118396E2,1.7385336E2,1.0586274E2,1.5717627E1,1.0752686E3,9.999677E1,2.597737E2,3.3619006E0,2.395401E0,7.995998E1,9.843193E1,2.0364859E1,1.6306919E0,8.0476135E1,3.0693838E1,1.4049013E2,1.2188169E1,1.6166519E2,1.2613472E1,3.1041553E0,1.0579309E3,1.7337606E1,9.8660805E1,1.3359735E0,1.9037437E2,6.9399345E1,7.202143E1,7.9385424E0,9.215425E0,1.1149434E1,8.411921E0,7.206421E1,4.538341E1,9.510671E1,1.1821718E0,1.1005997E1,2.2001729E2,8.3791364E2,9.028504E0,8.309102E0,4.242089E1,5.6239914E1,3.7732063E1,1.526423E2,5.9135275E0,6.3485817E1,1.4706385E1,5.731505E1,1.688717E0,6.2498255E0],"tree_param":{"num_deleted":"0","num_feature":"8","num_nodes":"65","size_leaf_vector":"1"}},{"base_weights":[-1.2356599E-2,-5.745157E-1,6.811354E-1,-8.608854E-1,7.372514E-1,4.2508224E-1,1.1541766E0,6.3109584E-2,-1.0660479E0,7.72016E-1,-6.7361645E-2,1.2093134E0,-5.064188E-2,8.068999E-1,1.3099371E0,3.407059E-2,-1.2423843E0,8.757038E-1,1.7034794E-1,5.2313757E-1,6.1380118E-2,-9.643046E-1,6.528663E-2,-4.4138822E-1,1.1879843E0,6.791652E-2,1.000742E0,-6.71313E-2,8.084253E-1,-1.2647021E0,-3.2795172E-2,6.183361E-1,1.0889997E0,-7.53653E-2,1.0929738E0,5.874039E-2,-5.3515036E-2,-7.184232E-2,-3.970204E-1,5.5849057E-2,-7.439085E-2,4.7988793E-1,1.2553889E0,-7.567559E-2,6.5365754E-2,4.7107775E-2,-6.2007394E-2,-5.0170727E-2,-6.596972E-2,-7.1395814E-2,7.0023775E-2,4.320496E-2,-4.0415726E-3,-7.612866E-2,5.7831198E-2,6.846461E-2,-5.993991E-2,4.5326624E-2,-3.566266E-2,-6.88402E-2,6.458439E-2,6.642695E-2,4.2957958E-2],"categories":[],"categories_nodes":[],"categories_segments":[],"categories_sizes":[],"default_left":[0,0,0,0,0,0,0,0,0,0,0,0,0,0,0,0,0,0,0,0,0,0,0,0,0,0,0,0,0,0,0,0,0,0,0,0,0,0,0,0,0,0,0,0,0,0,0,0,0,0,0,0,0,0,0,0,0,0,0,0,0,0,0],"id":14,"left_children":[1,3,5,7,9,11,13,-1,15,17,-1,19,21,23,25,27,29,31,33,35,-1,37,-1,39,41,-1,43,-1,45,47,49,51,53,-1,55,-1,-1,-1,57,-1,-1,59,61,-1,-1,-1,-1,-1,-1,-1,-1,-1,-1,-1,-1,-1,-1,-1,-1,-1,-1,-1,-1],"loss_changes":[9.592299E2,5.1110962E2,1.3293674E2,4.873911E2,1.8724838E1,2.6729468E2,1.983783E1,0E0,1.9754077E2,1.48654175E1,0E0,2.7523499E0,5.5496606E2,5.8661537E1,2.6069336E0,1.5205592E2,2.3646118E1,1.058313E1,5.8330727E1,1.0358978E1,0E0,7.114897E1,0E0,4.946294E1,3.8793182E0,0E0,3.2557285E1,0E0,2.6169716E1,1.0987671E1,3.583917E1,1.643489E1,2.1331253E1,0E0,1.6970612E1,0E0,0E0,0E0,5.133618E1,0E0,0E0,1.6519981E1,1.3257141E0,0E0,0E0,0E0,0E0,0E0,0E0,0E0,0E0,0E0,0E0,0E0,0E0,0E0,0E0,0E0,0E0,0E0,0E0,0E0,0E0],"parents":[2147483647,0,0,1,1,2,2,3,3,4,4,5,5,6,6,8,8,9,9,11,11,12,12,13,13,14,14,15,15,16,16,17,17,18,18,19,19,21,21,23,23,24,24,26,26,28,28,29,29,30,30,31,31,32,32,34,34,38,38,41,41,42,42],"right_children":[2,4,6,8,10,12,14,-1,16,18,-1,20,22,24,26,28,30,32,34,36,-1,38,-1,40,42,-1,44,-1,46,48,50,52,54,-1,56,-1,-1,-1,58,-1,-1,60,62,-1,-1,-1,-1,-1,-1,-1,-1,-1,-1,-1,-1,-1,-1,-1,-1,-1,-1,-1,-1],"split_conditions":[4.77E1,2.05E2,1.87E2,3.37705E4,1.16E1,8.7E0,7.3584E4,6.3109584E-2,8.7E0,6.11488E4,-6.7361645E-2,3.018E2,8.56482E4,2.07E2,1E0,4.15E1,2.03E2,2.14E2,4.59E1,3.009E2,6.1380118E-2,3.006E2,6.528663E-2,8.5E0,2.12E2,6.791652E-2,5.94E1,-6.71313E-2,6.52267E4,4.8737E4,4.51E1,1E0,8.6E0,-7.53653E-2,4.65E1,5.874039E-2,-5.3515036E-2,-7.184232E-2,4.87E1,5.5849057E-2,-7.439085E-2,5.24E1,1E0,-7.567559E-2,6.5365754E-2,4.7107775E-2,-6.2007394E-2,-5.0170727E-2,-6.596972E-2,-7.1395814E-2,7.0023775E-2,4.320496E-2,-4.0415726E-3,-7.612866E-2,5.7831198E-2,6.846461E-2,-5.993991E-2,4.5326624E-2,-3.566266E-2,-6.88402E-2,6.458439E-2,6.642695E-2,4.2957958E-2],"split_indices":[4,5,5,7,6,6,7,0,6,7,0,1,7,5,0,4,5,5,4,1,0,1,0,6,5,0,4,0,7,7,4,0,6,0,4,0,0,0,4,0,0,4,0,0,0,0,0,0,0,0,0,0,0,0,0,0,0,0,0,0,0,0,0],"split_type":[0,0,0,0,0,0,0,0,0,0,0,0,0,0,0,0,0,0,0,0,0,0,0,0,0,0,0,0,0,0,0,0,0,0,0,0,0,0,0,0,0,0,0,0,0,0,0,0,0,0,0,0,0,0,0,0,0,0,0,0,0,0,0],"sum_hessian":[2.4584885E3,1.3579099E3,1.1005786E3,1.1148685E3,2.4304134E2,7.1529443E2,3.8528412E2,9.778731E1,1.01708124E3,2.3967375E2,3.3675888E0,2.694931E2,4.4580136E2,1.2121313E2,2.64071E2,1.4061652E2,8.764647E2,2.0405302E2,3.5620728E1,7.7650366E0,2.6172806E2,2.6654437E2,1.7925699E2,2.8312822E1,9.290031E1,2.2539983E2,3.8671173E1,5.035621E1,9.026031E1,8.605415E2,1.5923204E1,9.423992E1,1.09813095E2,1.2414021E1,2.3206709E1,5.697603E0,2.0674336E0,1.4457886E2,1.2196551E2,1.1347059E1,1.6965763E1,8.780372E0,8.4119934E1,3.7749949E0,3.489618E1,8.523621E1,5.024099E0,1.5229784E2,7.082437E2,8.070882E0,7.8523226E0,6.95549E1,2.468502E1,2.2286816E0,1.0758442E2,2.1068949E1,2.1377592E0,2.3447044E1,9.851846E1,2.4594045E0,6.3209677E0,6.902408E1,1.5095854E1],"tree_param":{"num_deleted":"0","num_feature":"8","num_nodes":"63","size_leaf_vector":"1"}},{"base_weights":[7.191913E-2,8.878663E-1,-4.27706E-1,6.537467E-2,5.687647E-1,6.369046E-2,-5.8150035E-1,-6.125395E-1,8.764235E-1,-7.601265E-1,7.2861135E-1,-7.913981E-2,-6.897702E-2,6.06299E-1,6.460271E-2,-3.0147892E-1,-9.0128756E-1,2.8582624E-1,6.4285465E-2,2.7214506E-1,-6.2981755E-2,8.0704486E-1,-1.3550249E-1,-1.1336864E0,4.6626695E-2,-9.190262E-1,6.0758848E-2,4.3751702E-1,-6.2716916E-2,-1.2727472E-2,5.1680673E-2,5.5106223E-2,3.227725E-2,-2.893952E-2,4.3275118E-2,5.0664693E-2,-6.8589345E-2,4.5279413E-2,-2.1764608E-2,-4.101964E-2,-6.303599E-2,-6.2747668E-3,4.0182628E-2],"categories":[],"categories_nodes":[],"categories_segments":[],"categories_sizes":[],"default_left":[0,0,0,0,0,0,0,0,0,0,0,0,0,0,0,0,0,0,0,0,0,0,0,0,0,0,0,0,0,0,0,0,0,0,0,0,0,0,0,0,0,0,0],"id":15,"left_children":[1,3,5,-1,7,-1,9,11,13,15,17,19,-1,21,-1,23,25,27,-1,29,-1,31,33,35,37,39,-1,41,-1,-1,-1,-1,-1,-1,-1,-1,-1,-1,-1,-1,-1,-1,-1],"loss_changes":[1.019285E3,1.26401E2,4.0656696E2,0E0,1.9720685E2,0E0,3.3355527E2,4.5876366E1,4.7463867E1,8.083319E1,4.187417E1,2.8275286E1,0E0,3.917582E1,0E0,8.5895966E1,3.7060486E1,2.3139975E1,0E0,2.1412127E1,0E0,9.13472E0,2.5674232E1,4.608522E1,8.72776E1,3.0983215E1,0E0,1.8399494E1,0E0,0E0,0E0,0E0,0E0,0E0,0E0,0E0,0E0,0E0,0E0,0E0,0E0,0E0,0E0],"parents":[2147483647,0,0,1,1,2,2,4,4,6,6,7,7,8,8,9,9,10,10,11,11,13,13,15,15,16,16,17,17,19,19,21,21,22,22,23,23,24,24,25,25,27,27],"right_children":[2,4,6,-1,8,-1,10,12,14,16,18,20,-1,22,-1,24,26,28,-1,30,-1,32,34,36,38,40,-1,42,-1,-1,-1,-1,-1,-1,-1,-1,-1,-1,-1,-1,-1,-1,-1],"split_conditions":[1.382E3,8.7E0,3.37705E4,6.537467E-2,7.1136E4,6.369046E-2,5.21E1,2.993E2,8.56482E4,1.447E3,8.56482E4,1E0,-6.897702E-2,1E0,6.460271E-2,6.35803E4,3.044E2,1.1E1,6.4285465E-2,2.99E2,-6.2981755E-2,1.297E3,3.021E2,7.9E0,6.53293E4,6.11488E4,6.0758848E-2,9.7E0,-6.2716916E-2,-1.2727472E-2,5.1680673E-2,5.5106223E-2,3.227725E-2,-2.893952E-2,4.3275118E-2,5.0664693E-2,-6.8589345E-2,4.5279413E-2,-2.1764608E-2,-4.101964E-2,-6.303599E-2,-6.2747668E-3,4.0182628E-2],"split_indices":[3,6,7,0,7,0,4,1,7,3,7,0,0,0,0,7,1,6,0,1,0,3,1,6,7,7,0,6,0,0,0,0,0,0,0,0,0,0,0,0,0,0,0],"split_type":[0,0,0,0,0,0,0,0,0,0,0,0,0,0,0,0,0,0,0,0,0,0,0,0,0,0,0,0,0,0,0,0,0,0,0,0,0,0,0,0,0,0,0],"sum_hessian":[2.498352E3,9.4852344E2,1.5498286E3,4.0838672E2,5.401368E2,1.278681E2,1.4219606E3,1.1140166E2,4.287351E2,1.2517162E3,1.702444E2,6.6357475E1,4.5044178E1,2.613431E2,1.6739197E2,2.9532123E2,9.563949E2,9.5696915E1,7.4547485E1,5.1732647E1,1.4624831E1,2.0561244E2,5.5730675E1,8.643248E1,2.0888875E2,9.490068E2,7.388115E0,8.7768524E1,7.9283924E0,3.0974106E1,2.075854E1,7.066847E1,1.3494397E2,3.891794E1,1.681274E1,8.303458E0,7.812903E1,7.475965E1,1.3412909E2,7.39068E2,2.0993881E2,3.484463E1,5.2923893E1],"tree_param":{"num_deleted":"0","num_feature":"8","num_nodes":"43","size_leaf_vector":"1"}},{"base_weights":[-2.4010787E-2,7.967461E-1,-5.4313874E-1,4.5988232E-1,1.1238549E0,6.2108893E-2,-6.5548825E-1,-2.764742E-1,1.0400023E0,1.176345E0,5.0156444E-1,-8.2343835E-1,5.963108E-1,5.3591885E-2,-6.607691E-2,5.226812E-1,1.1480649E0,1.1987602E0,5.3508866E-1,-6.512715E-2,1.0098019E0,-4.4848663E-1,-9.179783E-1,2.8508383E-1,6.1674904E-2,-4.2522094E-1,5.65141E-1,-5.298789E-1,1.0408111E0,1.1678914E0,-6.674567E-2,9.764446E-1,1.2223705E0,9.5048606E-1,-5.6195237E-2,7.1467024E-1,6.06707E-2,-7.8750837E-1,2.3870786E-1,-9.357031E-1,5.9783727E-2,5.460772E-1,-6.3638383E-1,2.1923846E-3,-6.649274E-2,-6.373855E-2,4.1633204E-2,5.1974814E-2,-7.5017504E-2,6.0615975E-2,-5.193715E-2,4.9545296E-2,6.326403E-2,5.845086E-2,-5.8960952E-2,6.169073E-2,4.6651963E-2,-4.2536583E-2,5.9228893E-2,-6.476456E-2,5.6647327E-2,5.833109E-2,-4.495122E-2,-4.11725E-2,4.226199E-2,-4.2335372E-2,-6.1872162E-2,3.1352278E-2,-6.1241847E-2,-6.661528E-2,3.5627063E-2],"categories":[],"categories_nodes":[],"categories_segments":[],"categories_sizes":[],"default_left":[0,0,0,0,0,0,0,0,0,0,0,0,0,0,0,0,0,0,0,0,0,0,0,0,0,0,0,0,0,0,0,0,0,0,0,0,0,0,0,0,0,0,0,0,0,0,0,0,0,0,0,0,0,0,0,0,0,0,0,0,0,0,0,0,0,0,0,0,0,0,0],"id":16,"left_children":[1,3,5,7,9,-1,11,13,15,17,19,21,23,25,-1,27,29,31,33,-1,35,37,39,41,-1,43,45,47,49,51,-1,53,55,57,-1,59,-1,61,63,65,-1,67,69,-1,-1,-1,-1,-1,-1,-1,-1,-1,-1,-1,-1,-1,-1,-1,-1,-1,-1,-1,-1,-1,-1,-1,-1,-1,-1,-1,-1],"loss_changes":[9.8661285E2,9.834235E1,2.8531464E2,1.8981776E2,1.4255188E1,0E0,2.811764E2,6.7783875E1,1.3285126E1,5.3723145E0,3.5329624E1,4.1330322E1,3.1083084E1,3.7016735E1,0E0,2.4958784E1,1.1632446E1,9.2407227E-1,1.2051035E1,0E0,9.059067E-1,5.588653E1,3.631555E1,2.6272337E1,0E0,3.3209774E1,3.700389E1,2.5053764E1,1.207621E1,2.2545166E0,0E0,1.9520817E1,4.321289E-2,6.610365E0,0E0,1.3640152E1,0E0,3.598687E1,5.2072853E1,2.3986023E1,0E0,1.2890339E1,2.3718426E1,0E0,0E0,0E0,0E0,0E0,0E0,0E0,0E0,0E0,0E0,0E0,0E0,0E0,0E0,0E0,0E0,0E0,0E0,0E0,0E0,0E0,0E0,0E0,0E0,0E0,0E0,0E0,0E0],"parents":[2147483647,0,0,1,1,2,2,3,3,4,4,6,6,7,7,8,8,9,9,10,10,11,11,12,12,13,13,15,15,16,16,17,17,18,18,20,20,21,21,22,22,23,23,25,25,26,26,27,27,28,28,29,29,31,31,32,32,33,33,35,35,37,37,38,38,39,39,41,41,42,42],"right_children":[2,4,6,8,10,-1,12,14,16,18,20,22,24,26,-1,28,30,32,34,-1,36,38,40,42,-1,44,46,48,50,52,-1,54,56,58,-1,60,-1,62,64,66,-1,68,70,-1,-1,-1,-1,-1,-1,-1,-1,-1,-1,-1,-1,-1,-1,-1,-1,-1,-1,-1,-1,-1,-1,-1,-1,-1,-1,-1,-1],"split_conditions":[1.389E3,3.016E2,3.37705E4,7.7556E4,3.123E2,6.2108893E-2,7.3818E4,1E0,6.09E1,1.382E3,5.67E1,1.443E3,8.56482E4,5.32E1,-6.607691E-2,3.102E2,3.115E2,3.02E2,3.021E2,-6.512715E-2,6.4E1,3.017E2,3.137E2,1E0,6.1674904E-2,2.991E2,2.987E2,1.288E3,1E0,8.56482E4,-6.674567E-2,3.109E2,3.121E2,3.02E2,-5.6195237E-2,1.351E3,6.06707E-2,3.78E1,1.419E3,6.11488E4,5.9783727E-2,8.2348E4,3.121E2,2.1923846E-3,-6.649274E-2,-6.373855E-2,4.1633204E-2,5.1974814E-2,-7.5017504E-2,6.0615975E-2,-5.193715E-2,4.9545296E-2,6.326403E-2,5.845086E-2,-5.8960952E-2,6.169073E-2,4.6651963E-2,-4.2536583E-2,5.9228893E-2,-6.476456E-2,5.6647327E-2,5.833109E-2,-4.495122E-2,-4.11725E-2,4.226199E-2,-4.2335372E-2,-6.1872162E-2,3.1352278E-2,-6.1241847E-2,-6.661528E-2,3.5627063E-2],"split_indices":[3,1,7,7,2,0,7,0,4,3,4,3,7,4,0,2,2,1,1,0,4,1,2,0,0,1,1,3,0,7,0,2,2,1,0,3,0,4,3,7,0,7,2,0,0,0,0,0,0,0,0,0,0,0,0,0,0,0,0,0,0,0,0,0,0,0,0,0,0,0,0],"split_type":[0,0,0,0,0,0,0,0,0,0,0,0,0,0,0,0,0,0,0,0,0,0,0,0,0,0,0,0,0,0,0,0,0,0,0,0,0,0,0,0,0,0,0,0,0,0,0,0,0,0,0,0,0,0,0,0,0,0,0,0,0,0,0,0,0,0,0,0,0,0,0],"sum_hessian":[2.313554E3,8.9616125E2,1.4173926E3,4.426828E2,4.534785E2,8.3319984E1,1.3340726E3,1.9530374E2,2.4737907E2,4.17382E2,3.6096485E1,1.1765593E3,1.5751321E2,1.491469E2,4.6156853E1,4.3754204E1,2.0362486E2,4.024451E2,1.49369E1,7.5902505E0,2.8506233E1,2.3807639E2,9.38483E2,1.0679689E2,5.0716328E1,7.712563E1,7.2021255E1,1.4425898E1,2.9328306E1,2.0253725E2,1.0876138E0,4.2703564E1,3.5974152E2,1.2287331E1,2.6495693E0,1.347886E1,1.5027374E1,1.593275E2,7.874889E1,9.3123114E2,7.251866E0,8.354209E1,2.3254795E1,5.14167E1,2.5708937E1,8.664608E0,6.3356647E1,5.484935E0,8.940963E0,2.747904E1,1.8492674E0,7.585695E1,1.266803E2,3.9621727E1,3.0818393E0,3.429137E2,1.6827826E1,1.1102604E0,1.117707E1,1.9606289E0,1.151823E1,8.090668E0,1.5123683E2,2.8493492E1,5.0255398E1,7.220692E2,2.091619E2,8.050713E1,3.0349622E0,1.5348627E1,7.906167E0],"tree_param":{"num_deleted":"0","num_feature":"8","num_nodes":"71","size_leaf_vector":"1"}},{"base_weights":[5.7121785E-3,7.951528E-1,-4.8854303E-1,1.2513808E0,4.9625352E-1,-8.9622706E-1,8.395417E-1,1.2631913E0,-4.9080238E-2,-7.061075E-2,1.17881E0,6.167198E-2,-1.120164E0,6.1684453E-1,1.3723724E0,6.431606E-2,1.0437233E0,-1.2629614E0,1.1119634E0,-4.1797947E-2,1.1928313E0,-1.2381706E0,1.0101423E0,4.0613425E-1,1.0753865E0,-5.2337546E-2,1.4297243E0,1.12002E0,2.5744041E-2,-6.986451E-2,-4.3209073E-1,4.830829E-1,6.029565E-2,-4.470183E-2,1.2062069E0,-9.588785E-1,-6.550703E-2,-4.717349E-2,1.0754117E0,5.329756E-1,-8.464378E-2,-6.0804423E-2,1.1862942E0,1.4749345E0,8.6045414E-1,6.122901E-2,2.758495E-2,3.7111092E-2,-7.097784E-2,-8.37743E-2,6.098914E-2,4.7312956E-2,6.366595E-2,-6.1742682E-2,7.694274E-2,1.9204697E-2,5.8720022E-2,-7.113125E-2,3.0614018E-2,-5.8419324E-2,6.2238317E-2,5.2681815E-2,7.70517E-2,-5.476237E-2,7.097677E-2],"categories":[],"categories_nodes":[],"categories_segments":[],"categories_sizes":[],"default_left":[0,0,0,0,0,0,0,0,0,0,0,0,0,0,0,0,0,0,0,0,0,0,0,0,0,0,0,0,0,0,0,0,0,0,0,0,0,0,0,0,0,0,0,0,0,0,0,0,0,0,0,0,0,0,0,0,0,0,0,0,0,0,0,0,0],"id":17,"left_children":[1,3,5,7,9,11,13,15,-1,17,19,-1,21,23,25,-1,27,29,31,-1,33,35,37,39,41,-1,43,45,-1,-1,47,49,-1,-1,51,53,-1,-1,55,57,-1,-1,59,61,63,-1,-1,-1,-1,-1,-1,-1,-1,-1,-1,-1,-1,-1,-1,-1,-1,-1,-1,-1,-1],"loss_changes":[8.972666E2,1.2011743E2,7.664544E2,1.0465271E1,2.076995E2,5.176505E2,3.8628296E1,4.2608643E-1,0E0,4.160733E2,7.87619E0,0E0,2.4762585E2,2.240712E1,1.4987946E1,0E0,9.7756195E-1,1.5792206E1,8.172256E0,0E0,7.8399963E0,1.7418457E1,7.643963E0,4.44591E1,2.0206528E1,0E0,1.1864777E0,1.2742386E0,0E0,0E0,2.644018E1,3.532338E1,0E0,0E0,3.0016174E0,1.356854E2,0E0,0E0,3.023716E0,2.4915474E1,0E0,0E0,1.1220215E1,7.9881287E-1,1.1854722E1,0E0,0E0,0E0,0E0,0E0,0E0,0E0,0E0,0E0,0E0,0E0,0E0,0E0,0E0,0E0,0E0,0E0,0E0,0E0,0E0],"parents":[2147483647,0,0,1,1,2,2,3,3,4,4,5,5,6,6,7,7,9,9,10,10,12,12,13,13,14,14,16,16,17,17,18,18,20,20,21,21,22,22,23,23,24,24,26,26,27,27,30,30,31,31,34,34,35,35,38,38,39,39,42,42,43,43,44,44],"right_children":[2,4,6,8,10,12,14,16,-1,18,20,-1,22,24,26,-1,28,30,32,-1,34,36,38,40,42,-1,44,46,-1,-1,48,50,-1,-1,52,54,-1,-1,56,58,-1,-1,60,62,64,-1,-1,-1,-1,-1,-1,-1,-1,-1,-1,-1,-1,-1,-1,-1,-1,-1,-1,-1,-1],"split_conditions":[1.386E3,8.7E0,2.03E2,1.382E3,1.89E2,1.38E1,2.25E2,8.6E0,-4.9080238E-2,6.25E1,4.44E1,6.167198E-2,5.75E1,4.64E1,2.977E2,6.431606E-2,3.024E2,3.023E2,6.4E1,-4.1797947E-2,2.971E2,1.44E3,8.5E0,2.19E2,2.07E2,-5.2337546E-2,3.028E2,1.67E2,2.5744041E-2,-6.986451E-2,3.024E2,1.367E3,6.029565E-2,-4.470183E-2,5.27E1,1.438E3,-6.550703E-2,-4.717349E-2,8E1,1.44E3,-8.464378E-2,-6.0804423E-2,9.2E0,8.9E0,4.28E1,6.122901E-2,2.758495E-2,3.7111092E-2,-7.097784E-2,-8.37743E-2,6.098914E-2,4.7312956E-2,6.366595E-2,-6.1742682E-2,7.694274E-2,1.9204697E-2,5.8720022E-2,-7.113125E-2,3.0614018E-2,-5.8419324E-2,6.2238317E-2,5.2681815E-2,7.70517E-2,-5.476237E-2,7.097677E-2],"split_indices":[3,6,5,3,5,4,5,6,0,4,4,0,4,4,1,0,1,1,4,0,1,3,6,5,5,0,1,5,0,0,1,3,0,0,4,3,0,0,5,3,0,0,6,6,4,0,0,0,0,0,0,0,0,0,0,0,0,0,0,0,0,0,0,0,0],"split_type":[0,0,0,0,0,0,0,0,0,0,0,0,0,0,0,0,0,0,0,0,0,0,0,0,0,0,0,0,0,0,0,0,0,0,0,0,0,0,0,0,0,0,0,0,0,0,0,0,0,0,0,0,0,0,0,0,0,0,0,0,0,0,0,0,0],"sum_hessian":[2.2975964E3,8.843981E2,1.4131984E3,3.4880667E2,5.355914E2,1.081526E3,3.316724E2,3.4740353E2,1.4031438E0,2.9308246E2,2.4250893E2,1.0247443E2,9.790515E2,2.354313E2,9.624107E1,3.0988354E2,3.7519985E1,1.4590414E2,1.4717833E2,1.2708851E0,2.4123804E2,9.2806116E2,5.0990376E1,1.6259909E2,7.2832214E1,1.8293002E0,9.441177E1,3.1812492E1,5.707493E0,1.2501151E2,2.0892628E1,1.9927734E1,1.2725059E2,1.1170359E0,2.40121E2,1.9308496E2,7.349762E2,1.2134978E0,4.977688E1,1.5403687E2,8.562233E0,2.902315E0,6.992989E1,8.59916E1,8.420173E0,2.5893803E1,5.91869E0,9.656865E0,1.1235763E1,4.7463555E0,1.5181378E1,5.237077E1,1.8775023E2,1.7432893E2,1.8756027E1,6.845998E0,4.293088E1,5.3430195E0,1.4869385E2,1.2345006E0,6.86954E1,1.3959317E1,7.203228E1,1.6587495E0,6.7614236E0],"tree_param":{"num_deleted":"0","num_feature":"8","num_nodes":"65","size_leaf_vector":"1"}},{"base_weights":[3.8361646E-2,8.143552E-1,-4.0460157E-1,6.2303282E-2,5.55801E-1,6.0726713E-2,-5.151947E-1,-6.7825025E-1,8.43153E-1,-6.161223E-1,1.170708E0,2.3492986E-1,-1.1116921E0,4.6613464E-1,1.0735326E0,-1.0007894E0,-4.79813E-1,5.3198767E-1,6.1776634E-2,-6.023493E-2,8.3730865E-1,-6.6849664E-2,-9.3437284E-2,-5.2766085E-2,8.3323425E-1,1.0905184E0,-5.1475137E-2,-7.773367E-1,-6.6358104E-2,-6.9155836E-1,-3.719719E-2,5.958988E-2,-5.4634906E-2,5.070848E-2,-4.231007E-2,-5.6525964E-2,2.6488725E-2,3.1994563E-2,-2.8277537E-2,-4.0811334E-2,4.353266E-2,4.56E-2,6.106006E-2,-2.1168988E-2,-6.48781E-2,-3.0019969E-2,-6.388569E-2,3.1452294E-2,-1.0700077E-2],"categories":[],"categories_nodes":[],"categories_segments":[],"categories_sizes":[],"default_left":[0,0,0,0,0,0,0,0,0,0,0,0,0,0,0,0,0,0,0,0,0,0,0,0,0,0,0,0,0,0,0,0,0,0,0,0,0,0,0,0,0,0,0,0,0,0,0,0,0],"id":18,"left_children":[1,3,5,-1,7,-1,9,11,13,15,17,19,21,23,25,27,29,31,-1,-1,33,-1,35,37,39,41,-1,43,-1,45,47,-1,-1,-1,-1,-1,-1,-1,-1,-1,-1,-1,-1,-1,-1,-1,-1,-1,-1],"loss_changes":[7.8704816E2,9.21806E1,2.616459E2,0E0,1.8574352E2,0E0,2.3301297E2,3.9518246E1,3.632773E1,6.709262E1,2.5497665E0,2.9409061E1,1.5344925E1,3.1015224E1,1.0496643E1,2.34917E1,8.9334625E1,1.083538E1,0E0,0E0,7.9084015E0,0E0,9.189911E0,2.462324E1,6.591568E0,4.9706116E0,0E0,3.664969E1,0E0,3.3690674E1,3.6602562E1,0E0,0E0,0E0,0E0,0E0,0E0,0E0,0E0,0E0,0E0,0E0,0E0,0E0,0E0,0E0,0E0,0E0,0E0],"parents":[2147483647,0,0,1,1,2,2,4,4,6,6,7,7,8,8,9,9,10,10,11,11,12,12,13,13,14,14,15,15,16,16,17,17,20,20,22,22,23,23,24,24,25,25,27,27,29,29,30,30],"right_children":[2,4,6,-1,8,-1,10,12,14,16,18,20,22,24,26,28,30,32,-1,-1,34,-1,36,38,40,42,-1,44,-1,46,48,-1,-1,-1,-1,-1,-1,-1,-1,-1,-1,-1,-1,-1,-1,-1,-1,-1,-1],"split_conditions":[1.382E3,8.7E0,3.37705E4,6.2303282E-2,7.1136E4,6.0726713E-2,5.87E1,3.086E2,7.9134E4,2.988E2,8.56482E4,3.084E2,1.14E1,1.354E3,1.14E1,1.1E1,4.43E1,8.2348E4,6.1776634E-2,-6.023493E-2,5.07E1,-6.6849664E-2,1.364E3,1.288E3,3.081E2,8.56482E4,-5.1475137E-2,2.981E2,-6.6358104E-2,6.11488E4,6.52267E4,5.958988E-2,-5.4634906E-2,5.070848E-2,-4.231007E-2,-5.6525964E-2,2.6488725E-2,3.1994563E-2,-2.8277537E-2,-4.0811334E-2,4.353266E-2,4.56E-2,6.106006E-2,-2.1168988E-2,-6.48781E-2,-3.0019969E-2,-6.388569E-2,3.1452294E-2,-1.0700077E-2],"split_indices":[3,6,7,0,7,0,4,2,7,1,7,2,6,3,6,6,4,7,0,0,4,0,3,3,2,7,0,1,0,7,7,0,0,0,0,0,0,0,0,0,0,0,0,0,0,0,0,0,0],"split_type":[0,0,0,0,0,0,0,0,0,0,0,0,0,0,0,0,0,0,0,0,0,0,0,0,0,0,0,0,0,0,0,0,0,0,0,0,0,0,0,0,0,0,0,0,0,0,0,0,0],"sum_hessian":[2.2877253E3,8.31044E2,1.4566813E3,3.0985568E2,5.2118835E2,9.249716E1,1.3641841E3,9.818147E1,4.230069E2,1.287728E3,7.645608E1,3.1749424E1,6.6432045E1,1.6158876E2,2.6141812E2,3.3526434E2,9.524636E2,7.892955E0,6.856312E1,9.070909E0,2.2678514E1,5.413992E1,1.2292129E1,6.730641E1,9.428234E1,2.5980124E2,1.6168938E0,2.0101805E2,1.342463E2,6.438746E2,3.0858908E2,5.8027945E0,2.0901604E0,2.0882313E1,1.7962025E0,4.3084493E0,7.9836793E0,2.8526125E1,3.878029E1,1.6297145E0,9.2652626E1,1.1317633E2,1.466249E2,1.2070512E2,8.0312935E1,5.58968E2,8.490653E1,6.418102E1,2.4440804E2],"tree_param":{"num_deleted":"0","num_feature":"8","num_nodes":"49","size_leaf_vector":"1"}},{"base_weights":[5.3280376E-2,7.7976066E-1,-4.076271E-1,1.2116688E0,4.949757E-1,-8.281691E-1,9.733476E-1,6.144416E-2,-5.572739E-2,-2.1532568E-1,9.745814E-1,5.89433E-2,-1.0393572E0,-7.655376E-2,1.019283E0,-6.774797E-2,1.0844877E0,6.841595E-1,6.278908E-2,-1.182499E0,9.87567E-1,5.997072E-1,1.2478142E0,-3.7146438E-2,1.1105484E0,-8.030723E-2,6.0946148E-2,-1.2046793E0,8.435812E-2,3.7989888E-1,5.949991E-2,-8.273553E-2,7.9148364E-1,-5.306694E-2,1.2688314E0,3.7676863E-2,6.1038088E-2,-6.1435696E-2,-3.928023E-2,5.2370578E-2,-6.599546E-2,-6.6864125E-2,5.9325468E-2,4.4434126E-2,-7.671665E-2,5.2449018E-2,7.059578E-2],"categories":[],"categories_nodes":[],"categories_segments":[],"categories_sizes":[],"default_left":[0,0,0,0,0,0,0,0,0,0,0,0,0,0,0,0,0,0,0,0,0,0,0,0,0,0,0,0,0,0,0,0,0,0,0,0,0,0,0,0,0,0,0,0,0,0,0],"id":19,"left_children":[1,3,5,7,9,11,13,-1,-1,15,17,-1,19,-1,21,-1,23,25,-1,27,29,31,33,-1,35,-1,-1,37,39,41,-1,-1,43,-1,45,-1,-1,-1,-1,-1,-1,-1,-1,-1,-1,-1,-1],"loss_changes":[7.616701E2,1.08004395E2,8.091188E2,1.5391541E1,1.820547E2,4.536808E2,3.8990967E1,0E0,0E0,3.2138968E2,2.517804E1,0E0,2.8154614E2,0E0,2.994519E1,0E0,5.6565094E0,1.9674142E2,0E0,2.5477173E1,7.4560623E0,5.094205E1,1.13591E1,0E0,3.0315628E0,0E0,0E0,7.9748535E0,2.3661037E1,2.5872345E1,0E0,0E0,2.5433937E1,0E0,4.964508E0,0E0,0E0,0E0,0E0,0E0,0E0,0E0,0E0,0E0,0E0,0E0,0E0],"parents":[2147483647,0,0,1,1,2,2,3,3,4,4,5,5,6,6,9,9,10,10,12,12,14,14,16,16,17,17,19,19,20,20,21,21,22,22,24,24,27,27,28,28,29,29,32,32,34,34],"right_children":[2,4,6,8,10,12,14,-1,-1,16,18,-1,20,-1,22,-1,24,26,-1,28,30,32,34,-1,36,-1,-1,38,40,42,-1,-1,44,-1,46,-1,-1,-1,-1,-1,-1,-1,-1,-1,-1,-1,-1],"split_conditions":[1.386E3,8.7E0,2.05E2,1.382E3,7.67536E4,3.37705E4,2.973E2,6.144416E-2,-5.572739E-2,1.95E2,1.71E2,5.89433E-2,5.75E1,-7.655376E-2,2.14E2,-6.774797E-2,4.44E1,8.56482E4,6.278908E-2,2.03E2,8.56482E4,2.988E2,1.393E3,-3.7146438E-2,6.9408E4,-8.030723E-2,6.0946148E-2,3.036E2,9.2E0,1.73E2,5.949991E-2,-8.273553E-2,2.12E2,-5.306694E-2,2.22E2,3.7676863E-2,6.1038088E-2,-6.1435696E-2,-3.928023E-2,5.2370578E-2,-6.599546E-2,-6.6864125E-2,5.9325468E-2,4.4434126E-2,-7.671665E-2,5.2449018E-2,7.059578E-2],"split_indices":[3,6,5,3,7,7,1,0,0,5,5,0,4,0,5,0,4,7,0,5,7,1,3,0,7,0,0,1,6,5,0,0,5,0,5,0,0,0,0,0,0,0,0,0,0,0,0],"split_type":[0,0,0,0,0,0,0,0,0,0,0,0,0,0,0,0,0,0,0,0,0,0,0,0,0,0,0,0,0,0,0,0,0,0,0,0,0,0,0,0,0,0,0,0,0,0,0],"sum_hessian":[2.2727778E3,8.8195404E2,1.3908239E3,3.4915973E2,5.327943E2,1.0664598E3,3.2436392E2,3.4706314E2,2.0965953E0,2.1497098E2,3.1782333E2,1.010971E2,9.653628E2,5.259903E0,3.1910403E2,1.14520615E2,1.00450356E2,1.5803683E2,1.5978651E2,9.0207465E2,6.3288113E1,1.13798294E2,2.0530574E2,1.0256077E0,9.942475E1,2.9535908E1,1.2850093E2,8.8660114E2,1.5473532E1,1.6533543E1,4.675457E1,8.3235E0,1.0547479E2,1.4053142E0,2.0390042E2,2.5301933E1,7.412282E1,8.3668384E2,4.9917297E1,9.329462E0,6.144069E0,5.073896E0,1.1459647E1,1.0183681E2,3.637984E0,8.367055E1,1.2022987E2],"tree_param":{"num_deleted":"0","num_feature":"8","num_nodes":"47","size_leaf_vector":"1"}},{"base_weights":[5.3246032E-2,-4.659156E-1,5.789232E-1,-7.96154E-1,7.124249E-1,3.0635634E-1,1.0727718E0,1.0781626E0,-1.0356268E0,7.4640155E-1,-6.325191E-2,1.0804963E0,-1.4164616E-1,-5.2068394E-2,1.0869654E0,5.893683E-2,4.208598E-1,3.3431575E-2,-1.1798805E0,6.0948485E-1,1.1979878E0,1.0996991E0,5.929569E-1,-9.306909E-1,1.0508769E0,8.4754884E-1,1.2175621E0,8.1585306E-1,-5.8667667E-2,-6.159078E-2,8.499895E-1,-8.474571E-1,-6.30411E-2,-9.9281296E-2,7.104113E-1,1.3062961E0,-5.8361948E-2,7.0136726E-1,1.1164311E0,-3.5943504E-2,7.825338E-1,-1.1759325E0,-5.51254E-1,7.3889875E-1,5.8065902E-2,-7.587042E-1,1.125975E0,6.1407216E-2,2.9479101E-2,2.6115397E-2,5.26237E-2,8.091395E-3,5.702123E-2,-6.306287E-2,8.084116E-2,6.1918598E-2,-9.1941595E-2,2.3051882E-2,5.139609E-2,7.037077E-2,3.546339E-2,-3.7707943E-2,4.502043E-2,5.7658374E-2,4.8796542E-2,2.3350766E-2,5.0601788E-2,-6.4959496E-2,-2.202235E-2,2.4365114E-2,-4.7597837E-2,4.4678546E-2,-7.9861514E-2,4.5739565E-2,-6.460235E-2,2.3292527E-2,5.951908E-2],"categories":[],"categories_nodes":[],"categories_segments":[],"categories_sizes":[],"default_left":[0,0,0,0,0,0,0,0,0,0,0,0,0,0,0,0,0,0,0,0,0,0,0,0,0,0,0,0,0,0,0,0,0,0,0,0,0,0,0,0,0,0,0,0,0,0,0,0,0,0,0,0,0,0,0,0,0,0,0,0,0,0,0,0,0,0,0,0,0,0,0,0,0,0,0,0,0],"id":20,"left_children":[1,3,5,7,9,11,13,15,17,19,-1,21,23,-1,25,-1,27,29,31,33,35,37,39,41,43,45,47,49,-1,-1,51,53,-1,55,57,59,-1,61,63,-1,65,67,69,71,-1,73,75,-1,-1,-1,-1,-1,-1,-1,-1,-1,-1,-1,-1,-1,-1,-1,-1,-1,-1,-1,-1,-1,-1,-1,-1,-1,-1,-1,-1,-1,-1],"loss_changes":[5.965385E2,4.2853143E2,1.4586176E2,3.869054E2,1.7155174E1,2.43345E2,1.2710083E1,5.973488E0,1.17651184E2,1.3974945E1,0E0,1.7554932E0,4.1975137E2,0E0,1.0967041E1,0E0,1.0114685E1,9.573003E1,1.7012878E1,1.3270981E1,1.543412E1,8.581848E-1,3.5257468E0,2.4324203E1,5.264099E0,6.2901566E1,9.107971E-1,3.0078125E-1,0E0,0E0,1.1066006E1,1.3932938E2,0E0,5.7842445E1,1.2325836E1,2.1646652E0,0E0,4.334142E0,8.5632324E-2,0E0,3.1589317E-1,1.4125153E1,4.5092007E1,1.920669E1,0E0,2.0008924E1,4.4898224E0,0E0,0E0,0E0,0E0,0E0,0E0,0E0,0E0,0E0,0E0,0E0,0E0,0E0,0E0,0E0,0E0,0E0,0E0,0E0,0E0,0E0,0E0,0E0,0E0,0E0,0E0,0E0,0E0,0E0,0E0],"parents":[2147483647,0,0,1,1,2,2,3,3,4,4,5,5,6,6,7,7,8,8,9,9,11,11,12,12,14,14,16,16,17,17,18,18,19,19,20,20,21,21,22,22,23,23,24,24,25,25,26,26,27,27,30,30,31,31,33,33,34,34,35,35,37,37,38,38,40,40,41,41,42,42,43,43,45,45,46,46],"right_children":[2,4,6,8,10,12,14,16,18,20,-1,22,24,-1,26,-1,28,30,32,34,36,38,40,42,44,46,48,50,-1,-1,52,54,-1,56,58,60,-1,62,64,-1,66,68,70,72,-1,74,76,-1,-1,-1,-1,-1,-1,-1,-1,-1,-1,-1,-1,-1,-1,-1,-1,-1,-1,-1,-1,-1,-1,-1,-1,-1,-1,-1,-1,-1,-1],"split_conditions":[4.63E1,2.03E2,1.87E2,1.58E1,1.15E1,8.7E0,3.077E2,1.38E1,8.6E0,2.25E2,-6.325191E-2,1.67E2,6.15E1,-5.2068394E-2,5.36E1,5.893683E-2,2.985E2,4.15E1,2.92E1,2.89E1,1.11E1,3.018E2,1.74E2,3.107E2,6.4E1,2.03E2,2E0,3.094E2,-5.8667667E-2,-6.159078E-2,4.43E1,2.89E1,-6.30411E-2,1.69E1,3.109E2,3.8E1,-5.8361948E-2,3.9E1,3.031E2,-3.5943504E-2,3.026E2,5.82E1,3.11E2,1.35E2,5.8065902E-2,8.3E0,2.07E2,6.1407216E-2,2.9479101E-2,2.6115397E-2,5.26237E-2,8.091395E-3,5.702123E-2,-6.306287E-2,8.084116E-2,6.1918598E-2,-9.1941595E-2,2.3051882E-2,5.139609E-2,7.037077E-2,3.546339E-2,-3.7707943E-2,4.502043E-2,5.7658374E-2,4.8796542E-2,2.3350766E-2,5.0601788E-2,-6.4959496E-2,-2.202235E-2,2.4365114E-2,-4.7597837E-2,4.4678546E-2,-7.9861514E-2,4.5739565E-2,-6.460235E-2,2.3292527E-2,5.951908E-2],"split_indices":[4,5,5,4,6,6,2,4,6,5,0,5,4,0,4,0,1,4,4,4,6,1,5,2,4,5,0,2,0,0,4,4,0,4,2,4,0,5,1,0,1,4,2,5,0,6,5,0,0,0,0,0,0,0,0,0,0,0,0,0,0,0,0,0,0,0,0,0,0,0,0,0,0,0,0,0,0],"split_type":[0,0,0,0,0,0,0,0,0,0,0,0,0,0,0,0,0,0,0,0,0,0,0,0,0,0,0,0,0,0,0,0,0,0,0,0,0,0,0,0,0,0,0,0,0,0,0,0,0,0,0,0,0,0,0,0,0,0,0,0,0,0,0,0,0,0,0,0,0,0,0,0,0,0,0,0,0],"sum_hessian":[2.1838438E3,1.0987882E3,1.0850554E3,8.5850916E2,2.4027905E2,7.00212E2,3.8484348E2,9.686438E1,7.616448E2,2.3683237E2,3.4466934E0,2.561602E2,4.4405182E2,2.083861E0,3.827596E2,8.3321976E1,1.3542404E1,9.064518E1,6.709996E2,1.8353572E2,5.329664E1,2.4524503E2,1.0915159E1,2.67366E2,1.766858E2,1.3773903E2,2.4502058E2,1.1244604E1,2.2977998E0,3.535479E1,5.529039E1,1.3363516E2,5.3736444E2,2.2879377E1,1.6065634E2,5.1391052E1,1.9055861E0,1.1616384E1,2.3362863E2,1.0256859E0,9.889473E0,1.6112614E2,1.0623985E2,4.8205025E1,1.2848079E2,2.0093538E1,1.1764549E2,2.4002022E2,5.000366E0,6.4501266E0,4.794478E0,1.6871643E1,3.8418747E1,1.1483956E2,1.8795597E1,1.3096634E1,9.782743E0,9.135661E1,6.9299736E1,4.2786835E1,8.6042185E0,1.061923E0,1.0554461E1,1.7949011E2,5.4138523E1,5.442311E0,4.4471626E0,1.3734291E2,2.378324E1,2.9517971E1,7.6721886E1,4.5790775E1,2.4142492E0,4.683305E0,1.5410234E1,1.1189846E1,1.0645564E2],"tree_param":{"num_deleted":"0","num_feature":"8","num_nodes":"77","size_leaf_vector":"1"}},{"base_weights":[-3.1576254E-3,7.1493214E-1,-4.3162265E-1,1.1808878E0,4.4210196E-1,-7.8418756E-1,7.7280414E-1,1.2030655E0,-6.365007E-2,-1.7563729E-2,1.0938443E0,-9.646118E-1,1.050466E0,9.600916E-1,4.2709228E-1,6.0643226E-2,2.7176475E-2,4.001597E-1,-6.591067E-1,1.1603779E0,6.9317794E-1,-3.829609E-1,-1.1687392E0,1.1766804E-1,5.6947548E-2,-6.0824096E-2,9.9124473E-1,-1.0312334E0,8.8027805E-1,1.4420135E-1,7.44911E-1,-6.596651E-2,-4.514488E-1,9.458145E-1,6.083597E-2,8.855483E-1,-6.268885E-2,-5.54615E-1,1.5052644E0,-6.2458474E-2,-9.491171E-1,5.2167892E-2,-5.9342444E-2,1.1078994E0,4.3381393E-1,-9.841895E-2,4.894223E-2,2.6902533E-1,1.2970971E0,3.357295E-2,-6.1319047E-3,5.2511573E-2,2.0601932E-2,1.0768019E-2,-3.8372554E-2,5.208212E-2,-4.562513E-2,-2.1731716E-3,5.9751768E-2,-1.4751478E-2,-6.4943455E-2,-5.688985E-2,1.1354854E-1,1.0310483E-1,-5.46587E-2,-5.3381413E-2,5.6760658E-2,4.2076465E-2,-8.109089E-2,5.8129262E-2,-8.732429E-2,-5.1858794E-2,6.8956435E-2],"categories":[],"categories_nodes":[],"categories_segments":[],"categories_sizes":[],"default_left":[0,0,0,0,0,0,0,0,0,0,0,0,0,0,0,0,0,0,0,0,0,0,0,0,0,0,0,0,0,0,0,0,0,0,0,0,0,0,0,0,0,0,0,0,0,0,0,0,0,0,0,0,0,0,0,0,0,0,0,0,0,0,0,0,0,0,0,0,0,0,0,0,0],"id":21,"left_children":[1,3,5,7,9,11,13,15,-1,17,19,21,23,25,27,-1,-1,29,31,33,35,37,39,41,-1,-1,43,45,47,49,51,-1,53,55,-1,57,-1,59,61,-1,63,-1,-1,65,67,-1,-1,69,71,-1,-1,-1,-1,-1,-1,-1,-1,-1,-1,-1,-1,-1,-1,-1,-1,-1,-1,-1,-1,-1,-1,-1,-1],"loss_changes":[6.307592E2,9.6871E1,5.4582544E2,1.6896027E1,1.4525354E2,3.2994977E2,1.844722E1,1.1523438E0,0E0,7.671229E1,4.5410156E0,1.0703522E2,7.249321E0,1.3960632E1,6.973288E1,0E0,0E0,1.5193293E1,1.4879494E1,9.101105E-1,1.2735642E1,7.753969E1,1.0642578E1,1.1944139E1,0E0,0E0,1.1614426E1,4.9303062E1,2.0030907E1,1.4257543E1,7.051735E0,0E0,1.8578846E1,8.064159E0,0E0,8.342295E0,0E0,4.1669006E1,4.304019E1,0E0,8.192116E1,0E0,0E0,1.0313507E1,2.9719933E1,0E0,0E0,6.270981E1,1.0487022E1,0E0,0E0,0E0,0E0,0E0,0E0,0E0,0E0,0E0,0E0,0E0,0E0,0E0,0E0,0E0,0E0,0E0,0E0,0E0,0E0,0E0,0E0,0E0,0E0],"parents":[2147483647,0,0,1,1,2,2,3,3,4,4,5,5,6,6,7,7,9,9,10,10,11,11,12,12,13,13,14,14,17,17,18,18,19,19,20,20,21,21,22,22,23,23,26,26,27,27,28,28,29,29,30,30,32,32,33,33,35,35,37,37,38,38,40,40,43,43,44,44,47,47,48,48],"right_children":[2,4,6,8,10,12,14,16,-1,18,20,22,24,26,28,-1,-1,30,32,34,36,38,40,42,-1,-1,44,46,48,50,52,-1,54,56,-1,58,-1,60,62,-1,64,-1,-1,66,68,-1,-1,70,72,-1,-1,-1,-1,-1,-1,-1,-1,-1,-1,-1,-1,-1,-1,-1,-1,-1,-1,-1,-1,-1,-1,-1,-1],"split_conditions":[1.386E3,8.7E0,2.05E2,1.378E3,1.89E2,2.261E3,1.525E3,3.12E2,-6.365007E-2,1.338E3,1E0,1.44E3,2.45E3,1.394E3,9.8E0,6.0643226E-2,2.7176475E-2,3.01E2,1.356E3,2.03E2,2.09E2,1.438E3,1.662E3,2.958E2,5.6947548E-2,-6.0824096E-2,1E0,2E0,2.992E2,3.2E1,1.288E3,-6.596651E-2,1.364E3,1.369E3,6.083597E-2,2.02E2,-6.268885E-2,1.422E3,1.01E1,-6.2458474E-2,1.664E3,5.2167892E-2,-5.9342444E-2,2.974E2,1.46E3,-9.841895E-2,4.894223E-2,3.082E2,1.553E3,3.357295E-2,-6.1319047E-3,5.2511573E-2,2.0601932E-2,1.0768019E-2,-3.8372554E-2,5.208212E-2,-4.562513E-2,-2.1731716E-3,5.9751768E-2,-1.4751478E-2,-6.4943455E-2,-5.688985E-2,1.1354854E-1,1.0310483E-1,-5.46587E-2,-5.3381413E-2,5.6760658E-2,4.2076465E-2,-8.109089E-2,5.8129262E-2,-8.732429E-2,-5.1858794E-2,6.8956435E-2],"split_indices":[3,6,5,3,5,3,3,2,0,3,0,3,3,3,6,0,0,1,3,5,5,3,3,1,0,0,0,0,1,5,3,0,3,3,0,5,0,3,6,0,3,0,0,1,3,0,0,2,3,0,0,0,0,0,0,0,0,0,0,0,0,0,0,0,0,0,0,0,0,0,0,0,0],"split_type":[0,0,0,0,0,0,0,0,0,0,0,0,0,0,0,0,0,0,0,0,0,0,0,0,0,0,0,0,0,0,0,0,0,0,0,0,0,0,0,0,0,0,0,0,0,0,0,0,0,0,0,0,0,0,0,0,0,0,0,0,0,0,0,0,0,0,0,0,0,0,0,0,0],"sum_hessian":[2.0480708E3,7.6510974E2,1.282961E3,2.8132242E2,4.8378732E2,9.927175E2,2.9024353E2,2.793078E2,2.0146027E0,2.84269E2,1.9951831E2,9.042642E2,8.8453316E1,1.871039E2,1.0313965E2,2.743921E2,4.91572E0,1.7239494E2,1.1187408E2,1.6947897E2,3.0039337E1,2.3565446E2,6.6860974E2,7.8655396E0,8.0587776E1,2.1033158E0,1.8500058E2,2.4150194E1,7.898945E1,9.975259E1,7.2642365E1,2.5487196E1,8.638688E1,3.894672E1,1.3053224E2,2.7834309E1,2.2050276E0,2.166643E2,1.8990168E1,4.859549E2,1.8265483E2,4.7178984E0,3.1476414E0,1.5216846E2,3.2832115E1,1.6485167E1,7.665027E0,3.2692417E1,4.6297035E1,3.3010204E1,6.674238E1,3.676519E1,3.587718E1,2.7878279E1,5.8508602E1,3.7454758E1,1.491961E0,7.1702785E0,2.0664032E1,1.6167183E2,5.4992474E1,4.156576E0,1.4833591E1,7.731397E0,1.7492343E2,1.4145225E0,1.5075394E2,2.7890848E1,4.9412665E0,2.29437E1,9.748716E0,1.1764555E0,4.512058E1],"tree_param":{"num_deleted":"0","num_feature":"8","num_nodes":"73","size_leaf_vector":"1"}},{"base_weights":[2.3809837E-2,6.968828E-1,-3.509434E-1,1.1591083E0,4.1398904E-1,1.1854515E0,-4.6546528E-1,1.177567E0,-5.1784605E-2,-7.887512E-2,9.611041E-1,6.0380746E-2,3.0134812E-2,-5.970294E-1,9.8208094E-1,6.0550034E-2,8.989189E-1,2.3956656E-1,-6.4664714E-2,6.640121E-1,5.857062E-2,-6.878012E-1,-3.565906E-1,4.9775884E-1,6.0097724E-2,1.0122248E0,1.1722165E-2,-9.6913844E-2,6.2265265E-1,1.6992527E-1,8.7005883E-1,-5.4024273E-1,-1.153174E0,3.412275E-1,-5.3623456E-1,-6.235362E-2,7.973664E-1,2.0407166E-2,5.661102E-2,-6.3341804E-2,1.4825906E-2,3.562762E-2,-5.6167122E-2,-3.5581626E-2,4.2366117E-2,4.815028E-2,-6.1178166E-2,-2.9241284E-2,3.2978367E-2,-2.7195228E-2,-6.3382454E-2,-6.072588E-2,3.945397E-2,-6.328223E-2,-1.7541895E-2,5.054703E-2,-4.91472E-2],"categories":[],"categories_nodes":[],"categories_segments":[],"categories_sizes":[],"default_left":[0,0,0,0,0,0,0,0,0,0,0,0,0,0,0,0,0,0,0,0,0,0,0,0,0,0,0,0,0,0,0,0,0,0,0,0,0,0,0,0,0,0,0,0,0,0,0,0,0,0,0,0,0,0,0,0,0],"id":22,"left_children":[1,3,5,7,9,11,13,15,-1,17,19,-1,-1,21,23,-1,25,27,-1,29,-1,31,33,35,-1,37,-1,39,41,43,45,47,49,51,53,-1,55,-1,-1,-1,-1,-1,-1,-1,-1,-1,-1,-1,-1,-1,-1,-1,-1,-1,-1,-1,-1],"loss_changes":[5.114427E2,9.43436E1,2.2972704E2,1.2351135E1,1.2179856E2,4.427948E-1,2.3156998E2,1.4541626E0,0E0,9.2504364E1,1.2593338E1,0E0,0E0,2.4033691E1,1.0202759E1,0E0,2.256319E0,2.4515158E1,0E0,9.117378E0,0E0,5.4757904E1,3.866197E1,1.8442215E1,0E0,1.5671215E0,0E0,4.726401E1,1.4746693E1,1.7339405E1,1.3629097E1,3.3240433E1,1.2790558E1,4.5169197E1,3.261937E1,0E0,1.2056406E1,0E0,0E0,0E0,0E0,0E0,0E0,0E0,0E0,0E0,0E0,0E0,0E0,0E0,0E0,0E0,0E0,0E0,0E0,0E0,0E0],"parents":[2147483647,0,0,1,1,2,2,3,3,4,4,5,5,6,6,7,7,9,9,10,10,13,13,14,14,16,16,17,17,19,19,21,21,22,22,23,23,25,25,27,27,28,28,29,29,30,30,31,31,32,32,33,33,34,34,36,36],"right_children":[2,4,6,8,10,12,14,16,-1,18,20,-1,-1,22,24,-1,26,28,-1,30,-1,32,34,36,-1,38,-1,40,42,44,46,48,50,52,54,-1,56,-1,-1,-1,-1,-1,-1,-1,-1,-1,-1,-1,-1,-1,-1,-1,-1,-1,-1,-1,-1],"split_conditions":[1.386E3,8.7E0,3.37705E4,1.382E3,7.9134E4,2E0,7.9134E4,8.6E0,-5.1784605E-2,1E0,8.56482E4,6.0380746E-2,3.0134812E-2,4.43E1,8.56482E4,6.0550034E-2,3.11E2,1.09E1,-6.4664714E-2,9.9E0,5.857062E-2,3.91E1,6.52267E4,9.7E0,6.0097724E-2,3.107E2,1.1722165E-2,6.95303E4,1.15E1,1.351E3,8.3762E4,3.89E1,3.084E2,3.099E2,6.76863E4,-6.235362E-2,1.1E1,2.0407166E-2,5.661102E-2,-6.3341804E-2,1.4825906E-2,3.562762E-2,-5.6167122E-2,-3.5581626E-2,4.2366117E-2,4.815028E-2,-6.1178166E-2,-2.9241284E-2,3.2978367E-2,-2.7195228E-2,-6.3382454E-2,-6.072588E-2,3.945397E-2,-6.328223E-2,-1.7541895E-2,5.054703E-2,-4.91472E-2],"split_indices":[3,6,7,3,7,0,7,6,0,0,7,0,0,4,7,0,2,6,0,6,0,4,7,6,0,2,0,7,6,3,7,4,2,2,7,0,6,0,0,0,0,0,0,0,0,0,0,0,0,0,0,0,0,0,0,0,0],"split_type":[0,0,0,0,0,0,0,0,0,0,0,0,0,0,0,0,0,0,0,0,0,0,0,0,0,0,0,0,0,0,0,0,0,0,0,0,0,0,0,0,0,0,0,0,0,0,0,0,0,0,0,0,0,0,0,0,0],"sum_hessian":[2.025664E3,7.241678E2,1.3014961E3,2.737633E2,4.5040448E2,8.963435E1,1.2118618E3,2.7193973E2,1.8235925E0,2.3740024E2,2.1300423E2,8.5317314E1,4.3170357E0,1.1114337E3,1.00428085E2,2.3981897E2,3.2120758E1,1.8871788E2,4.868236E1,9.000953E1,1.2299469E2,8.0548285E2,3.0595084E2,3.2376102E1,6.805198E1,2.6994358E1,5.1264E0,1.0086818E2,8.78497E1,2.7026478E1,6.2983055E1,6.1320984E2,1.9227304E2,6.2453556E1,2.4349727E2,4.281204E0,2.8094898E1,5.202958E0,2.1791399E1,2.48257E1,7.604248E1,8.41108E1,3.7388985E0,1.1721585E1,1.53048935E1,6.082284E1,2.1602116E0,5.9173456E2,2.1475283E1,3.1321629E1,1.6095142E2,1.357722E1,4.887634E1,4.816682E1,1.9533044E2,2.5471388E1,2.6235101E0],"tree_param":{"num_deleted":"0","num_feature":"8","num_nodes":"57","size_leaf_vector":"1"}},{"base_weights":[1.0829337E-3,-2.8596842E-1,8.76139E-1,-5.876717E-1,8.731589E-1,5.3645074E-1,1.1095554E0,6.0441667E-1,-9.247279E-1,5.1667917E-1,5.8580983E-2,7.122367E-1,-7.2363846E-2,-4.0626597E-2,1.1197705E0,-7.064979E-1,9.768937E-1,1.0982499E0,-1.0875123E0,-2.0278221E-1,1.146525E0,1.1749903E0,5.034243E-1,9.9101007E-1,6.2069517E-2,5.2889075E-2,-9.97808E-1,1.004697E0,-6.196165E-2,2.9543841E-2,5.6105573E-2,-1.1118922E0,-4.0159726E-1,5.6074847E-2,-7.794748E-2,9.451432E-1,6.289593E-2,1.4524443E0,-1.07926145E-1,-8.500236E-2,7.1941465E-1,1.3929543E-1,1.0743641E0,8.632956E-3,-6.0780007E-2,5.1473644E-2,7.932554E-3,-3.9416727E-2,-5.8381416E-2,-6.6178724E-2,6.1580606E-2,-8.349522E-2,5.946755E-2,-4.507942E-2,7.642868E-2,5.6622785E-2,-7.5073875E-2,-5.6681164E-2,4.029245E-2,6.0245305E-2,-6.9632165E-2,4.7110707E-2,6.7839675E-2],"categories":[],"categories_nodes":[],"categories_segments":[],"categories_sizes":[],"default_left":[0,0,0,0,0,0,0,0,0,0,0,0,0,0,0,0,0,0,0,0,0,0,0,0,0,0,0,0,0,0,0,0,0,0,0,0,0,0,0,0,0,0,0,0,0,0,0,0,0,0,0,0,0,0,0,0,0,0,0,0,0,0,0],"id":23,"left_children":[1,3,5,7,9,11,13,15,17,19,-1,21,-1,-1,23,25,27,29,31,33,35,37,39,41,-1,-1,43,45,-1,-1,-1,47,49,-1,-1,51,-1,53,55,-1,57,59,61,-1,-1,-1,-1,-1,-1,-1,-1,-1,-1,-1,-1,-1,-1,-1,-1,-1,-1,-1,-1],"loss_changes":[4.9708917E2,5.216363E2,3.8162994E1,4.7588403E2,3.2181396E1,7.113086E1,6.5802307E0,1.2830873E2,3.0502374E2,6.4679276E1,0E0,1.7316917E1,0E0,0E0,3.2749634E0,3.1075653E1,1.3811539E1,1.7488098E-1,1.3841492E1,1.2250171E2,5.1558685E-1,2.0401962E1,6.2834866E1,1.012323E1,0E0,0E0,1.3120827E1,4.0703735E0,0E0,0E0,0E0,1.3948853E1,4.814704E1,0E0,0E0,2.1836031E1,0E0,9.770988E0,2.0790663E1,0E0,1.990953E1,2.4610563E1,3.635315E0,0E0,0E0,0E0,0E0,0E0,0E0,0E0,0E0,0E0,0E0,0E0,0E0,0E0,0E0,0E0,0E0,0E0,0E0,0E0,0E0],"parents":[2147483647,0,0,1,1,2,2,3,3,4,4,5,5,6,6,7,7,8,8,9,9,11,11,14,14,15,15,16,16,17,17,18,18,19,19,20,20,21,21,22,22,23,23,26,26,27,27,31,31,32,32,35,35,37,37,38,38,40,40,41,41,42,42],"right_children":[2,4,6,8,10,12,14,16,18,20,-1,22,-1,-1,24,26,28,30,32,34,36,38,40,42,-1,-1,44,46,-1,-1,-1,48,50,-1,-1,52,-1,54,56,-1,58,60,62,-1,-1,-1,-1,-1,-1,-1,-1,-1,-1,-1,-1,-1,-1,-1,-1,-1,-1,-1,-1],"split_conditions":[2.02E2,5.75E1,4.42E1,8.7E0,8.56482E4,5.97891E4,2.968E2,4.43E1,3.37705E4,1.74E2,5.8580983E-2,3.086E2,-7.2363846E-2,-4.0626597E-2,7.3584E4,3.37705E4,7.60905E4,6E0,5.54E1,8.7E0,3.108E2,1.1E1,3.098E2,2.07E2,6.2069517E-2,5.2889075E-2,1.1E1,1.81E2,-6.196165E-2,2.9543841E-2,5.6105573E-2,4.8737E4,1.95E2,5.6074847E-2,-7.794748E-2,6.03E1,6.289593E-2,3.09E1,1.38E1,-8.500236E-2,2.05E2,6.41286E4,2.25E2,8.632956E-3,-6.0780007E-2,5.1473644E-2,7.932554E-3,-3.9416727E-2,-5.8381416E-2,-6.6178724E-2,6.1580606E-2,-8.349522E-2,5.946755E-2,-4.507942E-2,7.642868E-2,5.6622785E-2,-7.5073875E-2,-5.6681164E-2,4.029245E-2,6.0245305E-2,-6.9632165E-2,4.7110707E-2,6.7839675E-2],"split_indices":[5,4,4,6,7,7,1,4,7,5,0,2,0,0,7,7,7,5,4,6,2,6,2,5,0,0,5,5,0,0,0,7,5,0,0,4,0,4,4,0,5,7,5,0,0,0,0,0,0,0,0,0,0,0,0,0,0,0,0,0,0,0,0],"split_type":[0,0,0,0,0,0,0,0,0,0,0,0,0,0,0,0,0,0,0,0,0,0,0,0,0,0,0,0,0,0,0,0,0,0,0,0,0,0,0,0,0,0,0,0,0,0,0,0,0,0,0,0,0,0,0,0,0,0,0,0,0,0,0],"sum_hessian":[1.9769708E3,1.4891475E3,4.878233E2,1.1819872E3,3.0716034E2,2.0002599E2,2.8779733E2,2.6036044E2,9.216267E2,1.4121962E2,1.659407E2,1.8433252E2,1.5693472E1,1.106241E0,2.866911E2,5.741045E1,2.0294998E2,6.8210045E1,8.534167E2,6.6236694E1,7.498293E1,5.5876465E1,1.2845605E2,1.437012E2,1.429899E2,7.763112E0,4.964734E1,2.009752E2,1.9747691E0,4.2209883E0,6.3989056E1,8.235245E2,2.98922E1,3.359989E1,3.2636803E1,3.0082785E1,4.4900146E1,4.583226E1,1.0044206E1,1.0854152E1,1.176019E2,1.3047937E1,1.3065326E2,7.821256E0,4.1826084E1,1.9504662E2,5.9285884E0,1.2323974E2,7.002847E2,1.9227503E1,1.0664698E1,2.070732E0,2.8012053E1,1.0961069E0,4.4736153E1,5.4132776E0,4.630928E0,4.701099E0,1.12900795E2,7.8210917E0,5.2268453E0,9.19606E1,3.8692657E1],"tree_param":{"num_deleted":"0","num_feature":"8","num_nodes":"63","size_leaf_vector":"1"}},{"base_weights":[5.4946635E-3,7.082543E-1,-3.8963738E-1,1.1640756E0,3.9558607E-1,-7.693035E-1,7.0576257E-1,5.8677144E-2,7.69259E-1,-7.872013E-1,7.0269966E-1,5.5998083E-2,-9.35937E-1,5.698014E-1,1.1254624E0,4.75589E-2,2.3438338E-2,-6.2183138E-2,6.823677E-1,2.8065243E-1,1.152485E0,-1.0494691E0,5.7426006E-2,7.492788E-1,5.724989E-2,1.2265998E0,-5.9780467E-2,-6.844497E-2,5.6236535E-2,-1.0761267E0,5.7811357E-2,9.0942675E-1,6.0292333E-2,-6.7855275E-1,-1.1680593E0,1.2308784E0,5.353221E-1,-6.03831E-1,9.6880275E-1,9.725426E-1,1.389313E0,-5.869963E-4,-7.2457045E-2,-5.880132E-2,5.7757206E-2,-4.6315134E-2,8.185323E-2,-6.070436E-2,-4.13685E-2,6.526948E-2,-4.85557E-2,-7.766027E-2,3.588606E-2,-8.436084E-2,4.7338214E-2,6.914281E-2,-7.37304E-2,-6.8206616E-2,6.449953E-2,4.3100785E-2,7.41671E-2],"categories":[],"categories_nodes":[],"categories_segments":[],"categories_sizes":[],"default_left":[0,0,0,0,0,0,0,0,0,0,0,0,0,0,0,0,0,0,0,0,0,0,0,0,0,0,0,0,0,0,0,0,0,0,0,0,0,0,0,0,0,0,0,0,0,0,0,0,0,0,0,0,0,0,0,0,0,0,0,0,0],"id":24,"left_children":[1,3,5,7,9,11,13,-1,15,17,19,-1,21,23,25,-1,-1,-1,27,29,31,33,-1,35,37,39,-1,-1,-1,41,-1,43,-1,45,47,49,51,53,55,57,59,-1,-1,-1,-1,-1,-1,-1,-1,-1,-1,-1,-1,-1,-1,-1,-1,-1,-1,-1,-1],"loss_changes":[5.289579E2,9.724783E1,5.0764716E2,1.3790894E-1,1.488153E2,2.8626068E2,1.7297302E1,0E0,6.920242E-2,5.7601532E1,6.128607E1,0E0,1.9835687E2,2.198632E1,1.9282555E1,0E0,0E0,0E0,2.0319891E1,2.0172435E2,9.369507E-1,3.3982483E1,0E0,1.7608383E1,3.866349E1,1.6755981E0,0E0,0E0,0E0,2.6468544E1,0E0,1.790667E1,0E0,1.1276417E2,8.367493E0,1.008873E1,4.8549416E1,6.416119E1,2.930106E1,2.5436625E1,8.1861115E-1,0E0,0E0,0E0,0E0,0E0,0E0,0E0,0E0,0E0,0E0,0E0,0E0,0E0,0E0,0E0,0E0,0E0,0E0,0E0,0E0],"parents":[2147483647,0,0,1,1,2,2,3,3,4,4,5,5,6,6,8,8,9,9,10,10,12,12,13,13,14,14,18,18,19,19,20,20,21,21,23,23,24,24,25,25,29,29,31,31,33,33,34,34,35,35,36,36,37,37,38,38,39,39,40,40],"right_children":[2,4,6,8,10,12,14,-1,16,18,20,-1,22,24,26,-1,-1,-1,28,30,32,34,-1,36,38,40,-1,-1,-1,42,-1,44,-1,46,48,50,52,54,56,58,60,-1,-1,-1,-1,-1,-1,-1,-1,-1,-1,-1,-1,-1,-1,-1,-1,-1,-1,-1,-1],"split_conditions":[1.382E3,8.7E0,2.02E2,3.12E2,7.1136E4,3.37705E4,2.25E2,5.8677144E-2,3.1E1,2.07E2,1.83E2,5.5998083E-2,8.56482E4,1.568E3,1.11E1,4.75589E-2,2.3438338E-2,-6.2183138E-2,1.09E1,8.56482E4,1.94E2,1.44E3,5.7426006E-2,3.086E2,2.16E2,1.56E3,-5.9780467E-2,-6.844497E-2,5.6236535E-2,5.41E1,5.7811357E-2,7.71912E4,6.0292333E-2,1.438E3,1.79E2,1.11E1,3.095E2,1.88E3,2.19E2,4.37E1,9E0,-5.869963E-4,-7.2457045E-2,-5.880132E-2,5.7757206E-2,-4.6315134E-2,8.185323E-2,-6.070436E-2,-4.13685E-2,6.526948E-2,-4.85557E-2,-7.766027E-2,3.588606E-2,-8.436084E-2,4.7338214E-2,6.914281E-2,-7.37304E-2,-6.8206616E-2,6.449953E-2,4.3100785E-2,7.41671E-2],"split_indices":[3,6,5,2,7,7,5,0,5,5,5,0,7,3,6,0,0,0,6,7,5,3,0,2,5,3,0,0,0,4,0,7,0,3,5,6,2,3,5,4,6,0,0,0,0,0,0,0,0,0,0,0,0,0,0,0,0,0,0,0,0],"split_type":[0,0,0,0,0,0,0,0,0,0,0,0,0,0,0,0,0,0,0,0,0,0,0,0,0,0,0,0,0,0,0,0,0,0,0,0,0,0,0,0,0,0,0,0,0,0,0,0,0,0,0,0,0,0,0,0,0,0,0,0,0],"sum_hessian":[1.9029058E3,6.84572E2,1.2183337E3,2.7741754E2,4.071545E2,9.049688E2,3.133649E2,2.6899503E2,8.422504E0,8.3604614E1,3.235499E2,7.288529E1,8.320835E2,2.384704E2,7.4894516E1,3.8975282E0,4.5249763E0,6.390795E1,1.9696663E1,1.6775978E2,1.5579012E2,7.89575E2,4.25085E1,1.7628111E2,6.2189274E1,7.221921E1,2.6753109E0,3.1225715E0,1.6574091E1,6.570896E1,1.0205081E2,3.1293428E1,1.2449668E2,1.9291475E2,5.966603E2,5.2762947E1,1.2351817E2,3.6242725E1,2.5946548E1,3.0919353E1,4.1299854E1,1.7319546E1,4.838942E1,2.8994145E0,2.8394014E1,1.748115E2,1.8103258E1,5.233861E2,7.3274155E1,5.1429836E1,1.3331076E0,9.317253E0,1.1420092E2,2.128382E1,1.4958906E1,2.2557985E1,3.3885646E0,3.3037665E0,2.7615587E1,7.7888694E0,3.3510986E1],"tree_param":{"num_deleted":"0","num_feature":"8","num_nodes":"61","size_leaf_vector":"1"}},{"base_weights":[2.6684627E-2,7.139835E-1,-3.289746E-1,1.153857E0,4.239541E-1,-6.8531144E-1,7.1167064E-1,5.822752E-2,2.2760069E-2,-1.3449135E-1,9.767117E-1,5.6382623E-2,-8.6119515E-1,1.020691E0,5.115234E-1,-1.1121193E0,1.1270616E0,4.3351936E-1,1.1093307E0,-1.0015198E0,8.626584E-1,-5.5981368E-2,1.0725218E0,-1.0599541E-2,8.6197335E-1,-6.5525286E-2,-2.1957703E-1,5.7443302E-2,2.7582774E-2,-5.899639E-2,8.937549E-1,8.872136E-1,5.909103E-2,-6.6915154E-1,-1.1079202E0,1.7967239E-1,5.593974E-2,1.0988437E0,-4.437123E-2,5.675332E-1,-1.1238151E0,-8.139542E-2,1.0475335E0,5.8491405E-2,-6.3467E-2,5.7086803E-2,-6.063546E-2,-6.4138256E-2,5.8382135E-2,-4.5548987E-2,6.686151E-2,-3.8268905E-2,-5.9884507E-2,-6.3619256E-2,5.320434E-2,6.897319E-2,4.753332E-2,6.4377666E-2,-2.1355322E-2,5.5695236E-2,-8.565E-2,5.4467466E-2,-5.1794507E-2],"categories":[],"categories_nodes":[],"categories_segments":[],"categories_sizes":[],"default_left":[0,0,0,0,0,0,0,0,0,0,0,0,0,0,0,0,0,0,0,0,0,0,0,0,0,0,0,0,0,0,0,0,0,0,0,0,0,0,0,0,0,0,0,0,0,0,0,0,0,0,0,0,0,0,0,0,0,0,0,0,0,0,0],"id":25,"left_children":[1,3,5,7,9,11,13,-1,-1,15,17,-1,19,21,23,25,27,29,31,33,35,-1,37,39,41,-1,43,-1,-1,-1,45,47,-1,49,51,53,-1,55,-1,57,59,-1,61,-1,-1,-1,-1,-1,-1,-1,-1,-1,-1,-1,-1,-1,-1,-1,-1,-1,-1,-1,-1],"loss_changes":[4.5778317E2,8.098288E1,4.58145E2,1.3613586E0,1.1941957E2,2.9429282E2,1.897902E1,0E0,0E0,2.3942159E2,1.3518127E1,0E0,2.0384015E2,1.4838577E1,3.539047E1,1.9066025E1,4.3025208E-1,3.059097E1,1.4560852E0,2.6715149E1,1.0942413E1,0E0,7.1937256E0,5.125473E1,5.516854E1,0E0,3.2227863E1,0E0,0E0,0E0,1.7848011E1,2.7230244E1,0E0,9.379373E1,1.7121155E1,2.5195124E1,0E0,3.652954E0,0E0,3.809774E1,3.779437E1,0E0,1.0563408E1,0E0,0E0,0E0,0E0,0E0,0E0,0E0,0E0,0E0,0E0,0E0,0E0,0E0,0E0,0E0,0E0,0E0,0E0,0E0,0E0],"parents":[2147483647,0,0,1,1,2,2,3,3,4,4,5,5,6,6,9,9,10,10,12,12,13,13,14,14,15,15,16,16,17,17,18,18,19,19,20,20,22,22,23,23,24,24,26,26,30,30,31,31,33,33,34,34,35,35,37,37,39,39,40,40,42,42],"right_children":[2,4,6,8,10,12,14,-1,-1,16,18,-1,20,22,24,26,28,30,32,34,36,-1,38,40,42,-1,44,-1,-1,-1,46,48,-1,50,52,54,-1,56,-1,58,60,-1,62,-1,-1,-1,-1,-1,-1,-1,-1,-1,-1,-1,-1,-1,-1,-1,-1,-1,-1,-1,-1],"split_conditions":[1.379E3,8.7E0,2.03E2,3.12E2,1.77E2,3.37705E4,1.456E3,5.822752E-2,2.2760069E-2,8.56482E4,7.13432E4,5.6382623E-2,8.05156E4,2.98E2,2.14E2,3.118E2,1.54E2,2.06E2,7.71912E4,1.44E3,8.56482E4,-5.5981368E-2,1.11E1,1.555E3,1.496E3,-6.5525286E-2,3.119E2,5.7443302E-2,2.7582774E-2,-5.899639E-2,2.993E2,1.95E2,5.909103E-2,1.438E3,4.8737E4,1.84E2,5.593974E-2,2.992E2,-4.437123E-2,5.64765E4,3.37705E4,-8.139542E-2,2.35E2,5.8491405E-2,-6.3467E-2,5.7086803E-2,-6.063546E-2,-6.4138256E-2,5.8382135E-2,-4.5548987E-2,6.686151E-2,-3.8268905E-2,-5.9884507E-2,-6.3619256E-2,5.320434E-2,6.897319E-2,4.753332E-2,6.4377666E-2,-2.1355322E-2,5.5695236E-2,-8.565E-2,5.4467466E-2,-5.1794507E-2],"split_indices":[3,6,5,2,5,7,3,0,0,7,7,0,7,1,5,2,5,5,7,3,7,0,6,3,3,0,2,0,0,0,1,5,0,3,7,5,0,1,0,7,7,0,5,0,0,0,0,0,0,0,0,0,0,0,0,0,0,0,0,0,0,0,0],"split_type":[0,0,0,0,0,0,0,0,0,0,0,0,0,0,0,0,0,0,0,0,0,0,0,0,0,0,0,0,0,0,0,0,0,0,0,0,0,0,0,0,0,0,0,0,0,0,0,0,0,0,0,0,0,0,0,0,0,0,0,0,0,0,0],"sum_hessian":[1.8707905E3,6.3761487E2,1.2331757E3,2.5217496E2,3.8543994E2,9.188763E2,3.1429935E2,2.477166E2,4.458353E0,1.9210991E2,1.9333002E2,8.0782265E1,8.38094E2,1.2193547E2,1.9236386E2,1.0830132E2,8.3808586E1,3.8776146E1,1.5455388E2,7.7539453E2,6.269946E1,2.3959181E0,1.1953955E2,7.764825E1,1.1471562E2,8.822351E1,2.007781E1,7.978846E1,4.0201254E0,8.258963E0,3.0517181E1,4.1286568E1,1.1326731E2,1.8979884E2,5.855957E2,1.7564722E1,4.5134735E1,1.1838895E2,1.1506041E0,5.1429333E1,2.621891E1,7.417205E0,1.0729842E2,8.591814E0,1.1485996E1,2.7712719E1,